t,phi_model_real,phi_model_imag,phi_model_abs
20.0,1.5067262416365996e-06,3.5211813291749104e-06,3.830005472602662e-06
20.01,1.4572860526318097e-06,3.734253183777265e-06,4.008532085408054e-06
20.02,1.4012579631031137e-06,3.950141263265304e-06,4.191317200941859e-06
20.03,1.338634865544534e-06,4.1683950260541645e-06,4.378065828249335e-06
20.04,1.2694287539370354e-06,4.3885381620458776e-06,4.568447937872899e-06
20.05,1.1936704730682739e-06,4.610068846832317e-06,4.7620986939383015e-06
20.06,1.1114094076115309e-06,4.832460107967063e-06,4.958618917241015e-06
20.07,1.0227131165771603e-06,5.055160304405693e-06,5.15757576988046e-06
20.08,9.276669173828436e-07,5.277593719564054e-06,5.3585036510567515e-06
20.09,8.263734222168407e-07,5.499161268318264e-06,5.560905293917359e-06
20.1,7.189520277358484e-07,5.719241318729797e-06,5.764253054824332e-06
20.11,6.055383576269827e-07,5.937190630378951e-06,5.967990389068768e-06
20.12,4.862836563536087e-07,6.152345412891292e-06,6.171533510721719e-06
20.13,3.61354131688775e-07,6.364022510444965e-06,6.3742732387260265e-06
20.14,2.3093024355471566e-07,6.571520720727473e-06,6.57557703630174e-06
20.15,9.520593742628836e-08,6.774122259675406e-06,6.774791255791653e-06
20.16,-4.561217785080091e-08,6.971094386304195e-06,6.971243605952252e-06
20.17,-1.9130570535509436e-07,7.161691204671567e-06,7.164245862892444e-06
20.18,-3.4164538253394683e-07,7.3451556623604946e-06,7.353096849063883e-06
20.19,-4.963920403472368e-07,7.520721766440848e-06,7.5370857064211e-06
20.2,-6.552975834625069e-07,7.68761703852467e-06,7.715495489850707e-06
20.21,-8.18105970032736e-07,7.845065229874467e-06,7.88760710476812e-06
20.22,-9.845541634593709e-07,7.992289315492557e-06,8.052703608312034e-06
20.23,-1.1543730223792038e-06,8.128514782429667e-06,8.210074886563125e-06
20.24,-1.3272880893961303e-06,8.252973222132335e-06,8.359022710669365e-06
20.25,-1.5030202340731997e-06,8.364906229518722e-06,8.498866162769866e-06
20.26,-1.6812861020480713e-06,8.46356960266437e-06,8.62894740835082e-06
20.27,-1.8617983201263438e-06,8.548237826700782e-06,8.748637775486157e-06
20.28,-2.0442654073937027e-06,8.618208814145838e-06,8.857344083871166e-06
20.29,-2.2283913451209554e-06,8.672808861715057e-06,8.954515148172635e-06
20.3,-2.4138747637442573e-06,8.711397771459092e-06,9.039648361945493e-06
20.31,-2.6004077137789e-06,8.73337407222903e-06,9.112296250855932e-06
20.32,-2.7876739990408137e-06,8.738180267009355e-06,9.172072868424012e-06
20.33,-2.9753470649419707e-06,8.725308023059204e-06,9.218659894698368e-06
20.34,-3.163087451429533e-06,8.694303216012245e-06,9.251812289349145e-06
20.35,-3.3505398388004303e-06,8.644770736675088e-06,9.271363346405035e-06
20.36,-3.5373297344074496e-06,8.576378970712081e-06,9.277228998962755e-06
20.37,-3.7230598681711583e-06,8.48886386723269e-06,9.269411229328182e-06
20.38,-3.907306383817914e-06,8.382032522336267e-06,9.248000453207554e-06
20.39,-4.089614929822278e-06,8.255766218009664e-06,9.213176765950759e-06
20.4,-4.269496768082543e-06,8.110022874727066e-06,9.165209963839539e-06
20.41,-4.446425028423418e-06,7.944838897069712e-06,9.104458283378648e-06
20.42,-4.619831242491019e-06,7.760330414583308e-06,9.031365835387405e-06
20.43,-4.789102290898062e-06,7.556693943790711e-06,8.94645874705787e-06
20.44,-4.953577892552006e-06,7.334206520472409e-06,8.850340062535448e-06
20.45,-5.112548755106806e-06,7.093225372721736e-06,8.743683489329173e-06
20.46,-5.26525549092149e-06,6.834187223641357e-06,8.627226112283232e-06
20.47,-5.410888384723098e-06,6.557607326851923e-06,8.501760227453687e-06
20.48,-5.548588078298631e-06,6.264078347386413e-06,8.36812447355039e-06
20.49,-5.6774472153093524e-06,5.954269204626617e-06,8.227194457637961e-06
20.5,-5.796513067009611e-06,5.628923992442161e-06,8.079873083700274e-06
20.51,-5.904791138462219e-06,5.28886108490215e-06,7.92708079713171e-06
20.52,-6.001249736016192e-06,4.934972524225952e-06,7.769745955235568e-06
20.53,-6.084825461237377e-06,4.568223771839736e-06,7.608795523821384e-06
20.54,-6.154429584813131e-06,4.189653884346224e-06,7.445146283656254e-06
20.55,-6.208955246715471e-06,3.8003761549775935e-06,7.279696709000853e-06
20.56,-6.247285426089041e-06,3.4015792386375893e-06,7.11331965482747e-06
20.57,-6.268301625858404e-06,2.994528755995953e-06,6.9468559610248e-06
20.58,-6.2708932225409345e-06,2.580569350021148e-06,6.781109052270019e-06
20.59,-6.253967440557968e-06,2.1611271475837864e-06,6.616840582603061e-06
20.6,-6.21645992191042e-06,1.7377125597071076e-06,6.4547671453649155e-06
20.61,-6.1573458754802e-06,1.311923336974388e-06,6.29555804296895e-06
20.62,-6.075651804853867e-06,8.854477815541449e-07,6.139834087960619e-06
20.63,-5.970467828565266e-06,4.6006800408733797e-07,5.988167387466532e-06
20.64,-5.84096062142639e-06,3.766310198827955e-08,5.84108204790047e-06
20.65,-5.686387019592636e-06,-3.797878748601551e-07,5.699055725862173e-06
20.66,-5.506108344644271e-06,-7.902033151423802e-07,5.562521944426223e-06
20.67,-5.299605513023127e-06,-1.1913969481106082e-06,5.4318730914512716e-06
20.68,-5.066495006223003e-06,-1.5810764216094662e-06,5.307464017687923e-06
20.69,-4.806545784087299e-06,-1.9568427333613747e-06,5.189616157061773e-06
20.7,-4.5196972281764766e-06,-2.3161907068782473e-06,5.078622099055538e-06
20.71,-4.206078204387717e-06,-2.656510720065104e-06,4.974750553268598e-06
20.72,-3.866027333552513e-06,-2.975091914506951e-06,4.878251658487883e-06
20.73,-3.500114555528144e-06,-3.269127137041741e-06,4.789362602681353e-06
20.74,-3.109164066016819e-06,-3.535719893224335e-06,4.708313535943899e-06
20.75,-2.6942786956322157e-06,-3.7718936251447777e-06,4.635333775376424e-06
20.76,-2.2568657871088548e-06,-3.9746036644073455e-06,4.570658319120209e-06
20.77,-1.798664608338712e-06,-4.140752255498267e-06,4.514534706335109e-06
20.78,-1.3217753153030073e-06,-4.267207095940399e-06,4.467230281034151e-06
20.79,-8.286894487940426e-07,-4.350823898200512e-06,4.429039940629942e-06
20.8,-3.2232191078525734e-07,-4.388473545096703e-06,4.400294475394332e-06
20.81,1.9395568138188544e-07,-4.377074486242584e-06,4.381369633397311e-06
20.82,7.162804242319716e-07,-4.313631108778385e-06,4.372696077794405e-06
20.83,1.2402625758461803e-06,-4.195278912254385e-06,4.374770440680396e-06
20.84,1.7609493483908458e-06,-4.019337426146411e-06,4.3881677215917125e-06
20.85,2.272788484736853e-06,-3.7833719301255643e-06,4.4135553307978906e-06
20.86,2.7695921975801253e-06,-3.485265173169985e-06,4.451709140117795e-06
20.87,3.2445022208150312e-06,-3.123300438933077e-06,4.503531979759134e-06
20.88,3.689956933580202e-06,-2.6962574727386007e-06,4.570075112180909e-06
20.89,4.097661776198534e-06,-2.203522971091796e-06,4.6525633274838665e-06
20.9,4.45856449486451e-06,-1.645217538590225e-06,4.752424444865094e-06
20.91,4.762837141598873e-06,-1.0223412400201118e-06,4.871324178130581e-06
20.92,4.999867233837751e-06,-3.3694011723322295e-07,5.01120753896758e-06
20.93,5.158261063938403e-06,4.077036997390364e-07,5.174348220841331e-06
20.94,5.225862867357266e-06,1.2068553819740691e-06,5.363407743349678e-06
20.95,5.189794439533371e-06,2.05408109764864e-06,5.581506560090111e-06
20.96,5.036520872978755e-06,2.940968526234703e-06,5.8323098662754365e-06
20.97,4.7519494141301094e-06,3.8568104102813305e-06,6.12013151617724e-06
20.98,4.321570071744545e-06,4.7882470882934375e-06,6.450060314721773e-06
20.99,3.730648616882169e-06,5.7188637121552375e-06,6.82811403396654e-06
21.0,2.9644850884248504e-06,6.628737676154588e-06,7.261427891177094e-06
21.01,2.0087539701701133e-06,7.493931710911933e-06,7.75848599924532e-06
21.02,8.499459769167505e-07,8.285928178528309e-06,8.329406578106656e-06
21.03,-5.240639439703717e-07,8.971000419676673e-06,8.986294650589242e-06
21.04,-2.1232919969116178e-06,9.509517651459583e-06,9.743679739583517e-06
21.05,-3.9547267079275926e-06,9.855181036382498e-06,1.0619061003415934e-05
21.06,-6.021169302264965e-06,9.954190327932019e-06,1.1633588648875002e-05
21.07,-8.31977549119511e-06,9.744343205551029e-06,1.2812918821699423e-05
21.08,-1.0840226801355182e-05,9.154073391985356e-06,1.4188290128506447e-05
21.09,-1.3562441884754167e-05,8.101439374593995e-06,1.5797884346252066e-05
21.1,-1.645371591006108e-05,6.4930836737725865e-06,1.7688552875902802e-05
21.11,-1.946514782882359e-05,4.223193989457524e-06,1.9918015650926316e-05
21.12,-2.2527179287482612e-05,1.172513394747568e-06,2.2557672626209648e-05
21.13,-2.554402290577799e-05,-2.792531360773669e-06,2.5696212514917738e-05
21.14,-2.8386698484559158e-05,-7.820484247998952e-06,2.9444263018905278e-05
21.15,-3.088431930894537e-05,-1.4075156547446943e-05,3.3940406759672674e-05
21.16,-3.281317149489806e-05,-2.173536859675565e-05,3.935899479903447e-05
21.17,-3.388299969242981e-05,-3.09938624712563e-05,4.5920335136455047e-05
21.18,-3.371974199450949e-05,-4.205500609673988e-05,5.390403081378159e-05
21.19,-3.184373122299031e-05,-5.513076585215864e-05,6.366651051885589e-05
21.2,-2.764207885271076e-05,-7.043422942343864e-05,7.566416058989269e-05
21.21,-2.033355361518505e-05,-8.81696949524445e-05,9.048396825199877e-05
21.22,-8.923719623237176e-06,-0.00010851798127195797,0.00010888427357178432
21.23,7.852647787375087e-06,-0.00013161512337339602,0.00013184917435413399
21.24,3.1605877328167105e-05,-0.0001575219518320652,0.0001606614352938085
21.25,6.438788115173004e-05,-0.00018618115434661584,0.00019700056211353233
21.26,0.000108818222262487,-0.0002173572024459576,0.00024307521254027736
21.27,0.00016824999893443342,-0.0002505528940814004,0.0003018026091239145
21.28,0.0002469897575493017,-0.0002848940836144521,0.0003770524886707171
21.29,0.00035059133986988465,-0.00031897128703183177,0.00047397992525264633
21.3,0.0004862517677723028,-0.00035062308212003424,0.0005994808815775877
21.31,0.000663349137665926,-0.00037664138840419757,0.00076281768064274
21.32,0.0008941797709370968,-0.00039237267340264885,0.0009764803006647192
21.33,0.001194977109767452,-0.0003911819019919728,0.0012573756691276598
21.34,0.0015873318429597584,-0.00036373798605445656,0.0016284740409883648
21.35,0.002100187047926165,-0.00029707169185069245,0.0021210934035010938
21.36,0.002772661830942104,-0.00017335192724116333,0.002778075686413429
21.37,0.003658073679475832,3.1670807854170116e-05,0.0036582107763965684
21.38,0.004829699984853002,0.0003505844147048898,0.00484240760113428
21.39,0.006389065720621862,0.0008265727831592435,0.0064423119567655965
21.4,0.008477897457490429,0.0015158606664182179,0.008612350367914473
21.41,0.011295382190863797,0.0024899475457369523,0.011566568100270905
21.42,0.015123057248350391,0.00383676722811923,0.015602167903841217
21.43,0.020360577452785907,0.005659074854302092,0.021132397933445415
21.44,0.027576779429380627,0.008066913821786571,0.028732453120206107
21.45,0.03758185075131232,0.011158575461775056,0.03920343495447871
21.46,0.05152783462691504,0.014980476038210821,0.053661274711565635
21.47,0.07104570185160952,0.019450052759372387,0.07366000477823878
21.48,0.09842683212879079,0.024216094351656902,0.101362026955648
21.49,0.13685312167277525,0.02841667743831462,0.1397722592942414
21.5,0.19066982668088397,0.03027499584803815,0.19305843203578824
21.51,0.2656733420895269,0.026447548977163574,0.2669865119138386
21.52,0.36934431013801144,0.01100923227586059,0.3695083525803272
21.53,0.510883517000269,-0.02606779459488085,0.511548138358068
21.54,0.7007902812328884,-0.10109532576453702,0.7080446900880684
21.55,0.9495474340628184,-0.2396298142499549,0.9793175059258108
21.56,1.2647387563005328,-0.4802043419329205,1.3528341848504006
21.57,1.6456420537513428,-0.8785307028771584,1.865463471894524
21.58,2.0740792260145167,-1.5113181992799842,2.566298372220165
21.59,2.5002095163818776,-2.47794666235425,3.520123192060055
21.6,2.8222857774513814,-3.896911794785791,4.8115713177656385
21.61,2.860553850139162,-5.892312228072139,6.549970360439384
21.62,2.3279614219620544,-8.564024129476445,8.874790908657982
21.63,0.8046136811503144,-11.93440564773334,11.961498289952798
21.64,-2.270923066616466,-15.865751083267037,16.02744985987103
21.65,-7.573056537662026,-19.94814646963614,21.33728504043292
21.66,-15.79668448834875,-23.36881218915674,28.207031463032735
21.67,-27.473116247063576,-24.792457320561066,37.0059192064798
21.68,-42.67687082052055,-22.306029180399253,48.1546907458476
21.69,-60.63339449204759,-13.504432863068223,62.119064984764414
21.7,-79.28609232756588,4.195486278935967,79.39701846852967
21.71,-94.94585147250307,32.943642887702175,100.49874784568742
21.72,-102.2106042035337,73.54246001060065,125.91862863000938
21.73,-94.37545164292021,124.33921050815499,156.0992157014136
21.74,-64.51581878925008,180.18657375567204,191.38832836893582
21.75,-7.284013977634014,231.87707902351755,231.99145811021785
21.76,78.78992713392353,266.52080561642634,277.92299732875273
21.77,189.01069822004453,269.240122945409,328.96092145616274
21.78,311.0218096715185,226.25327675189533,384.6103370065813
21.79,424.9508784396512,128.93850296713458,444.08150899810835
21.8,505.80662054446424,-22.059505991299716,506.2874274472869
21.81,528.1613693847912,-213.98882950490474,569.8645902872867
21.82,472.35857608881923,-421.71446237125514,633.2185342973889
21.83,330.7351116712949,-610.7975596508759,694.5929548791071
21.84,111.96584544967027,-743.778102806666,752.1583721278005
21.85,-158.13318431329697,-788.4114855398356,804.1136577077854
21.86,-440.13540798659443,-725.7604917027144,848.7917699177412
21.87,-688.3835017613425,-555.8134539225981,884.7601036770228
21.88,-860.4879846467195,-298.8484942518454,910.9061390933581
21.89,-926.4655986599911,8.048131421399493,926.5005547325873
21.9,-875.0806281770267,318.47724890120475,931.2324435275971
21.91,-715.7780563426511,586.2451467541745,925.2143524797303
21.92,-475.9026086225093,774.4168965984294,908.9580972909872
21.93,-194.21569211053992,861.7097570654208,883.3252178465883
21.94,87.3809455144819,844.9519168579609,849.4581634435845
21.95,331.76883263308076,737.5123567569143,808.6995948285465
21.96,512.4402065997241,564.6438871707134,762.5074981003277
21.97,616.2986433205567,357.28361130038036,712.3732144477359
21.98,643.4068695830941,145.92908819628414,659.7482084920849
21.99,604.3730089546899,-44.15326045623641,605.9836997493101
22.0,516.4408423652231,-195.7244817614129,552.2854483178738
22.01,399.3677288465436,-300.31613206754383,499.68426233378295
22.02,271.92910735728606,-357.3160253942675,449.0213596608598
22.03,149.52066675604723,-372.02392768150384,400.94667046222713
22.04,42.96783894303375,-353.32446410250617,355.9275377331145
22.05,-41.6176509031781,-311.49715687552305,314.265027656965
22.06,-102.24067464845427,-256.48861477875005,276.1151300883259
22.07,-140.02440589015734,-196.77757985642327,241.51242241144152
22.08,-158.1037982363502,-138.8124890660695,210.3941970147423
22.09,-160.61782822957113,-86.90954165966349,182.6235340165029
22.1,-151.91512012758812,-43.46312416642764,158.0102746206266
22.11,-136.0099706607934,-9.32517554819359,136.32927425228416
22.12,-116.27220263242151,15.761760074616246,117.3356645936974
22.13,-95.3050005109866,32.756450208808374,100.77712117678941
22.14,-74.95513899219846,42.97977405195517,86.40332076313334
22.15,-56.4032472911418,47.86086216322929,73.97288984481632
22.16,-40.291806955046425,48.76649287143426,63.258205275540156
22.17,-26.860789805286515,46.90128074078029,54.04842425167705
22.18,-16.072258999897134,43.262075085632986,46.151106704766256
22.19,-7.714419138066293,38.63000475535514,39.39275986823624
22.2,-1.4821072083956905,33.58590533958017,33.61859127412121
22.21,2.965211222161388,28.5380746977225,28.691709343376896
22.22,5.964726130847017,23.75454425346557,24.491964610987484
22.23,7.826834007251845,19.39485557485638,20.914582313462816
22.24,8.822986867648428,15.538511684577188,17.86870008250288
22.25,9.181366872532896,12.208825556527925,15.275893398350682
22.26,9.08759111141171,9.391901547544013,13.068746186492747
22.27,8.688341155863336,7.051079938592286,11.189504025696905
22.28,8.096425220523294,5.13747036136966,9.588832205512691
22.29,7.3962800981772014,3.5972989106180018,8.22468958338402
22.3,6.649300461334837,2.3767749665663036,7.061321113418078
22.31,5.89865674564665,1.4251031915551458,6.068366378980705
22.32,5.17344887082041,0.6961607537183003,5.220077874324349
22.33,4.49216189324232,0.14925196029210636,4.494640655575201
22.34,3.8654597348381263,-0.2507457275190849,3.8735839195148354
22.35,3.29838954589866,-0.5336135197446313,3.341274754483358
22.36,2.792083703270994,-0.7242371256289544,2.884484498174806
22.37,2.345047437006823,-0.8431544739356759,2.492018649354377
22.38,1.9541135432177528,-0.9071318283142609,2.154401980533766
22.39,1.6151355050351373,-0.9297227238526836,1.8636112907130504
22.4,1.3234790710632802,-0.9217837187334037,1.61284905544955
22.41,1.0743613720746759,-0.8919342123635051,1.396352031899795
22.42,0.8630767479269554,-0.8469562147236191,1.209229631819834
22.43,0.6851399268186652,-0.792135291387095,1.0473275701431735
22.44,0.5363701044627273,-0.7315469683460238,0.9071129234321467
22.45,0.41293372227297753,-0.6682944101884856,0.7855772894371326
22.46,0.31135918217864134,-0.6047037241709242,0.6801552281304155
22.47,0.2285331787040378,-0.5424831701410239,0.5886555900140819
22.48,0.16168559730942422,-0.4828521309572066,0.5092037045694195
22.49,0.10836785961477213,-0.42664509195624856,0.4401927163048507
22.5,0.06642805178055307,-0.3743952016216699,0.38024262393988745
22.51,0.03398503653283132,-0.32640130708060566,0.3281658056106177
22.52,0.009402928706902758,-0.2827817172464639,0.28293800500662003
22.53,-0.008733265440848497,-0.24351736476077915,0.24367391502845495
22.54,-0.021640441878420853,-0.20848652517706487,0.20960663134810456
22.55,-0.03035848207389926,-0.1774928108203651,0.18007036215531189
22.56,-0.03576964122463364,-0.15028778597216086,0.15448587587787124
22.57,-0.03861634222918128,-0.12658924550456563,0.13234824881567736
22.58,-0.039517510702812154,-0.10609595534471253,0.11321654204511859
22.59,-0.03898358751730141,-0.08849946372843699,0.09670509384691188
22.6,-0.03743033703875147,-0.07349344998565689,0.08247616214172905
22.61,-0.03519154208790469,-0.06078097505346202,0.07023369250562254
22.62,-0.03253064845564165,-0.05007992735573413,0.059718022513309564
22.63,-0.029651397840690194,-0.0411269115820946,0.050701363395754095
22.64,-0.026707471356583717,-0.033679799190599505,0.04298392606291155
22.65,-0.023811157401099497,-0.027519141883939835,0.03639058101773517
22.66,-0.021041057308715753,-0.022448637667902383,0.03076796102788461
22.67,-0.018448848369325282,-0.01829482941289806,0.025981931979770022
22.68,-0.01606513443485192,-0.01490620539462598,0.021915371401749997
22.69,-0.013904427192917694,-0.012151858576554545,0.01846620595649608
22.7,-0.01196931414884869,-0.009919845923327546,0.015545668989670004
22.71,-0.010253880698854795,-0.008115371090740538,0.013076747199773121
22.72,-0.008746462195453254,-0.006658894224130289,0.010992791875799737
22.73,-0.007431806956807485,-0.005484252362900646,0.009236275148740073
22.74,-0.006292732622619597,-0.004536854173537893,0.007757675531480362
22.75,-0.005311356388073591,-0.0037719943625629873,0.006514479883485489
22.76,-0.004469975014176039,-0.0031533168673902176,0.005470291024573166
22.77,-0.0037516638286874105,-0.0026514422262344686,0.004594031711094371
22.78,-0.0031406559449146366,-0.002242763561287058,0.0038592367323299383
22.79,-0.0026225543328403083,-0.0019084073184181568,0.003243425615254874
22.8,-0.0021844207672697567,-0.0016333490674105495,0.002727548948138292
22.81,-0.0018147775024866845,-0.0014056709460138277,0.0022955017299055164
22.82,-0.001503550092058702,-0.0012159453430925296,0.00193369748324761
22.83,-0.0012419732652244452,-0.0010567287684625502,0.0016306971765562878
22.84,-0.0010224762583445116,-0.0009221501838428838,0.0013768873085476736
22.85,-0.0008385594691654409,-0.0008075790522662972,0.001164201833440558
22.86,-0.0006846706840148713,-0.0007093597407677837,0.000985882948108714
22.87,-0.0005560863203070474,-0.0006246004803511229,0.0008362761240687706
22.88,-0.00044880100983694867,-0.0005510066996119863,0.0007106551410128253
22.89,-0.0003594273011332001,-0.0004867501024407076,0.0006050732575696397
22.9,-0.0002851061675144675,-0.0004303662926028782,0.0005162370313756403
22.91,-0.00022342826974363478,-0.00038067502467067243,0.0004413996671143415
22.92,-0.00017236545160501768,-0.00033671826903128684,0.00037827112182458195
22.93,-0.00013021167197287828,-0.00029771222032617365,0.0003249425266866629
22.94,-9.553244117724172e-05,-0.00026301016456681036,0.00027982279032048803
22.95,-6.712178870742982e-05,-0.00023207376626586054,0.00024158552834991197
22.96,-4.396581043029214e-05,-0.0002044508612768301,0.00020912471676879808
22.97,-2.52119023276808e-05,-0.00017975826188640183,0.0001815176926236138
22.98,-1.014286708308449e-05,-0.00015766841524140937,0.00015799432558608745
22.99,1.844832125708025e-06,-0.00013789901991255262,0.0001379113595698869
23.0,1.125930730590311e-05,-0.00012020491177809206,0.0001207310764326553
23.01,1.8528522409050758e-05,-0.00010437169091045329,0.00010600356600685607
23.02,2.4013084354214577e-05,-9.021068528439616e-05,9.335200029824211e-05
23.03,2.801695105466399e-05,-7.75549426884778e-05,8.246040675265016e-05
23.04,3.079639710920705e-05,-6.625601549544934e-05,7.306351801166708e-05
23.05,3.256752390726399e-05,-5.618135894185006e-05,6.493834542089293e-05
23.06,3.351255460164874e-05,-4.7212206240721436e-05,5.789718243615059e-05
23.07,3.3785114998878844e-05,-3.924181630117406e-05,5.1781793538873864e-05
23.08,3.351466811102234e-05,-3.217401446419182e-05,4.6458585700966e-05
23.09,3.281024211462462e-05,-2.5921965346405648e-05,4.1814594043713285e-05
23.1,3.1763568026002645e-05,-2.0407131043652657e-05,3.7754142172420095e-05
23.11,3.0451723848152465e-05,-1.5558378678015254e-05,3.4196061650614934e-05
23.12,2.893936566998068e-05,-1.131120941085572e-05,3.107137498916144e-05
23.13,2.7280612676938252e-05,-7.607087223135019e-06,2.8321363033044654e-05
23.14,2.552064181128251e-05,-4.392850464005133e-06,2.5895951298588953e-05
23.15,2.3697038514623653e-05,-1.6201927518859844e-06,2.3752361122987767e-05
23.16,2.1840942270451668e-05,7.547974468781593e-07,2.185398083752743e-05
23.17,1.997801926750466e-05,2.7720471318614273e-06,2.0169419901277492e-05
23.18,1.812928919874586e-05,4.4678659207468155e-06,1.8671715313209284e-05
23.19,1.6311828806463205e-05,5.8752757252415715e-06,1.7337664890606687e-05
23.2,1.4539371125318957e-05,7.024307651560436e-06,1.614726635389189e-05
23.21,1.282281633229352e-05,7.942270051603088e-06,1.5083244752516773e-05
23.22,1.1170667579168374e-05,8.65399103626881e-06,1.4130653736473213e-05
23.23,9.589403070862078e-06,9.182038270364406e-06,1.3276538632260127e-05
23.24,8.083793889468264e-06,9.54691847100643e-06,1.2509651311665254e-05
23.25,6.657175589153404e-06,9.767258706914847e-06,1.1820208520691327e-05
23.26,5.31168035216693e-06,9.859971328552235e-06,1.1199686726130706e-05
23.27,4.048435460236328e-06,9.840404136198155e-06,1.0640647688905252e-05
23.28,2.867732965255643e-06,9.722477205770582e-06,1.0136589928409971e-05
23.29,1.7691747106612988e-06,9.518807632965058e-06,9.681822034629502e-06
23.3,7.517962373921057e-07,9.240823320003238e-06,9.271354443341739e-06
23.31,-1.858274130223754e-07,8.898866811414906e-06,8.900806837289095e-06
23.32,-1.0454914267035655e-06,8.502290082706005e-06,8.566328792066738e-06
23.33,-1.8292842789562334e-06,8.059541095827189e-06,8.264531665409949e-06
23.34,-2.539522248010277e-06,7.578242856061611e-06,7.992430045586136e-06
23.35,-3.1786937691964497e-06,7.065265634613118e-06,7.747391339410539e-06
23.36,-3.749412246983912e-06,6.526792958562012e-06,7.527092301929585e-06
23.37,-4.25437613768164e-06,5.968381913826108e-06,7.3294814953147636e-06
23.38,-4.696335282312838e-06,5.395018256538983e-06,7.152746820088443e-06
23.39,-5.078062611728102e-06,4.811166783011328e-06,6.995287392422302e-06
23.4,-5.402330467962919e-06,4.220817367662937e-06,6.855689151080695e-06
23.41,-5.671890890392813e-06,3.6275270414367507e-06,6.732703670062707e-06
23.42,-5.88945930491943e-06,3.0344584497916894e-06,6.625229730946259e-06
23.43,-6.0577011314789315e-06,2.4444149991184005e-06,6.532297274790557e-06
23.44,-6.17922089141731e-06,1.8598729728501407e-06,6.4530534090511404e-06
23.45,-6.2565534533571955e-06,1.2830108735857836e-06,6.386750192112981e-06
23.46,-6.292157105347042e-06,7.157362247026318e-07,6.332733957914294e-06
23.47,-6.2884081835535635e-06,1.5971004422386238e-07,6.290435977037634e-06
23.48,-6.247597024400535e-06,-3.836308152679149e-07,6.2593642793594895e-06
23.49,-6.17192503880041e-06,-9.130532841406832e-07,6.239096487813883e-06
23.5,-6.063502734572942e-06,-1.4275094899379783e-06,6.229273533570069e-06
23.51,-5.9243485369567e-06,-1.9261198220548994e-06,6.229594140572384e-06
23.52,-5.75638827781231e-06,-2.408157513844809e-06,6.239809982397075e-06
23.53,-5.561455242072159e-06,-2.87303462124584e-06,6.259721427064396e-06
23.54,-5.341290675706989e-06,-3.3202892881661056e-06,6.289173796255357e-06
23.55,-5.097544673111416e-06,-3.749574199057239e-06,6.3280540744056785e-06
23.56,-4.831777373867904e-06,-4.160646128505005e-06,6.376288010846554e-06
23.57,-4.545460409351129e-06,-4.553356506280572e-06,6.433837564491829e-06
23.58,-4.239978548957264e-06,-4.927642924248355e-06,6.500698645877427e-06
23.59,-3.916631504036517e-06,-5.283521518815919e-06,6.576899115708118e-06
23.6,-3.5766358549708616e-06,-5.6210801693336274e-06,6.662497002561345e-06
23.61,-3.221127073525136e-06,-5.940472459033977e-06,6.757578905224695e-06
23.62,-2.8511616186587975e-06,-6.241912350745044e-06,6.8622585473076254e-06
23.63,-2.467719089553718e-06,-6.525669534816148e-06,6.976675453435929e-06
23.64,-2.071704424823199e-06,-6.792065411388173e-06,7.100993717530499e-06
23.65,-1.6639501417530544e-06,-7.041469673410926e-06,7.235400834494643e-06
23.66,-1.2452186141190297e-06,-7.274297460621593e-06,7.380106567154317e-06
23.67,-8.162043916691264e-07,-7.491007058031167e-06,7.535341820544887e-06
23.68,-3.7753656880412657e-07,-7.69209811537107e-06,7.70135749574577e-06
23.69,7.021878555907347e-08,-7.878110366299597e-06,7.878423295396266e-06
23.7,5.265561205332522e-07,-8.049622828064378e-06,8.06682645295944e-06
23.71,9.910277973245918e-07,-8.207253463565653e-06,8.266870357655335e-06
23.72,1.4632413593909625e-06,-8.351659288457581e-06,8.478873046950998e-06
23.73,1.9428566486377327e-06,-8.483536905908145e-06,8.703165538530298e-06
23.74,2.4295827329626695e-06,-8.603623450865275e-06,8.940089973853128e-06
23.75,2.9231746057339578e-06,-8.712697924131732e-06,9.189997545852624e-06
23.76,3.4234296130991434e-06,-8.811582894027934e-06,9.453246183939666e-06
23.77,3.930183560412539e-06,-8.901146539991272e-06,9.730197970490402e-06
23.78,4.4433064445859405e-06,-8.982305007885202e-06,1.0021216264265457e-05
23.79,4.962697754991342e-06,-9.056025041104416e-06,1.0326662507921248e-05
23.8,5.48828128175335e-06,-9.123326844598868e-06,1.0646892698859256e-05
23.81,6.019999367053391e-06,-9.185287130671635e-06,1.0982253505187593e-05
23.82,6.557806532643424e-06,-9.243042285760006e-06,1.1333078011552216e-05
23.83,7.101662415336264e-06,-9.297791586356635e-06,1.1699681083034869e-05
23.84,7.651523942026287e-06,-9.350800379698574e-06,1.2082354339133266e-05
23.85,8.207336677212916e-06,-9.403403130971984e-06,1.2481360734178708e-05
23.86,8.769025279169698e-06,-9.457006223460433e-06,1.2896928745142643e-05
23.87,9.336483006385207e-06,-9.513090381555142e-06,1.332924617283951e-05
23.88,9.909560223815456e-06,-9.57321256876357e-06,1.3778453567659843e-05
23.89,1.048805186948886e-05,-9.63900719435681e-06,1.4244637296539042e-05
23.9,1.1071683856194804e-05,-9.712186442844165e-06,1.4727822273238182e-05
23.91,1.1660098401090409e-05,-9.794539520951267e-06,1.5227964379738593e-05
23.92,1.2252838298195762e-05,-9.887930597073041e-06,1.5744942611971188e-05
23.93,1.2849330175564735e-05,-9.994295189166511e-06,1.6278550988613065e-05
23.94,1.3448866810823386e-05,-1.0115634739088346e-05,1.6828490267101136e-05
23.95,1.4050588616034365e-05,-1.025400909529937e-05,1.7394359516335078e-05
23.96,1.4653464446164967e-05,-1.0411526612439122e-05,1.7975647601033705e-05
23.97,1.5256271934989967e-05,-1.0590331566561457e-05,1.8571724638386997e-05
23.98,1.5857577618541784e-05,-1.0792588580036644e-05,1.9181833493855967e-05
23.99,1.6455717169409597e-05,-1.1020463751760958e-05,1.980508138997361e-05
24.0,1.7048776135567856e-05,-1.1276102198097199e-05,2.04404317102805e-05
24.01,1.7634571654636518e-05,-1.1561601730058872e-05,2.108669609035541e-05
24.02,1.8210635698365557e-05,-1.1878982424898118e-05,2.1742526899825243e-05
24.03,1.8774200491583276e-05,-1.223015189870156e-05,2.2406410233758532e-05
24.04,1.932218684338939e-05,-1.2616866153307249e-05,2.3076659549018787e-05
24.05,1.985119622355561e-05,-1.3040685959907215e-05,2.3751410101529335e-05
24.06,2.035750751044117e-05,-1.3502928856117437e-05,2.442861436371366e-05
24.07,2.0837079423489382e-05,-1.4004616976545474e-05,2.5106038627400984e-05
24.08,2.1285559727398017e-05,-1.4546421112048653e-05,2.5781261025746647e-05
24.09,2.169830234847052e-05,-1.5128601601753008e-05,2.645167123699758e-05
24.1,2.207039356705202e-05,-1.5750946905244386e-05,2.7114472161862178e-05
24.11,2.2396688432528178e-05,-1.6412710978735102e-05,2.776668389302607e-05
24.12,2.2671858476786922e-05,-1.7112550884264676e-05,2.8405150317468884e-05
24.13,2.2890451665581136e-05,-1.784846638760725e-05,2.902654870706905e-05
24.14,2.304696531232659e-05,-1.861774363684532e-05,2.9627402657588458e-05
24.15,2.3135932373581026e-05,-1.9416905343442567e-05,3.020409872701258e-05
24.16,2.3152021141645588e-05,-2.0241670190028573e-05,3.075290709876215e-05
24.17,2.309014784188401e-05,-2.108692443812435e-05,3.1270006549715127e-05
24.18,2.294560103274298e-05,-2.194670887539723e-05,3.1751513935799274e-05
24.19,2.271417600350854e-05,-2.2814224292367643e-05,3.219351831628257e-05
24.2,2.239231658801579e-05,-2.3681858579902794e-05,3.259211972205003e-05
24.21,2.1977260990590887e-05,-2.4541238258793128e-05,3.29434724326899e-05
24.22,2.146718739490702e-05,-2.5383306764598018e-05,3.324383246489102e-05
24.23,2.0861354348372922e-05,-2.6198431095925598e-05,3.348960879342037e-05
24.24,2.016023024561849e-05,-2.6976537486966346e-05,3.367741763173137e-05
24.25,1.9365605741906038e-05,-2.7707275595611508e-05,3.380413889869276e-05
24.26,1.84806826806714e-05,-2.83802093375341e-05,3.3866973800236795e-05
24.27,1.751013318439207e-05,-2.8985030995619965e-05,3.38635022694375e-05
24.28,1.6460122990291408e-05,-2.9511793667268624e-05,3.3791738847164354e-05
24.29,1.5338293948799036e-05,-2.9951155573130562e-05,3.3650185459008026e-05
24.3,1.4153701856087967e-05,-3.029462834927196e-05,3.3437879464038086e-05
24.31,1.2916707442747915e-05,-3.0534820299104924e-05,3.3154435327119806e-05
24.32,1.1638820335103402e-05,-3.066566480901384e-05,3.2800078307400526e-05
24.33,1.0332498052498888e-05,-3.068262383841075e-05,3.237566866667474e-05
24.34,9.010904479109345e-06,-3.058285666325688e-05,3.188271508540244e-05
24.35,7.68763459972572e-06,-3.0365344928862275e-05,3.1323376229067037e-05
24.36,6.376414447659175e-06,-3.003096655633241e-05,3.0700449728234803e-05
24.37,5.090787007181374e-06,-2.958251309942318e-05,3.001734821116e-05
24.38,3.8437960846436766e-06,-2.9024647666384105e-05,2.9278062444397827e-05
24.39,2.6476807831895676e-06,-2.8363803357626762e-05,2.848711207616157e-05
24.4,1.5135931015211259e-06,-2.760802514119023e-05,2.7649484918774967e-05
24.41,4.5135030028593096e-07,-2.676676098699086e-05,2.6770566128273495e-05
24.42,-5.307679249090911e-07,-2.5850610696481078e-05,2.585605901855761e-05
24.43,-1.4261696594851033e-06,-2.4871043001667927e-05,2.4911899564032665e-05
24.44,-2.2300432828322776e-06,-2.3840093006091302e-05,2.3944166880106494e-05
24.45,-2.939390181184299e-06,-2.2770052792226303e-05,2.2958992111981215e-05
24.46,-3.552998623378204e-06,-2.167316797897157e-05,2.1962468200601818e-05
24.47,-4.071362666068775e-06,-2.0561352200595472e-05,2.0960562928404163e-05
24.48,-4.4965525007029945e-06,-1.9445929979427116e-05,1.995903748070935e-05
24.49,-4.832044677288047e-06,-1.833741641792222e-05,1.8963372501946777e-05
24.5,-5.082522027193225e-06,-1.7245339717870498e-05,1.797870329422192e-05
24.51,-5.253653805114568e-06,-1.6178109942506552e-05,1.700976541918859e-05
24.52,-5.351866585985476e-06,-1.5142934866649304e-05,1.6060851544353777e-05
24.53,-5.38411584789229e-06,-1.4145781388114524e-05,1.5135779945012819e-05
24.54,-5.357667052914206e-06,-1.3191378943995999e-05,1.4237874655087513e-05
24.55,-5.279893539539165e-06,-1.2283259788164211e-05,1.3369956873991752e-05
24.56,-5.158096812274407e-06,-1.1423829894628587e-05,1.2534346899069182e-05
24.57,-4.999353003321611e-06,-1.0614463661866785e-05,1.1732875575957976e-05
24.58,-4.810387520908748e-06,-9.855615472635913e-06,1.0966904050176378e-05
24.59,-4.5974782970040335e-06,-9.14694144787376e-06,1.0237350464952053e-05
24.6,-4.366386682691406e-06,-8.487425337278261e-06,9.544722181323972e-06
24.61,-4.122313959192365e-06,-7.875503318978069e-06,8.8891520914757e-06
24.62,-3.869880653887465e-06,-7.3091834426173745e-06,8.270437647015088e-06
24.63,-3.613125365372314e-06,-6.786156458889502e-06,7.68808132048722e-06
24.64,-3.3555195818767868e-06,-6.303895762093749e-06,7.141331349524547e-06
24.65,-3.099994982276521e-06,-5.859745076066185e-06,6.629221767796089e-06
24.66,-2.8489798904876346e-06,-5.450993300126933e-06,6.150610894409728e-06
24.67,-2.6044418629012977e-06,-5.074936579809989e-06,5.704217624383408e-06
24.68,-2.367933777919185e-06,-4.728928170324923e-06,5.288655029088516e-06
24.69,-2.1406412256958734e-06,-4.410417023738311e-06,4.902460931045696e-06
24.7,-1.9234294312186817e-06,-4.1169762664441525e-06,4.544125257444237e-06
24.71,-1.716888359329934e-06,-3.846322859530085e-06,4.212114098424486e-06
24.72,-1.5213750284198262e-06,-3.5963297714159625e-06,3.9048904980642175e-06
24.73,-1.3370523895010135e-06,-3.365031960204988e-06,3.6209320879397055e-06
24.74,-1.1639244042546679e-06,-3.150627381867267e-06,3.3587457358650075e-06
24.75,-1.0018671789980397e-06,-2.951474126780516e-06,3.116879427473623e-06
24.76,-8.506561842434324e-07,-2.766084655548097e-06,2.8939316276391588e-06
24.77,-7.099897166115405e-07,-2.593117966777968e-06,2.6885583845847274e-06
24.78,-5.795088475301717e-07,-2.431370393158806e-06,2.499478444214904e-06
24.79,-4.5881415804265744e-07,-2.2797655937029118e-06,2.3254766379931625e-06
24.8,-3.4747958765372353e-07,-2.1373441932544288e-06,2.16540579667517e-06
24.81,-2.450637335305373e-07,-2.0032534173838684e-06,2.0181874263189913e-06
24.82,-1.511189298157402e-07,-1.876736982325091e-06,1.8828113638321136e-06
24.83,-6.519841988852921e-08,-1.757125425463142e-06,1.7583346083055378e-06
24.84,1.3138089259675973e-08,-1.6438270011343505e-06,1.6438795025937112e-06
24.85,8.432022878646724e-08,-1.5363192179042972e-06,1.5386314179441007e-06
24.86,1.4876389316163784e-07,-1.4341410555330858e-06,1.441836073579157e-06
24.87,2.0686908491727534e-07,-1.33688587100022e-06,1.3527966034753812e-06
24.88,2.590185029333625e-07,-1.244194981734773e-06,1.2708704644596287e-06
24.89,3.055767240237268e-07,-1.1557518991948802e-06,1.1954662633289346e-06
24.9,3.468898510776436e-07,-1.0712771759284414e-06,1.1260405660747247e-06
24.91,3.832855219673957e-07,-9.905238231408324e-07,1.0620947394462276e-06
24.92,4.1507319182607873e-07,-9.132732526703039e-07,1.0031718639473925e-06
24.93,4.425446172366348e-07,-8.393316963950296e-07,9.488537478549988e-07
24.94,4.659744844992563e-07,-7.685270568115489e-07,8.987580638056992e-07
24.95,4.856211356784671e-07,-7.007061443743035e-07,8.525356228226163e-07
24.96,5.017273557932668e-07,-6.357322597565052e-07,8.098677951656158e-07
24.97,5.145211925278616e-07,-5.734830822119587e-07,7.704640829679352e-07
24.98,5.242167864368742e-07,-5.138488284344124e-07,7.340598461063114e-07
24.99,5.310151949895549e-07,-4.5673064959913876e-07,7.004141800342467e-07
25.0,5.35105198141877e-07,-4.0203923747815624e-07,6.693079422436842e-07
25.01,5.366640765985595e-07,-3.49693613602358e-07,6.405419225200329e-07
25.02,5.358583566845196e-07,-2.9962007832258027e-07,6.1393515110528e-07
25.03,5.328445179037583e-07,-2.5175129929198143e-07,5.893233382068705e-07
25.04,5.277696609397122e-07,-2.0602552132582187e-07,5.665574379054568e-07
25.05,5.207721351278617e-07,-1.6238588179823459e-07,5.455023293561835e-07
25.06,5.119821253910795e-07,-1.2077981771258452e-07,5.26035608192689e-07
25.07,5.015221993311685e-07,-8.115855234410413e-08,5.080464811811642e-07
25.08,4.895078156709259e-07,-4.3476650915094156e-08,4.914347573968637e-07
25.09,4.7604779557839907e-07,-7.69163613979455e-09,4.7610992947171376e-07
25.1,4.612447586233252e-07,2.6236344315715078e-08,4.6199033877402927e-07
25.11,4.4519552523085736e-07,5.834480535612555e-08,4.490024186990791e-07
25.12,4.2799148754355947e-07,8.866917293966984e-08,4.370800105696369e-07
25.13,4.097189505919268e-07,1.1724299869926181e-07,4.2616374695431897e-07
25.14,3.9045944562235266e-07,1.4409814518920852e-07,4.162004975041299e-07
25.15,3.702900173509619e-07,1.692649456490578e-07,4.071428726815123e-07
25.16,3.4928348681122437e-07,1.9277234166396305e-07,3.9894878101031277e-07
25.17,3.275086913501432e-07,2.1464800166313808e-07,3.915810357101859e-07
25.18,3.0503070320700144e-07,2.3491842282654177e-07,3.850070067963279e-07
25.19,2.819110279837344e-07,2.536090186532017e-07,3.791983149238481e-07
25.2,2.5820778419183257e-07,2.707441941825725e-07,3.741305634411956e-07
25.21,2.339758649373345e-07,2.8634741063924967e-07,3.697831052833227e-07
25.22,2.092670826879653e-07,3.0044124109461253e-07,3.6613884148940383e-07
25.23,1.8413029795182592e-07,3.13047418595407e-07,3.6318404826351636e-07
25.24,1.58611532591638e-07,3.2418687810063455e-07,3.609082296148204e-07
25.25,1.3275406839925735e-07,3.3387979348967574e-07,3.5930399270988235e-07
25.26,1.0659853146613763e-07,3.421456108537113e-07,3.5836694314235567e-07
25.27,8.018296280706085e-08,3.490030792603929e-07,3.58095597372761e-07
25.28,5.35428756277402e-08,3.5447028018255114e-07,3.584913096062218e-07
25.29,2.6711299576985734e-08,3.585646568108377e-07,3.595582103623352e-07
25.3,-2.811877108408443e-10,3.613030445199028e-07,3.6130315393846146e-07
25.31,-2.7406441488994806e-08,3.627017038319521e-07,3.6373567187958174e-07
25.32,-5.4638742881463355e-08,3.627763573184499e-07,3.6686792944179556e-07
25.33,-8.195480362805568e-08,3.61542231995409e-07,3.707146818699461e-07
25.34,-1.0933378216693318e-07,3.5901410890335017e-07,3.7529322710993993e-07
25.35,-1.367573105102778e-07,3.552063817099889e-07,3.806233513402809e-07
25.36,-1.6420953120358538e-07,3.5013312633311597e-07,3.86727263447902e-07
25.37,-1.9167714343413837e-07,3.438081837427919e-07,3.9362951429432806e-07
25.38,-2.1914945706957427e-07,3.362452582564326e-07,4.013568963327082e-07
25.39,-2.4661845304819614e-07,3.274580337809007e-07,4.0993831886216595e-07
25.4,-2.7407884810818303e-07,3.1746031056314784e-07,4.1940465395982285e-07
25.41,-3.015281613234752e-07,3.0626616506652757e-07,4.297885479345316e-07
25.42,-3.2896677930974563e-07,2.938901355794883e-07,4.411241930345205e-07
25.43,-3.563980162721901e-07,2.803474360497644e-07,4.53447054133588e-07
25.44,-3.838281642998082e-07,2.656542004007958e-07,4.667935452642278e-07
25.45,-4.112665284734666e-07,2.498277591905195e-07,4.812006511890574e-07
25.46,-4.3872544047650997e-07,2.3288694988131696e-07,4.967054897485337e-07
25.47,-4.662202435033125e-07,2.14852461169036e-07,5.133448115279633e-07
25.48,-4.937692404029198e-07,1.957472107380386e-07,5.311544344913243e-07
25.49,-5.213935962225177e-07,1.7559675443384735e-07,5.501686126539305e-07
25.5,-5.491171857116253e-07,1.5442972316598536e-07,5.704193396449481e-07
25.51,-5.769663759849042e-07,1.3227828185689458e-07,5.919355901347425e-07
25.52,-6.049697345339493e-07,1.091786024622322e-07,6.147425045803186e-07
25.53,-6.331576532169539e-07,8.517134054141731e-08,6.38860525527147e-07
25.54,-6.615618798591768e-07,6.030210212678342e-08,6.643044967510885e-07
25.55,-6.902149507712528e-07,3.462188483821013e-08,6.910827397482252e-07
25.56,-7.191495199124248e-07,8.187474458200476e-09,7.191961253568284e-07
25.57,-7.483975836695603e-07,-1.893822428777025e-08,7.486371615018923e-07
25.58,-7.779896042876652e-07,-4.6685945994489304e-08,7.793891209999522e-07
25.59,-8.079535398504728e-07,-7.497993639856428e-08,8.114252358777378e-07
25.6,-8.383137942472669e-07,-1.0373796256137696e-07,8.447079865264887e-07
25.61,-8.69090106597696e-07,-1.328714852694131e-07,8.791885150431017e-07
25.62,-9.002964058549134e-07,-1.6228601511254014e-07,9.148061920955622e-07
25.63,-9.319396624291768e-07,-1.9188166969620948e-07,9.514883654433264e-07
25.64,-9.640187742353336e-07,-2.2155394375959075e-07,9.891503157122394e-07
25.65,-9.965235291085507e-07,-2.511946966517348e-07,1.0276954411171228e-06
25.66,-1.0294336885714701e-06,-2.80693352839382e-07,1.0670156875576274e-06
25.67,-1.0627182390092022e-06,-3.099383012066184e-07,1.1069922339735109e-06
25.68,-1.096334855051961e-06,-3.38818468331415e-07,1.147496435238145e-06
25.69,-1.1302296160963367e-06,-3.6722503027237563e-07,1.1883910164419034e-06
25.7,-1.164337010342423e-06,-3.9505321737005663e-07,1.2295315035441607e-06
25.71,-1.1985802515574805e-06,-4.2220415788963426e-07,1.2707678664346563e-06
25.72,-1.2328719223392702e-06,-4.485866997078891e-07,1.3119463419085948e-06
25.73,-1.2671149444394184e-06,-4.74119145347288e-07,1.3529113963621392e-06
25.74,-1.3012038624489833e-06,-4.987308349161658e-07,1.3935077815887244e-06
25.75,-1.3350264126763084e-06,-5.223635142614047e-07,1.4335826322800153e-06
25.76,-1.3684653352899168e-06,-5.449724318694828e-07,1.472987550995555e-06
25.77,-1.4014003756678175e-06,-5.665271175642239e-07,1.5115806256556505e-06
25.78,-1.4337104112252855e-06,-5.870118083374319e-07,1.5492283260976608e-06
25.79,-1.4652756334509368e-06,-6.064255010222597e-07,1.5858072298596518e-06
25.8,-1.4959797119245197e-06,-6.247816270901223e-07,1.6212055329411967e-06
25.81,-1.5257118678986812e-06,-6.421073606604462e-07,1.65532430854537e-06
25.82,-1.5543687895183552e-06,-6.584425858833739e-07,1.6880784853594757e-06
25.83,-1.5818563285649731e-06,-6.738385632826669e-07,1.719397526341103e-06
25.84,-1.6080909291824904e-06,-6.883563456781171e-07,1.7492257987905211e-06
25.85,-1.63300075159577e-06,-7.020650023808402e-07,1.7775226362216485e-06
25.86,-1.6565264675467402e-06,-7.150397151715063e-07,1.8042621017899341e-06
25.87,-1.6786217181555224e-06,-7.27359811039625e-07,1.8294324713907854e-06
25.88,-1.699253238349792e-06,-7.391067949601934e-07,1.8530354617218161e-06
25.89,-1.7184006641771843e-06,-7.503624414746252e-07,1.8750852343881195e-06
25.9,-1.7360560496474897e-06,-7.612069970392559e-07,1.8956072113861483e-06
25.91,-1.7522231278818916e-06,-7.717175366189269e-07,1.914636740013464e-06
25.92,-1.7669163570509765e-06,-7.819665085017822e-07,1.9322176464448204e-06
25.93,-1.78015979487862e-06,-7.920204914060648e-07,1.9484007170265043e-06
25.94,-1.791985846479683e-06,-8.019391782592878e-07,1.963242144925248e-06
25.95,-1.802433929283052e-06,-8.117745919983252e-07,1.97680197734745e-06
25.96,-1.8115490960902136e-06,-8.21570530763946e-07,1.9891425953322256e-06
25.97,-1.8193806533657464e-06,-8.313622332052321e-07,2.0003272543865317e-06
25.98,-1.8259808070135105e-06,-8.411762493517057e-07,2.0104187101335667e-06
25.99,-1.8314033626223848e-06,-8.510304987458926e-07,2.019477948980939e-06
26.0,-1.83570250175473e-06,-8.60934495122718e-07,2.0275630396712166e-06
26.01,-1.8389316506556468e-06,-8.708897157783496e-07,2.034728117668696e-06
26.02,-1.841142452973864e-06,-8.808900936839467e-07,2.0410225107267015e-06
26.03,-1.842383853894751e-06,-8.909226111608895e-07,2.0464900107671702e-06
26.04,-1.8427012995866075e-06,-9.009679753033674e-07,2.051168294416726e-06
26.05,-1.8421360530817797e-06,-9.110013571229648e-07,2.0550884921928794e-06
26.06,-1.8407246256582108e-06,-9.209931783513899e-07,2.0582749043979414e-06
26.07,-1.8384983213984132e-06,-9.309099318322921e-07,2.0607448602310733e-06
26.08,-1.83548289178563e-06,-9.407150232971858e-07,2.062508715398498e-06
26.09,-1.8316982968582427e-06,-9.503696239344041e-07,2.0635699825328453e-06
26.1,-1.8271585694506637e-06,-9.598335244614269e-07,2.063925587950554e-06
26.11,-1.8218717792994157e-06,-9.690659823410263e-07,2.0635662476252603e-06
26.12,-1.8158400941096164e-06,-9.78026554328774e-07,2.0624769546223386e-06
26.13,-1.8090599350088382e-06,-9.866759067252835e-07,2.060637569628959e-06
26.14,-1.8015222239925052e-06,-9.949765955655596e-07,2.0580235055174012e-06
26.15,-1.7932127209232155e-06,-1.002893808576085e-06,2.0546064960865588e-06
26.16,-1.7841124473225234e-06,-1.0103960601764634e-06,2.050355438237791e-06
26.17,-1.7741981934894012e-06,-1.0174558301429994e-06,2.0452372957857567e-06
26.18,-1.763443104447546e-06,-1.0240501359810409e-06,2.0392180520058138e-06
26.19,-1.7518173387812078e-06,-1.0301610286098936e-06,2.032263696797506e-06
26.2,-1.739288792687693e-06,-1.035776000823148e-06,2.024341233154679e-06
26.21,-1.7258238795479106e-06,-1.0408882982241418e-06,2.015419686466755e-06
26.22,-1.7113883531612313e-06,-1.045497123070204e-06,2.005471099189411e-06
26.23,-1.6959481605740469e-06,-1.0496077227248914e-06,1.9944714926411523e-06
26.24,-1.679470308343862e-06,-1.0532313562917645e-06,1.982401777260305e-06
26.25,-1.6619237242535328e-06,-1.0563851354308108e-06,1.9692485926352482e-06
26.26,-1.6432800951070937e-06,-1.0590917383559485e-06,1.9550050591313064e-06
26.27,-1.6235146604323547e-06,-1.0613789994120179e-06,1.93967142398697e-06
26.28,-1.6026069418315028e-06,-1.0632793803694038e-06,1.9232555864276766e-06
26.29,-1.5805413884496152e-06,-1.0648293334188059e-06,1.9057734886159416e-06
26.3,-1.5573079206136242e-06,-1.0660685696456293e-06,1.8872493621120153e-06
26.31,-1.5329023561393653e-06,-1.0670392502560998e-06,1.8677158228822491e-06
26.32,-1.5073267070323844e-06,-1.0677851208392606e-06,1.847213811668483e-06
26.33,-1.4805893382148098e-06,-1.068350611243348e-06,1.8257923805787461e-06
26.34,-1.4527049842977555e-06,-1.0687799250997019e-06,1.8035083309205051e-06
26.35,-1.4236946251031118e-06,-1.0691161435028372e-06,1.7804257114088947e-06
26.36,-1.3935852253411012e-06,-1.0694003668033948e-06,1.756615189735146e-06
26.37,-1.3624093483628686e-06,-1.0696709169041124e-06,1.732153313935294e-06
26.38,-1.3302046579500358e-06,-1.0699626199630245e-06,1.7071216828773838e-06
26.39,-1.2970133255002375e-06,-1.070306186098266e-06,1.681606047362283e-06
26.4,-1.2628813625361434e-06,-1.0707276987949564e-06,1.6556953647358832e-06
26.41,-1.2278579000919904e-06,-1.0712482224082337e-06,1.6294808304583127e-06
26.42,-1.1919944371912156e-06,-1.0718835317155537e-06,1.6030549098074623e-06
26.43,-1.155344080307166e-06,-1.0726439631000948e-06,1.5765103918071355e-06
26.44,-1.1179607945047126e-06,-1.0735343828850774e-06,1.549939485685184e-06
26.45,-1.0798986849803556e-06,-1.0745542647564059e-06,1.5234329777605843e-06
26.46,-1.0412113251508165e-06,-1.0756978652561547e-06,1.4970794638024288e-06
26.47,-1.0019511444321313e-06,-1.0769544840851165e-06,1.4709646687191019e-06
26.48,-9.621688856226598e-07,-1.0783087944677302e-06,1.445170862108284e-06
26.49,-9.219131385058517e-07,-1.0797412280926953e-06,1.4197763748537412e-06
26.5,-8.81229953120413e-07,-1.0812283990884128e-06,1.3948552187492067e-06
26.51,-8.401625332053355e-07,-1.0827435520655271e-06,1.3704768081735208e-06
26.52,-7.98751007760824e-07,-1.0842570203158822e-06,1.3467057802293742e-06
26.53,-7.570322764990782e-07,-1.0857366817151612e-06,1.3236019075549965e-06
26.54,-7.150399232715587e-07,-1.0871484015889501e-06,1.3012200962748791e-06
26.55,-6.728041903209257e-07,-1.0884564536523125e-06,1.279610460261546e-06
26.56,-6.303520054198684e-07,-1.0896239120405503e-06,1.2588184620617076e-06
26.57,-5.877070535759124e-07,-1.0906130092846897e-06,1.2388851104294888e-06
26.58,-5.448898849495262e-07,-1.0913854568156656e-06,1.2198472043944877e-06
26.59,-5.019180508899922e-07,-1.0919027261326418e-06,1.2017376141009747e-06
26.6,-4.588062604782423e-07,-1.0921262901162095e-06,1.1845855892323794e-06
26.61,-4.1556655061214514e-07,-1.0920178250891698e-06,1.1684170866176844e-06
26.62,-3.7220846341967693e-07,-1.0915393751310026e-06,1.1532551095497546e-06
26.63,-3.28739225591403e-07,-1.090653480831986e-06,1.1391200523620688e-06
26.64,-2.8516392503549935e-07,-1.089323275151939e-06,1.1260300448608815e-06
26.65,-2.4148568104935124e-07,-1.0875125493672378e-06,1.1140012922717359e-06
26.66,-1.9770580494083755e-07,-1.0851857922329503e-06,1.1030484073564315e-06
26.67,-1.5382394870434205e-07,-1.0823082055282998e-06,1.093184732306889e-06
26.68,-1.0983823994264518e-07,-1.078845699087215e-06,1.0844226488748194e-06
26.69,-6.574540173802216e-08,-1.0747648682767025e-06,1.0767738759514607e-06
26.7,-2.1540856589061722e-08,-1.0700329567014653e-06,1.0702497544638217e-06
26.71,2.27811861275544e-08,-1.0646178066937623e-06,1.064861519997232e-06
26.72,6.722765945539448e-08,-1.0584877999172594e-06,1.0606205639952163e-06
26.73,1.1180658501083542e-07,-1.0516117901800955e-06,1.0575386847286347e-06
26.74,1.5652703595531354e-07,-1.0439590303311159e-06,1.0556283294772076e-06
26.75,2.013991166793701e-07,-1.0354990949077565e-06,1.0549028295317127e-06
26.76,2.4643395906069995e-07,-1.026201800027837e-06,1.0553766297197905e-06
26.77,2.9164373516455386e-07,-1.0160371218602216e-06,1.0570655141753206e-06
26.78,3.370416862916271e-07,-1.0049751148943968e-06,1.059986830038614e-06
26.79,3.8264216833758294e-07,-9.929858311406547e-07,1.0641597106807717e-06
26.8,4.2846071350089797e-07,-9.800392413357351e-07,1.0696052998988093e-06
26.81,4.745141084628534e-07,-9.661051592148183e-07,1.0763469783447093e-06
26.82,5.208204892540744e-07,-9.511531699226986e-07,1.0844105932168181e-06
26.83,5.673994531113617e-07,-9.351525636883643e-07,1.0938246919703325e-06
26.84,6.142721877221777e-07,-9.180722759719001e-07,1.1046207604952999e-06
26.85,6.614616183319705e-07,-8.998808354144234e-07,1.1168334658634247e-06
26.86,7.089925732602363e-07,-8.805463210750862e-07,1.1305009033596746e-06
26.87,7.568919684289924e-07,-8.600363306346821e-07,1.1456648471014038e-06
26.88,8.051890115362176e-07,-8.383179614726676e-07,1.1623710030908204e-06
26.89,8.539154265172328e-07,-8.153578067964847e-07,1.1806692630656908e-06
26.9,9.031056989080038e-07,-7.911219693037036e-07,1.2006139569882918e-06
26.91,9.527973426600776e-07,-7.655760952143339e-07,1.2222641014705995e-06
26.92,1.0030311888333138e-06,-7.386854318875307e-07,1.2456836408395345e-06
26.93,1.053851696419342e-06,-7.104149126718787e-07,1.270941676943721e-06
26.94,1.1053072852953463e-06,-6.807292730973046e-07,1.2981126831591133e-06
26.95,1.1574506909647663e-06,-6.495932030143815e-07,1.3272766973835177e-06
26.96,1.2103393403069693e-06,-6.169715398059871e-07,1.3585194881286319e-06
26.97,1.2640357469913726e-06,-5.828295083389186e-07,1.3919326871162352e-06
26.98,1.318607924518951e-06,-5.471330138610404e-07,1.4276138810829912e-06
26.99,1.3741298139942193e-06,-5.098489945759689e-07,1.4656666547949823e-06
27.0,1.4306817227075886e-06,-4.709458411176143e-07,1.5062005766017784e-06
27.01,1.4883507683814439e-06,-4.3039389055991764e-07,1.5493311172157283e-06
27.02,1.5472313225049427e-06,-3.8816600291501503e-07,1.595179491831378e-06
27.03,1.607425444533613e-06,-3.4423822822921833e-07,1.6438724152161184e-06
27.04,1.6690432968477512e-06,-2.985905723443169e-07,1.695541759039074e-06
27.05,1.732203528270459e-06,-2.512078690794639e-07,1.75032410051398e-06
27.06,1.7970336116331717e-06,-2.0208076594349808e-07,1.8083601514365636e-06
27.07,1.863670118382541e-06,-1.5120682942147023e-07,1.8697940569527138e-06
27.08,1.9322589106065878e-06,-9.85917743293812e-08,1.934772553966996e-06
27.09,2.002955228151982e-06,-4.425081958279505e-08,2.0034439800042094e-06
27.1,2.075923645845404e-06,1.1789830059134815e-08,2.0759571246711474e-06
27.11,2.151337873304019e-06,6.94913802679909e-08,2.1524599176393065e-06
27.12,2.2293803675917425e-06,1.2880072974761437e-07,2.2330979493490677e-06
27.13,2.3102417272254956e-06,1.8964865265180087e-07,2.318012823447378e-06
27.14,2.394119834958558e-06,2.519479003123218e-07,2.4073403433278353e-06
27.15,2.4812187166291746e-06,3.1559124857401566e-07,2.5012085390721486e-06
27.16,2.5717470843650623e-06,3.804495245576809e-07,2.5997355455269607e-06
27.17,2.665916534899514e-06,4.4636965473550667e-07,2.7030273472015273e-06
27.18,2.76393937787479e-06,5.131727845927998e-07,2.8111754110004605e-06
27.19,2.8660260750667377e-06,5.806525285530771e-07,2.9242542334546653e-06
27.2,2.9723822795913725e-06,6.485734168638612e-07,3.0423188348842185e-06
27.21,3.0832054744993913e-06,7.166696133084203e-07,3.165402238677204e-06
27.22,3.198681222708598e-06,7.846439834042403e-07,3.2935129793582175e-06
27.23,3.318979054865833e-06,8.521675965506351e-07,3.4266326881136506e-06
27.24,3.4442480382120805e-06,9.188797468503597e-07,3.5647138086948224e-06
27.25,3.5746120873961183e-06,9.843885754038859e-07,3.7076774998297953e-06
27.26,3.710165096887266e-06,1.0482723712760953e-06,3.855411782227846e-06
27.27,3.8509659933924116e-06,1.1100816186414547e-06,4.0077699886982575e-06
27.28,3.9970338245512345e-06,1.1693418435303672e-06,4.164569574594434e-06
27.29,4.148343016215316e-06,1.2255572951471923e-06,4.325591342680315e-06
27.3,4.304818943650091e-06,1.2782154740260826e-06,4.490579131431535e-06
27.31,4.466333970980276e-06,1.3267924928669344e-06,4.659240008784748e-06
27.32,4.632704117139726e-06,1.3707592264907999e-06,4.831245004548313e-06
27.33,4.803686504555104e-06,1.409588176005943e-06,5.006230404204405e-06
27.34,4.9789777382601285e-06,1.4427609402393691e-06,5.183799615028569e-06
27.35,5.158213347635575e-06,1.4697761562921158e-06,5.363525602561307e-06
27.36,5.340968400650388e-06,1.4901577421942748e-06,5.544953881987433e-06
27.37,5.526759371633589e-06,1.5034632497709513e-06,5.727606035277875e-06
27.38,5.715047309086418e-06,1.5092921163933124e-06,5.910983711507156e-06
27.39,5.905242310941152e-06,1.5072935917017385e-06,6.094573054982172e-06
27.4,6.096709272543857e-06,1.4971741106580312e-06,6.2778494941776775e-06
27.41,6.28877482908939e-06,1.4787038881750138e-06,6.460282814234388e-06
27.42,6.480735371268701e-06,1.451722523323915e-06,6.641342427336451e-06
27.43,6.671865972366808e-06,1.4161434227646775e-06,6.820502748849659e-06
27.44,6.861430028858724e-06,1.371956882784283e-06,6.99724858277476e-06
27.45,7.048689386534244e-06,1.3192317064578681e-06,7.1710804181214024e-06
27.46,7.232914701722913e-06,1.258115275332862e-06,7.341519538108261e-06
27.47,7.413395773566058e-06,1.1888320422063342e-06,7.508112846788038e-06
27.48,7.5894515792466625e-06,1.1116804609468682e-06,7.67043732266816e-06
27.49,7.760439749970011e-06,1.027028418935105e-06,7.828104016057463e-06
27.5,7.925765241249585e-06,9.353072853635678e-07,7.980761516137058e-06
27.51,8.084887976019926e-06,8.370047323882149e-07,8.128098824868694e-06
27.52,8.237329272295394e-06,7.32656523925258e-07,8.269847587607937e-06
27.53,8.382676907148977e-06,6.228374972953174e-07,8.405783644472765e-06
27.54,8.520588713730314e-06,5.081519845010731e-07,8.5357278815518e-06
27.55,8.650794656140819e-06,3.8922393194662073e-07,8.659546376797951e-06
27.56,8.773097375821494e-06,2.666869795321582e-07,8.777149851215825e-06
27.57,8.887371250723299e-06,1.411747523182578e-07,8.88849245141577e-06
27.58,8.993560052718567e-06,1.3311601200300039e-08,8.99356990413605e-06
27.59,9.091673327790337e-06,-1.1629599582932257e-07,9.092417096564596e-06
27.6,9.1817816558636e-06,-2.4706719160173356e-07,9.185105147635452e-06
27.61,9.264010971797933e-06,-3.784535428106227e-07,9.271738044706525e-06
27.62,9.33853614535774e-06,-5.099446930745748e-07,9.352448926786392e-06
27.63,9.405574025775e-06,-6.410729009225249e-07,9.42739609959349e-06
27.64,9.465376156228344e-06,-7.714163865201953e-07,9.496758869229436e-06
27.65,9.518221355893292e-06,-9.006015074440952e-07,9.560733280193193e-06
27.66,9.564408353170275e-06,-1.028303806208573e-06,9.619527839975119e-06
27.67,9.60424863471859e-06,-1.15424799979951e-06,9.673359307010933e-06
27.68,9.638059652278592e-06,-1.27820700335362e-06,9.722448611553715e-06
27.69,9.666158504525538e-06,-1.400000096188029e-06,9.767016970597414e-06
27.7,9.68885618561892e-06,-1.5194903486444724e-06,9.80728224867775e-06
27.71,9.706452467090144e-06,-1.636581433107339e-06,9.843455606801505e-06
27.72,9.71923145605043e-06,-1.7512139426551783e-06,9.875738472095646e-06
27.73,9.727457851382145e-06,-1.8633613368808797e-06,9.90431985156975e-06
27.74,9.731373901062432e-06,-1.97302562737816e-06,9.92937400486909e-06
27.75,9.731197048334501e-06,-2.08023290605874e-06,9.951058483245072e-06
27.76,9.727118242216003e-06,-2.1850288087467838e-06,9.96951253538029e-06
27.77,9.719300878684646e-06,-2.2874739951166605e-06,9.984855875210974e-06
27.78,9.707880332573071e-06,-2.3876397147236047e-06,9.99718780252149e-06
27.79,9.69296403630556e-06,-2.485603518090408e-06,1.0006586663705881e-05
27.8,9.674632059790887e-06,-2.581445161983663e-06,1.0013109637703092e-05
27.81,9.652938145470014e-06,-2.6752427494519774e-06,1.0016792830480496e-05
27.82,9.627911153313756e-06,-2.7670691378694585e-06,1.0017651660436842e-05
27.83,9.59955687196365e-06,-2.8569886424015042e-06,1.0015681516545727e-05
27.84,9.567860153912183e-06,-2.9450540575953884e-06,1.0010858670812384e-05
27.85,9.532787334151434e-06,-3.0313040163335877e-06,1.0003141426451898e-05
27.86,9.494288892970287e-06,-3.1157607026698026e-06,9.992471483045641e-06
27.87,9.452302324245386e-06,-3.1984279330617006e-06,9.978775499625394e-06
27.88,9.406755170672776e-06,-3.279289618778407e-06,9.96196683616277e-06
27.89,9.357568186747972e-06,-3.3583086205506015e-06,9.94194745311512e-06
27.9,9.304658589213443e-06,-3.435426004656909e-06,9.918609947734431e-06
27.91,9.247943353026787e-06,-3.5105607071981165e-06,9.891839704509758e-06
27.92,9.187342509061408e-06,-3.5836096102933303e-06,9.861517135704499e-06
27.93,9.122782397890142e-06,-3.6544480300650115e-06,9.827519986430974e-06
27.94,9.054198832332924e-06,-3.7229306116315056e-06,9.789725677180226e-06
27.95,8.981540120416236e-06,-3.78889262075388e-06,9.748013655419738e-06
27.96,8.904769900061167e-06,-3.852151615623088e-06,9.702267726814332e-06
27.97,8.8238697376341e-06,-3.912509475453312e-06,9.652378336049972e-06
27.98,8.738841444494799e-06,-3.9697547554657275e-06,9.598244767172939e-06
27.99,8.649709069115311e-06,-4.023665330824577e-06,9.539777234024666e-06
28.0,8.556520527176367e-06,-4.074011285281166e-06,9.476898832666139e-06
28.01,8.459348838270671e-06,-4.120557994330268e-06,9.4095473298236e-06
28.02,8.358292945373693e-06,-4.163069347592313e-06,9.337676764246359e-06
28.03,8.253478101705553e-06,-4.20131105153776e-06,9.261258841383628e-06
28.04,8.145055818900377e-06,-4.235053951553293e-06,9.180284105928862e-06
28.05,8.033203379981314e-06,-4.264077311981413e-06,9.094762881279415e-06
28.06,7.91812293022361e-06,-4.288171994299499e-06,9.00472596977984e-06
28.07,7.800040168097797e-06,-4.30714347670667e-06,8.910225112356923e-06
28.08,7.679202666843567e-06,-4.320814663374836e-06,8.811333210910386e-06
28.09,7.555877864305775e-06,-4.3290284377042775e-06,8.708144320965191e-06
28.1,7.430350764487475e-06,-4.331649921331092e-06,8.600773425936022e-06
28.11,7.302921398341511e-06,-4.3285684085779315e-06,8.489356007265405e-06
28.12,7.173902093910062e-06,-4.319698954399311e-06,8.374047427000022e-06
28.13,7.04361460676577e-06,-4.304983602134708e-06,8.25502214069065e-06
28.14,6.912387161151903e-06,-4.284392245272131e-06,8.132472759069386e-06
28.15,6.780551450372752e-06,-4.257923124610968e-06,8.006608976729715e-06
28.16,6.648439642112935e-06,-4.225602968535104e-06,7.877656385151072e-06
28.17,6.516381430800145e-06,-4.187486789409925e-06,7.745855186043668e-06
28.18,6.384701175158957e-06,-4.143657353410069e-06,7.611458819342421e-06
28.19,6.253715154904876e-06,-4.094224344364261e-06,7.47473251833615e-06
28.2,6.123728976515515e-06,-4.039323244667434e-06,7.335951802781041e-06
28.21,5.995035154107903e-06,-3.9791139580415255e-06,7.195400919342191e-06
28.22,5.8679108879504866e-06,-3.913779200163301e-06,7.0533712376819325e-06
28.23,5.742616059914989e-06,-3.843522684101283e-06,6.910159609936277e-06
28.24,5.619391462256238e-06,-3.7685671282273805e-06,6.766066701269969e-06
28.25,5.498457273394077e-06,-3.6891521149936792e-06,6.621395299701005e-06
28.26,5.380011791737764e-06,-3.6055318296597563e-06,6.476448614319967e-06
28.27,5.264230435886215e-06,-3.51797270882355e-06,6.331528572322648e-06
28.28,5.1512650167025235e-06,-3.42675102932307e-06,6.186934126792523e-06
28.29,5.041243283652463e-06,-3.332150468703864e-06,6.042959588732532e-06
28.3,4.934268744402763e-06,-3.2344596688410194e-06,5.899892998296594e-06
28.31,4.830420752995303e-06,-3.1339698343114363e-06,5.758014551331193e-06
28.32,4.729754858024133e-06,-3.0309723966657184e-06,5.61759509811382e-06
28.33,4.632303398220483e-06,-2.9257567746326024e-06,5.478894731373619e-06
28.34,4.5380763288659806e-06,-2.818608258559324e-06,5.342161480321665e-06
28.35,4.4470622586597635e-06,-2.7098060449122255e-06,5.207630126404804e-06
28.36,4.359229673253592e-06,-2.5996214435081296e-06,5.07552115488862e-06
28.37,4.274528318738863e-06,-2.4883162764079414e-06,4.946039854180026e-06
28.38,4.192890716195284e-06,-2.3761414831306436e-06,4.819375572188881e-06
28.39,4.114233776899942e-06,-2.2633359422835775e-06,4.695701135998441e-06
28.4,4.0384604872150565e-06,-2.150125514935294e-06,4.575172437927672e-06
28.41,3.965461632384475e-06,-2.0367223103200723e-06,4.457928187764904e-06
28.42,3.895117529510465e-06,-1.923324169921758e-06,4.344089827720524e-06
28.43,3.827299741777928e-06,-1.8101143617948995e-06,4.233761603608492e-06
28.44,3.7618727484126518e-06,-1.6972614732628129e-06,4.127030783005139e-06
28.45,3.6986955478010915e-06,-1.5849194870334107e-06,4.023968008782111e-06
28.46,3.6376231744918184e-06,-1.4732280232941763e-06,3.924627774479919e-06
28.47,3.57850811432681e-06,-1.3623127285803318e-06,3.829049006575237e-06
28.48,3.521201605528108e-06,-1.2522857911037042e-06,3.737255737753835e-06
28.49,3.4655548171137097e-06,-1.143246561776943e-06,3.6492578548843106e-06
28.5,3.4114198993643346e-06,-1.0352822602917178e-06,3.5650519054080677e-06
28.51,3.3586509041879455e-06,-9.284687462521164e-07,3.4846219463479076e-06
28.52,3.3071045759866352e-06,-8.228713364243775e-07,3.4079404209611098e-06
28.53,3.2566410160538675e-06,-7.185456505469844e-07,3.3349690492363426e-06
28.54,3.2071242255312153e-06,-6.15538469782077e-07,3.2656597198377635e-06
28.55,3.158422533581745e-06,-5.13888593662389e-07,3.199955372709632e-06
28.56,3.1104089186620844e-06,-4.136276832357246e-07,3.1377908632717365e-06
28.57,3.062961231668649e-06,-3.1478107998437475e-07,3.0790938009455406e-06
28.58,3.0159623302768726e-06,-2.173685918848833e-07,3.0237853565336147e-06
28.59,2.9693001340898583e-06,-1.2140523970853074e-07,2.971781034755881e-06
28.6,2.9228676102470075e-06,-2.6901958250438256e-08,2.922991409906769e-06
28.61,2.876562699003949e-06,6.613375136241366e-08,2.8773228241492385e-06
28.62,2.830288188500108e-06,1.5769722084009044e-07,2.8346780493424487e-06
28.63,2.783951547519469e-06,2.4778606675717254e-07,2.794956914482768e-06
28.64,2.7374647245807355e-06,3.3639969583276105e-07,2.758056901820602e-06
28.65,2.69074392113163e-06,4.2353886295860407e-07,2.723873715417638e-06
28.66,2.643709346081023e-06,5.092052807294158e-07,2.6923018264078177e-06
28.67,2.596284958295352e-06,5.934012785702695e-07,2.663234999409464e-06
28.68,2.5483982031060366e-06,6.76129508992597e-07,2.636566804487352e-06
28.69,2.4999797482703115e-06,7.573926980274201e-07,2.6121911187328816e-06
28.7,2.4509632242267845e-06,8.371934364607021e-07,2.5900026209571747e-06
28.71,2.4012849728748735e-06,9.155340081340962e-07,2.5698972821894587e-06
28.72,2.3508838084879028e-06,9.924162512683457e-07,2.5517728536827297e-06
28.73,2.2997007937257726e-06,1.0678414485084878e-06,2.535529352978516e-06
28.74,2.2476790330531964e-06,1.1418102412091204e-06,2.5210695473463205e-06
28.75,2.1947634851900193e-06,1.2143225633422737e-06,2.5082994326366997e-06
28.76,2.1409007955179023e-06,1.2853775903742008e-06,2.4971287043493318e-06
28.77,2.0860391486569623e-06,1.3549736985035294e-06,2.4874712165904147e-06
28.78,2.030128140714311e-06,1.4231084297850943e-06,2.4792454236411413e-06
28.79,1.973118670021377e-06,1.48977845892482e-06,2.4723747981775213e-06
28.8,1.914962844510433e-06,1.5549795578922425e-06,2.4667882197947684e-06
28.81,1.85561390329842e-06,1.6187065549514811e-06,2.462420327474026e-06
28.82,1.7950261495296017e-06,1.6809532853036636e-06,2.4592118300114464e-06
28.83,1.7331548911357662e-06,1.741712531169398e-06,2.4571097692004604e-06
28.84,1.6699563858860907e-06,1.8009759498730704e-06,2.456067731717296e-06
28.85,1.6053877869841768e-06,1.858733989239878e-06,2.4560460071736324e-06
28.86,1.5394070854667833e-06,1.9149757903918408e-06,2.4570116915823153e-06
28.87,1.4719730458475443e-06,1.9696890787595217e-06,2.4589387374813206e-06
28.88,1.403045131740166e-06,2.0228600448146988e-06,2.461807954046681e-06
28.89,1.3325834186434388e-06,2.0744732166236264e-06,2.465606962622431e-06
28.9,1.2605484915958151e-06,2.124511326796259e-06,2.4703301150554933e-06
28.91,1.186901326028766e-06,2.1729551767648045e-06,2.4759783839843604e-06
28.92,1.1116031507862512e-06,2.2197835015219685e-06,2.4825592356411262e-06
28.93,1.0346152929450535e-06,2.2649728380214535e-06,2.490086496764869e-06
28.94,9.558990046945435e-07,2.3084974003544036e-06,2.4985802277731764e-06
28.95,8.754152731113749e-07,2.35032896461789e-06,2.508066614410085e-06
28.96,7.931246141559838e-07,2.3904367660737763e-06,2.5185778896387802e-06
28.97,7.089868526095983e-07,2.428787410804675e-06,2.5301522966130995e-06
28.98,6.229608899379117e-07,2.465344803619369e-06,2.5428341021634226e-06
28.99,5.350044622248516e-07,2.5000700934851346e-06,2.5566736684487663e-06
29.0,4.450738903471806e-07,2.532921637288598e-06,2.5717275883175353e-06
29.01,3.5312382445969365e-07,2.563854982288632e-06,2.5880588875849176e-06
29.02,2.591069846785626e-07,2.592822867236912e-06,2.6057372949658334e-06
29.03,1.6297389954414777e-07,2.6197752418419785e-06,2.624839577898204e-06
29.04,6.467264350051884e-08,2.6446593040591403e-06,2.6454499400600873e-06
29.05,-3.5851425791442547e-08,2.667419554603405e-06,2.667660474088093e-06
29.06,-1.3865592991195884e-07,2.6879978681337383e-06,2.6915716609429652e-06
29.07,-2.4380173193029436e-07,2.706333580761492e-06,2.717292905604681e-06
29.08,-3.5135319885450763e-07,2.7223635938535745e-06,2.744943097312701e-06
29.09,-4.613784649726904e-07,2.7360224945909014e-06,2.7746511814727224e-06
29.1,-5.739496969971717e-07,2.7472426943322874e-06,2.806556729561202e-06
29.11,-6.891433619562633e-07,2.755954586571208e-06,2.840810492900091e-06
29.12,-8.070404986657116e-07,2.7620867270738604e-06,2.877574925934022e-06
29.13,-9.277269932857421e-07,2.765566039678545e-06,2.917024664601634e-06
29.14,-1.0512938589004313e-06,2.7663180521512466e-06,2.9593469454289452e-06
29.15,-1.1778375182437034e-06,2.7642671673988076e-06,3.004741951007027e-06
29.16,-1.307460087592326e-06,2.7593369761961693e-06,3.0534230674523882e-06
29.17,-1.4402696584492297e-06,2.7514506183330496e-06,3.1056170392008705e-06
29.18,-1.5763805719492446e-06,2.740531199660296e-06,3.1615640059835146e-06
29.19,-1.7159136789050261e-06,2.7265022728670465e-06,3.221517406037495e-06
29.2,-1.8589965761072926e-06,2.7092883898613636e-06,3.2857437285059548e-06
29.21,-2.0057638069047194e-06,2.6888157332597446e-06,3.3545220965905187e-06
29.22,-2.1563570112391837e-06,2.66501283369284e-06,3.4281436614686855e-06
29.23,-2.310925007263282e-06,2.6378113781882924e-06,3.5069107853058393e-06
29.24,-2.4696237834610604e-06,2.607147112833528e-06,3.5911359901558622e-06
29.25,-2.632616376982269e-06,2.572960840009773e-06,3.681140648301698e-06
29.26,-2.8000726107283904e-06,2.5351995067126363e-06,3.7772533889305467e-06
29.27,-2.972168658868508e-06,2.4938173756484984e-06,3.87980819627035e-06
29.28,-3.1490864080599194e-06,2.4487772649167284e-06,3.989142175781753e-06
29.29,-3.331012580008625e-06,2.400051834998088e-06,4.105592967995416e-06
29.3,-3.5181375804579185e-06,2.347624893570794e-06,4.229495794529601e-06
29.31,-3.7106540406104e-06,2.2914926793497537e-06,4.361180127971304e-06
29.32,-3.908755019779612e-06,2.2316650758906067e-06,4.5009659869412635e-06
29.33,-4.112631843195927e-06,2.168166695404858e-06,4.649159869990701e-06
29.34,-4.322471556780391e-06,2.101037761501328e-06,4.806050357042673e-06
29.35,-4.538453991715193e-06,2.030334709027939e-06,4.971903424806151e-06
29.36,-4.760748446106061e-06,1.9561304095651724e-06,5.146957542697131e-06
29.37,-4.989510009035248e-06,1.8785139236035064e-06,5.3314186377956825e-06
29.38,-5.224875573758185e-06,1.7975896760541838e-06,5.5254550405112795e-06
29.39,-5.466959611257663e-06,1.7134759517145753e-06,5.729192545920124e-06
29.4,-5.715849802106935e-06,1.626302612787421e-06,5.942709747968942e-06
29.41,-5.971602652357793e-06,1.53620795265471e-06,6.166033823410816e-06
29.42,-6.234239246401962e-06,1.443334619691699e-06,6.399136957885734e-06
29.43,-6.5037413144055795e-06,1.3478245724598938e-06,6.641933616262113e-06
29.44,-6.780047811748447e-06,1.2498130630500204e-06,6.894278861647923e-06
29.45,-7.063052220300017e-06,1.149421687990851e-06,7.155967920799305e-06
29.46,-7.3526007841126215e-06,1.0467505944297394e-06,7.426737177083389e-06
29.47,-7.648491882832493e-06,9.418699808748256e-07,7.706266744840052e-06
29.48,-7.95047672348629e-06,8.348110836197327e-07,7.994184741174778e-06
29.49,-8.258261494436254e-06,7.255568882834636e-07,8.290073323476946e-06
29.5,-8.571511074730879e-06,6.140328465666621e-07,8.59347650493657e-06
29.51,-8.889854329420393e-06,5.000979072848836e-07,8.903909698283403e-06
29.52,-9.212890949680752e-06,3.8353618425787233e-07,9.220870872935192e-06
29.53,-9.540199719894887e-06,2.6404957880976973e-07,9.5438531461644e-06
29.54,-9.87134801743445e-06,1.4125164987651594e-07,9.87235856874637e-06
29.55,-1.0205902280165734e-05,1.4662979930618271e-08,1.0205912813426959e-05
29.56,-1.0543439117608847e-05,-1.1629177822401715e-07,1.0544080434272442e-05
29.57,-1.0883556698928159e-05,-2.52285066886874e-07,1.0886480339106764e-05
29.58,-1.1225886028824677e-05,-3.9408578255304947e-07,1.1232801108190757e-05
29.59,-1.1570101723064594e-05,-5.425569026468619e-07,1.1582815800774528e-05
29.6,-1.1915931919415487e-05,-6.986515442627732e-07,1.1936395917044877e-05
29.61,-1.2263167005832597e-05,-8.634077010406553e-07,1.2293524225020161e-05
29.62,-1.2611666912351837e-05,-1.037941972001784e-06,1.2654306217464198e-05
29.63,-1.2961366791772075e-05,-1.2234426452309349e-06,1.3018980029826516e-05
29.64,-1.3312281001027433e-05,-1.4211625272609922e-06,1.3387924722644912e-05
29.65,-1.366450538384351e-05,-1.6324119148066767e-06,1.3761666906472162e-05
29.66,-1.4018217940279854e-05,-1.8585520903614842e-06,1.4140885760579885e-05
29.67,-1.4373678044381188e-05,-2.1009896894349972e-06,1.452641656426794e-05
29.68,-1.473122443385061e-05,-2.3611722390810036e-06,1.4919252919066826e-05
29.69,-1.5091272242444486e-05,-2.640585109048931e-06,1.532054788882259e-05
29.7,-1.5454309375707112e-05,-2.940750053836016e-06,1.5731614321461267e-05
29.71,-1.5820892544233147e-05,-3.263225460414509e-06,1.6153924640831694e-05
29.72,-1.6191643267060317e-05,-3.6096083569758188e-06,1.6589110409497232e-05
29.73,-1.6567244143960696e-05,-3.981538185819944e-06,1.7038961965176822e-05
29.74,-1.6948435672187316e-05,-4.380702301141434e-06,1.7505428426219603e-05
29.75,-1.733601385405877e-05,-4.8088431208903936e-06,1.7990618347056683e-05
29.76,-1.7730828809911477e-05,-5.2677668420415304e-06,1.8496801285316846e-05
29.77,-1.8133784579616056e-05,-5.759353619459576e-06,1.902641052048187e-05
29.78,-1.8545840267421126e-05,-6.285569109812341e-06,1.9582047141678676e-05
29.79,-1.8968012661630796e-05,-6.848477291416925e-06,2.0166485701352123e-05
29.8,-1.9401380444105607e-05,-7.450254487560452e-06,2.0782681613938518e-05
29.81,-1.984709009579573e-05,-8.09320454245912e-06,2.143378046534754e-05
29.82,-2.0306363604313313e-05,-8.779775124216445e-06,2.2123129391259054e-05
29.83,-2.0780508088210825e-05,-9.512575156255925e-06,2.2854290680474267e-05
29.84,-2.1270927470447693e-05,-1.0294393406386166e-05,2.363105776427482e-05
29.85,-2.177913636062012e-05,-1.1128218289891033e-05,2.4457473764106355e-05
29.86,-2.2306776342097487e-05,-1.2017258968508694e-05,2.5337852787727745e-05
29.87,-2.2855634906493046e-05,-1.2964967850418404e-05,2.6276804188129233e-05
29.88,-2.3427667334398974e-05,-1.3975064616046813e-05,2.7279260029442667e-05
29.89,-2.402502188879918e-05,-1.5051561910238863e-05,2.8350506039487784e-05
29.9,-2.465006876686925e-05,-1.6198792851602114e-05,2.949621636855308e-05
29.91,-2.53054333483269e-05,-1.7421440513620584e-05,3.072249251796208e-05
29.92,-2.599403438557452e-05,-1.87245695277798e-05,3.203590684902006e-05
29.93,-2.671912790456565e-05,-2.0113659943931942e-05,3.344355113202949e-05
29.94,-2.748435772731115e-05,-2.159464345520516e-05,3.4953090645038e-05
29.95,-2.8293813690002975e-05,-2.31739420498192e-05,3.657282438167687e-05
29.96,-2.9152098816703448e-05,-2.4858509085719938e-05,3.831175197486619e-05
29.97,-3.0064406920556098e-05,-2.6655872690507866e-05,4.0179647987225376e-05
29.98,-3.103661234420971e-05,-2.8574181260773943e-05,4.218714425661348e-05
29.99,-3.2075373821398085e-05,-3.062225066326353e-05,4.4345821014681563e-05
30.0,-3.318825474338203e-05,-3.280961251356802e-05,4.6668307513794615e-05
30.01,-3.438386244836513e-05,-3.514656261300951e-05,4.9168392900096824e-05
30.02,-3.567200951802621e-05,-3.764420824386229e-05,5.1861148052867306e-05
30.03,-3.7063900460137614e-05,-4.031451253757502e-05,5.476305906778111e-05
30.04,-3.8572347573864034e-05,-4.317033351524764e-05,5.789217298717236e-05
30.05,-4.021202022446855e-05,-4.622545462678435e-05,6.126825626689538e-05
30.06,-4.199973218034858e-05,-4.949460264987772e-05,6.49129663063574e-05
30.07,-4.395477206292991e-05,-5.29934476158987e-05,6.885003614612794e-05
30.08,-4.609928229374538e-05,-5.673857796041833e-05,7.310547214107091e-05
30.09,-4.845869214254693e-05,-6.0747442306201884e-05,7.770776403237625e-05
30.1,-5.106221051809446e-05,-6.50382471222937e-05,8.268810634991433e-05
30.11,-5.3943383906140346e-05,-6.962979691429121e-05,8.808062945716656e-05
30.12,-5.714072422671435e-05,-7.454126053784284e-05,9.392263778090979e-05
30.13,-6.069841019815999e-05,-7.979184365210156e-05,0.00010025485182266997
30.14,-6.46670638579975e-05,-8.540034322196708e-05,0.00010712164940124897
30.15,-6.910460095360918e-05,-9.138455534873602e-05,0.00011457130019880091
30.16,-7.407714967548518e-05,-9.776050262137525e-05,0.00012265618605202165
30.17,-7.966002630428994e-05,-0.00010454144176693743,0.00013143299752158943
30.18,-8.593874836593722e-05,-0.0001117366068790978,0.00014096289507369632
30.19,-9.301005538099928e-05,-0.00011934963829223749,0.00015131162071190855
30.2,-0.00010098289377583245,-0.00012737664280754787,0.00016254954311920624
30.21,-0.00010997930553066709,-0.00013580382825599272,0.00017475161634156918
30.22,-0.00012013513929381142,-0.00014460465537814742,0.00018799722883642797
30.23,-0.00013160047777008952,-0.0001537364541100136,0.0002023699164195018
30.24,-0.00014453964627902808,-0.00016313646135333743,0.0002179569094324736
30.25,-0.00015913063500438564,-0.0001727172553010394,0.0002348484815271826
30.26,-0.0001755637328223891,-0.00018236158983159646,0.0002531370651019693
30.27,-0.0001940391357983453,-0.00019191667402691331,0.000272916096980228
30.28,-0.00021476326174344731,-0.00020118799913938594,0.00029427855781961757
30.29,-0.00023794347829047676,-0.0002099328905970714,0.0003173151704778902
30.3,-0.0002637809420489257,-0.00021785405727369858,0.00034211222670175155
30.31,-0.00029246125844058647,-0.00022459352406871581,0.00036874901863226205
30.32,-0.00032414271519985846,-0.00022972746422804968,0.0003972948623349997
30.33,-0.0003589419275948824,-0.0002327625887706833,0.00042780571538580454
30.34,-0.0003969168705584268,-0.00023313489146394186,0.0004603204098796825
30.35,-0.00043804747094351216,-0.00023021167340234162,0.0004948565462542791
30.36,-0.0004822141972500387,-0.0002232978601505613,0.000531406121885436
30.37,-0.000529175413291024,-0.00021164765010424258,0.0005699310009346516
30.38,-0.0005785446459832346,-0.00019448246482548973,0.0006103583672896311
30.39,-0.0006297693330986182,-0.00017101597930090936,0.0006525763388966285
30.4,-0.0006821130272894511,-0.00014048666454995285,0.0006964299569334669
30.41,-0.000734643385708792,-0.00010219775866965603,0.0007417177940718277
30.42,-0.0007862285043928882,-5.556389407456804e-05,0.000788189448955394
30.43,-0.0008355441892104798,-1.627716444878695e-07,0.0008355442050651817
30.44,-0.000881094517179501,6.421065933829506e-05,0.000883431127466333
30.45,-0.0009212474730283973,0.00013749099555903757,0.000931450847023622
30.46,-0.0009542865142109913,0.00021929445544816798,0.000979159235975065
30.47,-0.000978477635360335,0.0003088811169721909,0.0010260731101253658
30.48,-0.0009921499394167945,0.0004051323710503936,0.001071678002180535
30.49,-0.0009937860092785083,0.0005065482878933472,0.001115437940992409
30.5,-0.0009821167012876316,0.0006112686252040046,0.001156807048347689
30.51,-0.0009562135819641479,0.000717119617230114,0.0011952426363500306
30.52,-0.0009155713451933028,0.0008216865559516289,0.001230219364329274
30.53,-0.0008601723927214661,0.0009224096942748117,0.0012612439055521036
30.54,-0.0007905264781424032,0.0010166984388702757,0.0012878694919305634
30.55,-0.0007076799345964057,0.0011020564875398678,0.001309709659260053
30.56,-0.0006131914261484133,0.0011762088421083236,0.0013264505137228935
30.57,-0.0005090741442292382,0.0012372207832537778,0.0013378608862052222
30.58,-0.00039770756628449094,0.0012835991139093744,0.0013437998338699348
30.59,-0.0002817248968067759,0.0013143673013186283,0.0013442210831021816
30.6,-0.00016388472015710392,0.001329108448935293,0.001339174174830202
30.61,-4.6936883490717975e-05,0.0013279730317990166,0.0013288022592610586
30.62,6.650699797235888e-05,0.0013116516483306893,0.001313336677074051
30.63,0.00017408879175381207,0.0012813162489948384,0.001293088642496138
30.64,0.0002737970108192841,0.0012385359968199168,0.0012684384961645875
30.65,0.0003640325517992826,0.0011851757874671463,0.001239823110757284
30.66,0.00044364454831679305,0.0011232863356680953,0.0012077221026170995
30.67,0.0005119367397192274,0.0010549946025835213,0.001172643525098192
30.68,0.0005686472588790186,0.000982402319110704,0.0011351096958552996
30.69,0.0006139066364809224,0.0009074986837499745,0.0010956437465359146
30.7,0.0006481799676304836,0.000832091267479943,0.001054757388148494
30.71,0.0006721995734034127,0.0007577570342334899,0.001012940269420692
30.72,0.0006868942006959193,0.0006858134367966235,0.0009706511798995983
30.73,0.0006933199947376724,0.0006173079580933312,0.0009283112248747206
30.74,0.0006925973404286455,0.0005530233391635596,0.0008862989843322886
30.75,0.0006858563919900809,0.0004934950913554205,0.0008449475697494764
30.76,0.0006741928597512359,0.00043903769106461545,0.0008045434148104739
30.77,0.0006586345205698785,0.00038977601732744866,0.000765326580859414
30.78,0.0006401180389992836,0.0003456790111073095,0.0007274923247515507
30.79,0.0006194750596720322,0.0003065931036421961,0.0006911936637127269
30.8,0.0005974261510700068,0.00027227358531037174,0.0006565446757381305
30.81,0.000574581015410252,0.00024241269210723227,0.0006236242911918618
30.82,0.0005514433835437964,0.0002166637233814872,0.0005924803577197814
30.83,0.0005284191380744317,0.00019466094362407093,0.0005631337926780269
30.84,0.0005058264057868276,0.00017603535306862897,0.0005355826717895354
30.85,0.00048390659260996326,0.00016042664063089775,0.0005098061370712402
30.86,0.0004628355706635735,0.00014749177100603818,0.0004857680392800388
30.87,0.00044273444677048836,0.00013691072272747735,0.00046342025889567083
30.88,0.000423679532883853,0.00012838990393289286,0.00044270567425387414
30.89,0.00040571129562190825,0.00012166374457159702,0.00042356076557961583
30.9,0.0003888421838986256,0.00011649491242777931,0.0004059178594255352
30.91,0.0003730633230804054,0.00011267353718755014,0.00038970702971610505
30.92,0.000358350125593686,0.0001100157603644913,0.00037485767971536573
30.93,0.0003446669065835484,0.00010836186499092797,0.0003612998343179589
30.94,0.0003319706142238961,0.00010757418111286735,0.0003489651746955487
30.95,0.00032021379225977977,0.00010753491308210982,0.00033778784804217916
30.96,0.00030934689130506383,0.00010814399298178082,0.0003277050844557503
30.97,0.00029932003852513566,0.00010931703097721744,0.0003186576512879655
30.98,0.0002900843650644778,0.00011098340720902204,0.0003105901729459334
30.99,0.0002815929787368116,0.00011308453003386335,0.0003034513414154733
31.0,0.0002738016573309136,0.00011557227091078283,0.00029719403991438053
31.01,0.0002666693262171987,0.00011840757598820674,0.00029177539923121973
31.02,0.0002601583732577065,0.00012155924754172637,0.0002871568035742961
31.03,0.00025423484456817315,0.00012500288403555535,0.0002833038602098631
31.04,0.0002488685565471495,0.00012871996506367439,0.0002801863448561605
31.05,0.00024403315274413215,0.00013269706623013464,0.0002777781327324483
31.06,0.00023970612849541758,0.00013692518872088485,0.0002760571233359349
31.07,0.00023586884169700186,0.00014139918857613177,0.00027500516543053113
31.08,0.0002325065244587139,0.00014611729124353512,0.00027460798734963733
31.09,0.00022960830756311345,0.00015108067768747552,0.000274855136521958
31.1,0.00022716726749449546,0.00015629312901726747,0.00027573993109254936
31.11,0.00022518050419287973,0.00016176071716822186,0.00027725942560594217
31.12,0.0002236492565038997,0.00016749152955364648,0.0002794143919109521
31.13,0.0002225790614422366,0.00017349541574065806,0.00028220931571358647
31.14,0.00022197996276203944,0.00017978374404028575,0.00028565240851247765
31.15,0.00022186677384705618,0.00018636915540613984,0.00028975563398163406
31.16,0.00022225939949371146,0.00019326530116252837,0.00029453474718061365
31.17,0.0002231832206755289,0.00020048654980111305,0.0003000093442582348
31.18,0.0002246695457261914,0.00020804764636310404,0.0003062029195387275
31.19,0.00022675613044523406,0.00021596330572716072,0.0003131429260179752
31.2,0.00022948776825955692,0.00022424771843755148,0.0003208608343272819
31.21,0.00023291694958905396,0.00023291394451830527,0.00032939218411636014
31.22,0.00023710458675209285,0.0002419731670478179,0.0003387766205481599
31.23,0.00024212079684919675,0.00025143377316349386,0.00034905790716458683
31.24,0.00024804572977625707,0.0002613002257304409,0.0003602839047570892
31.25,0.0002549704214969975,0.000271571684328554,0.000372506504060539
31.26,0.00026299764354876886,0.00028224032976318806,0.00038578149807506115
31.27,0.000272242708045751,0.00029328934242132097,0.0004001683776387321
31.28,0.00028283417274094333,0.00030469048207040387,0.0004157300315521467
31.29,0.00029491437260592123,0.000316401215968504,0.0004325323301626042
31.3,0.00030863968257062885,0.00032836134451950727,0.00045064356894552164
31.31,0.0003241803903880248,0.00034048908058245545,0.00047013374640416744
31.32,0.0003417200292011113,0.0003526765517016301,0.0004910736487303721
31.33,0.00036145398690508285,0.00036478471606942527,0.0005135337123572619
31.34,0.0003835871750564307,0.0003766377154135694,0.0005375826350801574
31.35,0.0004083305060389863,0.0003880167338438539,0.000563285707172574
31.36,0.0004358958967284587,0.0003986534936636603,0.0005907028362848356
31.37,0.00046648949469526587,0.00040822359958043444,0.0006198862443347581
31.38,0.0005003028153569649,0.0004163400431800199,0.0006508778215681083
31.39,0.0005375014934740508,0.00042254730002925785,0.0006837061329612677
31.4,0.0005782113996487574,0.0004263165901180294,0.0007183830856121536
31.41,0.0006225019629574773,0.0004270430229800226,0.0007549002830585167
31.42,0.0006703666858633517,0.00042404550181339207,0.0007932251137751408
31.43,0.0007217010474775773,0.00041657040091209086,0.000833296646366882
31.44,0.0007762782734344935,0.00040380013626650383,0.0008750214327976688
31.45,0.000833723806799143,0.00038486779265944747,0.0009182693525595909
31.46,0.0008934897372866752,0.00035887891906232497,0.0009628696636533704
31.47,0.000954830916035925,0.00032494142174335186,0.001008607458718502
31.48,0.0010167849651114723,0.00028220413653021203,0.0010552207541322813
31.49,0.001078158832163517,0.0002299041205861144,0.0011023984633673403
31.5,0.0011375248712005102,0.00016742195726471285,0.0011497795198967865
31.51,0.0011932295661635235,9.434342641111037e-05,0.001196953415832788
31.52,0.001243417864389435,1.0524800676460705e-05,0.001243462406714438
31.53,0.0012860755673713322,-8.384213097732088e-05,0.0012888055974103745
31.54,0.0013190912740222236,-0.00018817031413119651,0.0013324450669058767
31.55,0.0013403379660651012,-0.0003014288410188477,0.001373814110232348
31.56,0.0013477725059093597,-0.00042211189539544927,0.0014123275752882308
31.57,0.0013395491993562778,-0.0005482315029131119,0.0014473941544314783
31.58,0.0013141413539565839,-0.0006773395274825825,0.0014784303614540561
31.59,0.0012704627059140238,-0.0008065827068123129,0.0015048757922323892
31.6,0.0012079790073556815,-0.0009327920792815878,0.001526209142084559
31.61,0.0011267992791069183,-0.0010526050678281815,0.0015419643459605157
31.62,0.0010277365090778313,-0.00116261503553857,0.001551746130316373
31.63,0.0009123290719558331,-0.0012595397068926265,0.0015552442280153157
31.64,0.0007828168627292905,-0.0013403969210774112,0.0015522455175026703
31.65,0.0006420698878309511,-0.0014026742123144948,0.0015426434088120747
31.66,0.0004934714714424858,-0.0014444780790201458,0.0015264439111534176
31.67,0.0003407627926178489,-0.0014646497330070539,0.0015037679745327564
31.68,0.00018785957928292801,-0.0014628366208227443,0.0014748498909205857
31.69,3.8654876750594176e-05,-0.001439512853600723,0.001440031754920113
31.7,-0.00010317657024332683,-0.0013959464260427559,0.0013997542030759257
31.71,-0.00023435688068009638,-0.0013341161547160408,0.001354543857465095
31.72,-0.0003521529198108904,-0.00125658597028422,0.001304998076491483
31.73,-0.00045448315515049824,-0.0011663479593137134,0.001251767750227979
31.74,-0.0005399774230771511,-0.0010666479206024758,0.0011955389596155477
31.75,-0.0006079882431248757,-0.0009608079488346374,0.0011370143439384994
31.76,-0.0006585568226501763,-0.0008520596992167771,0.0010768949900935004
31.77,-0.0006923406692902409,-0.0007433997598447086,0.0010158635761215327
31.78,-0.0007105123882645639,-0.0006374753701548167,0.0009545693801036335
31.79,-0.000714640597444021,-0.0005365050663935845,0.0008936156163480649
31.8,-0.0007065639567545518,-0.0004422352011961875,0.0008335493975534268
31.81,-0.0006882682615216037,-0.00035593009259047334,0.000774854457707661
31.82,-0.0006617746899385249,-0.00027839110195614357,0.0007179466177172134
31.83,-0.0006290449739143466,-0.00020999836871104767,0.0006631718435429856
31.84,-0.0005919068236041366,-0.00015076824987701702,0.0006108066412541019
31.85,-0.0005520006680266819,-0.00010041962061003492,0.0005610604581552387
31.86,-0.0005107468835603943,-5.8442908585919325e-05,0.0005140797142765284
31.87,-0.00046933128302517146,-2.416684939090578e-05,0.0004699530719503133
31.88,-0.0004287057595510023,3.1807463211858662e-06,0.0004287175590285072
31.89,-0.0003896005830352162,2.4420608459932354e-05,0.00039036518853367765
31.9,-0.00035254484940630505,4.0379208060835285e-05,0.00035484975875225635
31.91,-0.0003178918787817072,5.185575867941154e-05,0.0003220935676221756
31.92,-0.0002858468398232183,5.959849246234997e-05,0.00029199382894284844
31.93,-0.0002564944471750697,6.428918786719791e-05,0.00026442863140792544
31.94,-0.00022982515917065,6.653464927066117e-05,0.00023926233163911218
31.95,-0.000205758838742558,6.68637420339762e-05,0.00021635031712357648
31.96,-0.00018416529800011216,6.572862418069342e-05,0.00019554311295506407
31.97,-0.00016488151091841293,6.350894313766848e-05,0.00017668983700598723
31.98,-0.00014772554767133393,6.0517944150997066e-05,0.00015964103169003498
31.99,-0.0001325074663754464,5.7009635108498584e-05,0.00014425091729498363
32.0,-0.00011903750679396242,5.318634813669198e-05,0.00013037912276066306
32.01,-0.00010713198137753439,4.920621685756475e-05,0.0001178919556683579
32.02,-9.661726721363361e-05,4.519024148809729e-05,0.0001066632750743349
32.03,-8.733228171270863e-05,4.122873893043637e-05,9.657502960362985e-05
32.04,-7.912978652360172e-05,3.738707201079445e-05,8.751751978210483e-05
32.05,-7.187681702978542e-05,3.371062363476058e-05,7.938943866899255e-05
32.06,-6.545448519809607e-05,3.0229031540141082e-05,7.209773907968698e-05
32.07,-5.9757355801314535e-05,2.695973162910419e-05,6.555736954666669e-05
32.08,-5.469255270019201e-05,2.3910876522482376e-05,5.9690915028475475e-05
32.09,-5.017871425680978e-05,2.1083704558127336e-05,5.442817250616599e-05
32.1,-4.614488546797683e-05,1.8474435952603013e-05,4.970568617994857e-05
32.11,-4.252940886855671e-05,1.6075769673991212e-05,4.546626209971615e-05
32.12,-3.927885612333342e-05,1.3878048584960838e-05,4.1658477779247535e-05
32.13,-3.634702678978162e-05,1.1870152971722071e-05,3.8236198660813356e-05
32.14,-3.369402922829897e-05,1.0040174631987136e-05,3.515811019207749e-05
32.15,-3.128545032007639e-05,8.375915888017305e-06,3.238727170808169e-05
32.160000000000004,-2.909161485451312e-05,6.865250608927049e-06,2.989069622418825e-05
32.17,-2.7086931588018893e-05,5.496377781299543e-06,2.7638958583289262e-05
32.18,-2.5249320569448e-05,4.257992447393963e-06,2.5605833103041458e-05
32.19,-2.3559714982787608e-05,3.139393940728062e-06,2.3767960879832896e-05
32.2,-2.2001630166305153e-05,2.130547244410052e-06,2.2104546173480517e-05
32.21,-2.0560792390956195e-05,1.2221099047860725e-06,2.059708077285173e-05
32.22,-1.9224820241286636e-05,4.054341653150846e-07,1.9229094886972423e-05
32.230000000000004,-1.798295190759563e-05,-3.274482458818103e-07,1.7985932882801167e-05
32.24,-1.6825812275153466e-05,-9.83853021257682e-07,1.6854552070172107e-05
32.25,-1.5745214319210673e-05,-1.5704776241497205e-06,1.5823342691284662e-05
32.26,-1.4733989939762767e-05,-2.0934399365395136e-06,1.4881967286381494e-05
32.27,-1.3785845969647401e-05,-2.5583189094264265e-06,1.4021217662570265e-05
32.28,-1.2895241646733906e-05,-2.9701955761588204e-06,1.3232887775852026e-05
32.29,-1.2057284347578713e-05,-3.3336932874451245e-06,1.2509660937576338e-05
32.3,-1.1267640832488429e-05,-3.6530164021228854e-06,1.1845009867625244e-05
32.31,-1.0522461651100872e-05,-3.931986947072994e-06,1.1233108231956143e-05
32.32,-9.818316706035878e-06,-4.174078964877507e-06,1.0668752417459882e-05
32.33,-9.152140273769225e-06,-4.382450416052969e-06,1.014729240930365e-05
32.34,-8.521184041133511e-06,-4.559972607741632e-06,9.664570742988147e-06
32.35,-7.922976937583755e-06,-4.7092571930868505e-06,9.216868604039243e-06
32.36,-7.355290732085228e-06,-4.832680833633984e-06,8.800858241857559e-06
32.37,-6.816110523433467e-06,-4.932407647176939e-06,8.413560950369944e-06
32.38,-6.303609388160904e-06,-5.01040958057713e-06,8.052309947067945e-06
32.39,-5.816126564201727e-06,-5.068484854893685e-06,7.7147175538123e-06
32.4,-5.352148644534756e-06,-5.108274631440705e-06,7.398646148006802e-06
32.410000000000004,-4.910293335727851e-06,-5.131278044379275e-06,7.102182411880319e-06
32.42,-4.489295404104986e-06,-5.138865739598626e-06,6.823614461188343e-06
32.43,-4.087994489201019e-06,-5.132292052197024e-06,6.561411483269635e-06
32.44,-3.7053245120407324e-06,-5.112705946539276e-06,6.314205558524996e-06
32.45,-3.3403044460917805e-06,-5.081160834354708e-06,6.080775379600924e-06
32.46,-2.992030252757555e-06,-5.038623377905199e-06,5.860031619179988e-06
32.47,-2.6596678121551335e-06,-4.985981377159327e-06,5.651003730700741e-06
32.480000000000004,-2.342446704460393e-06,-4.924050832362865e-06,5.452827996822455e-06
32.49,-2.039654718157205e-06,-4.853582266252144e-06,5.264736668113444e-06
32.5,-1.7506329796753602e-06,-4.775266383628215e-06,5.086048059558297e-06
32.51,-1.4747716146055167e-06,-4.689739139839785e-06,4.9161574949335555e-06
32.52,-1.2115058643843362e-06,-4.597586283967027e-06,4.754529009056457e-06
32.53,-9.60312594325634e-07,-4.4993474370614915e-06,4.60068773535134e-06
32.54,-7.207071393488491e-07,-4.395519760527703e-06,4.454212921033066e-06
32.55,-4.922404429342122e-07,-4.286561264727791e-06,4.314731524663474e-06
32.56,-2.744964527810359e-07,-4.172893802960646e-06,4.181912360795804e-06
32.57,-6.708974353449007e-08,-4.054905791197167e-06,4.055460764102132e-06
32.58,1.3033665722779184e-07,-3.932954689336272e-06,3.935113750908541e-06
32.59,3.1811325865682603e-07,-3.8073692752718207e-06,3.820635659627483e-06
32.6,4.965459268472515e-07,-3.67845173881388e-06,3.7118142534684377e-06
32.61,6.659175473181362e-07,-3.5464796185199633e-06,3.6084572693055004e-06
32.62,8.264895390021492e-07,-3.4117076008024387e-06,3.5103893959863077e-06
32.63,9.785032271543478e-07,-3.2743691973377907e-06,3.4174496640076507e-06
32.64,1.1221810813024934e-06,-3.134678313891595e-06,3.3294892267156363e-06
32.65,1.2577278235068644e-06,-2.992830721099535e-06,3.2463695111894576e-06
32.660000000000004,1.3853314116727828e-06,-2.849005435668426e-06,3.1679607151345083e-06
32.67,1.505163902382501e-06,-2.7033660187453708e-06,3.0941406245260597e-06
32.68,1.617382197585994e-06,-2.5560617968774388e-06,3.0247937256157517e-06
32.69,1.7221286794119186e-06,-2.4072290100456813e-06,2.959810584354774e-06
32.7,1.8195317373139326e-06,-2.256991890585806e-06,2.899087466300862e-06
32.71,1.909706191652228e-06,-2.105463676424144e-06,2.8425261707108925e-06
32.72,1.9927536176157184e-06,-1.952747561873174e-06,2.7900340537208785e-06
32.730000000000004,2.0687625730770043e-06,-1.7989375892109196e-06,2.7415242172266474e-06
32.74,2.1378087335446277e-06,-1.6441194843516241e-06,2.6969158422250287e-06
32.75,2.1999549367927844e-06,-1.4883714400826623e-06,2.656134647861942e-06
32.76,2.255251139056922e-06,-1.3317648505421922e-06,2.6191134601916757e-06
32.77,2.303734283842259e-06,-1.174365000811491e-06,2.5857928775679574e-06
32.78,2.3454280834346833e-06,-1.0162317157108725e-06,2.5561220226313055e-06
32.79,2.3803427121335706e-06,-8.574199720386076e-07,2.5300593739392935e-06
32.8,2.408474409026495e-06,-6.979804786591771e-07,2.5075736733992117e-06
32.81,2.4298049868319736e-06,-5.379602289254057e-07,2.4886449087684254e-06
32.82,2.4443012419025867e-06,-3.774030300006212e-07,2.473265373594224e-06
32.83,2.4519142589274024e-06,-2.163500136669965e-07,2.4614408100836435e-06
32.84,2.4525786021792577e-06,-5.484013320732772e-08,2.4531916435692014e-06
32.85,2.446211383269716e-06,1.0708934909728804e-07,2.4485543204773743e-06
32.86,2.432711193312535e-06,2.6940237936529065e-07,2.4475827651125056e-06
32.87,2.4119568850755216e-06,4.3206363002687414e-07,2.4503499741578165e-06
32.88,2.3838061880992434e-06,5.950380139941507e-07,2.4569497716718487e-06
32.89,2.348094136813205e-06,7.582901910041635e-07,2.467498751592325e-06
32.9,2.304631288303253e-06,9.21784062290887e-07,2.4821384394347953e-06
32.910000000000004,2.2532017025005528e-06,1.0854822500321358e-06,2.501037710088798e-06
32.92,2.1935606530956507e-06,1.2493455584554326e-06,2.524395504520188e-06
32.93,2.125432032261242e-06,1.413332414043786e-06,2.552443894848423e-06
32.94,2.04850540619535e-06,1.5773982830693872e-06,2.585451554882014e-06
32.95,1.9624326714130036e-06,1.7414950657539563e-06,2.623727701929938e-06
32.96,1.866824253361704e-06,1.9055704678088586e-06,2.667626585698372e-06
32.97,1.7612447791839286e-06,2.0695673521145788e-06,2.7175526116602035e-06
32.980000000000004,1.6452081449043674e-06,2.2334230759790503e-06,2.773966199573346e-06
32.99,1.5181718837903898e-06,2.3970688230606382e-06,2.837390493256255e-06
33.0,1.3795307266170323e-06,2.5604289439307437e-06,2.9084190555349523e-06
33.01,1.2286092257235805e-06,2.7234203257596496e-06,2.9877247028958164e-06
33.02,1.064653292498262e-06,2.8859518203137106e-06,3.076069658248885e-06
33.03,8.868204716984722e-07,3.0479237709581773e-06,3.1743172277822863e-06
33.04,6.941687451179041e-07,3.2092276945929794e-06,3.28344523975064e-06
33.05,4.856436207595074e-07,3.3697461945212016e-06,3.4045615197664626e-06
33.06,2.600632210061721e-07,3.529353206623645e-06,3.5389217193976907e-06
33.07,1.610103331455771e-08,3.6879147158252456e-06,3.6879498633352103e-06
33.08,-2.4773407131534465e-07,3.845290125100158e-06,3.853262035767003e-06
33.09,-5.331210144517853e-07,4.0013345183454905e-06,4.0366936896119865e-06
33.1,-8.419534212750184e-07,4.15590213545453e-06,4.240331133658341e-06
33.11,-1.1763708960582985e-06,4.308851477938625e-06,4.466547832949611e-06
33.12,-1.5387953923801937e-06,4.460052593166792e-06,4.718046247486807e-06
33.13,-1.931973520697993e-06,4.609397253031704e-06,4.997906033623923e-06
33.14,-2.359025758500672e-06,4.75681295913567e-06,5.309639541199641e-06
33.15,-2.823503658378659e-06,4.902281984622061e-06,5.65725565673213e-06
33.160000000000004,-3.3294562816284508e-06,5.045867018722879e-06,6.04533316715551e-06
33.17,-3.881507210599805e-06,5.187745434076862e-06,6.47910494703733e-06
33.18,-4.484943597636195e-06,5.328254772666753e-06,6.9645544004210295e-06
33.19,-5.14581877055616e-06,5.467952772546548e-06,7.508525710298101e-06
33.2,-5.871069902200609e-06,5.607696167064694e-06,8.118849555117889e-06
33.21,-6.668652118377875e-06,5.748743617905885e-06,8.804486030448305e-06
33.22,-7.547690099439756e-06,5.8928895319554855e-06,9.5756865483897e-06
33.230000000000004,-8.51864763539457e-06,6.042637198237075e-06,1.044417645607024e-05
33.24,-9.59351460023551e-06,6.20142169732284e-06,1.1423359989642205e-05
33.25,-1.0786009254852398e-05,6.373895399633698e-06,1.252854892680047e-05
33.26,-1.211179145674352e-05,6.566291571212891e-06,1.377721587585194e-05
33.27,-1.3588678978275948e-05,6.786884588740714e-06,1.518927249066014e-05
33.28,-1.5236854379336591e-05,7.0465683982102034e-06,1.6787371967278363e-05
33.29,-1.707904334653645e-05,7.359577889551763e-06,1.8597233889620526e-05
33.3,-1.914063664702761e-05,7.744380396501774e-06,2.0647987770706795e-05
33.31,-2.1449716370282722e-05,8.224765937659212e-06,2.2972529401327443e-05
33.32,-2.4036932491172442e-05,8.831164164838628e-06,2.56078812886094e-05
33.33,-2.693515764452155e-05,9.602211977794652e-06,2.8595544971231635e-05
33.34,-3.0178826277193678e-05,1.0586586651464124e-05,3.1981828784451865e-05
33.35,-3.380283943049777e-05,1.184510285721149e-05,3.5818129700780506e-05
33.36,-3.784088945151582e-05,1.3453045408337982e-05,4.016114223027832e-05
33.37,-4.232303220860455e-05,1.5502669806525794e-05,4.507296114591036e-05
33.38,-4.727231172288571e-05,1.810574648198722e-05,5.062103822814848e-05
33.39,-5.2700229364284435e-05,2.1395949170802402e-05,5.687794665745017e-05
33.4,-5.860085514021141e-05,2.5530791523622007e-05,6.392090064279985e-05
33.410000000000004,-6.494341295400882e-05,3.069269953891438e-05,7.183097306246794e-05
33.42,-7.166324820210735e-05,3.708867544461268e-05,8.069195120402442e-05
33.43,-7.865121930548225e-05,4.494787168957202e-05,9.058877120074701e-05
33.44,-8.5741758816324e-05,5.451626993828367e-05,0.00010160547668753141
33.45,-9.270013498674315e-05,6.604757685048253e-05,0.00011382265782514833
33.46,-9.920981320504087e-05,7.978944323580104e-05,0.00012731434439236695
33.47,-0.00010486125642035371,9.59642315784904e-05,0.00014214435212313328
33.480000000000004,-0.00010914398192414046,0.00011474384870014805,0.00015836211543415163
33.49,-0.00011144414965176353,0.00013621867120565086,0.00017599808202545242
33.5,-0.00011105030619011003,0.0001603613507155095,0.00019505879449084018
33.51,-0.00010717003356005199,0.0001869872907926328,0.00021552183882667504
33.52,-9.896002051482346e-05,0.0002157147852279061,0.00023733089606331478
33.53,-8.557135819284279e-05,0.00024592908036310504,0.0002603911863163006
33.54,-6.621056758489126e-05,0.00027675578275051686,0.00028456563837850264
33.55,-4.021497223975934e-05,0.0003070498231466557,0.00030967214580365017
33.56,-7.138626567187391e-06,0.00033540631646153044,0.00033548227540595657
33.57,3.3157670309273915e-05,0.0003601988448903717,0.0003617217700950505
33.58,8.042132365663083e-05,0.0003796487394906397,0.0003880731306023597
33.59,0.00013393888182566702,0.0003919258045256182,0.0004141804682958421
33.6,0.0001924948216723906,0.00039527680670608476,0.0004396566959463315
33.61,0.0002543692332836215,0.00038817338788124856,0.0004640929711819645
33.62,0.000317382719961952,0.0003694665468812049,0.0004870701388863501
33.63,0.0003789921773639615,0.0003385313205687143,0.0005081717480429959
33.64,0.00043643495714749963,0.00029538362442049423,0.0005269980620420984
33.65,0.00048691205666411355,0.0002407520480891834,0.0005431803564047704
33.660000000000004,0.0005277945018425138,0.00017609102240557923,0.0005563947199129674
33.67,0.0005568322017746518,0.0001035279524004762,0.000566374556156473
