t,phi_model_real,phi_model_imag,phi_model_abs
20.0,-8.367795728842391e-08,-2.141026366136787e-07,2.2987374695883006e-07
20.01,-7.519243506395148e-08,-2.2999303918522207e-07,2.419725198540149e-07
20.02,-6.522719344850241e-08,-2.462569055736747e-07,2.547489947141894e-07
20.03,-5.366621762692734e-08,-2.628364160717517e-07,2.682592860048347e-07
20.04,-4.038809388964541e-08,-2.7966429701883476e-07,2.82565597968114e-07
20.05,-2.5265925527396702e-08,-2.966628867350342e-07,2.9773685589580557e-07
20.06,-8.167263216548174e-09,-3.137431191335565e-07,3.138494049573798e-07
20.07,1.1045947545418663e-08,-3.3080341738823314e-07,3.309877851415513e-07
20.08,3.2517399097489374e-08,-3.477284892409786e-07,3.4924559191760575e-07
20.09,5.639643118599296e-08,-3.6438801465215723e-07,3.687264333793513e-07
20.1,8.28380139153045e-08,-3.8063521552038814e-07,3.895449959166264e-07
20.11,1.1200270016212098e-07,-3.96305296109936e-07,4.1182823187390887e-07
20.12,1.440565431206533e-07,-4.112137416161433e-07,4.357166842224669e-07
20.13,1.7917097419306472e-07,-4.251544609537162e-07,4.613659650019027e-07
20.14,2.1752263595306435e-07,-4.378977583582434e-07,4.889484062016604e-07
20.15,2.592931643817654e-07,-4.4918811672440524e-07,5.186549038633754e-07
20.16,3.046689140090658e-07,-4.5874177375243294e-07,5.506969785181247e-07
20.17,3.538406189845151e-07,-4.662440699079998e-07,5.853090776399428e-07
20.18,4.070029824532358e-07,-4.7134654490469864e-07,6.227511486295518e-07
20.19,4.64354185918554e-07,-4.7366375685647513e-07,6.633115139506271e-07
20.2,5.260953095408562e-07,-4.7276979539906e-07,7.073100834588451e-07
20.21,5.924296535482844e-07,-4.681944569067469e-07,7.551019427080982e-07
20.22,6.635619501213545e-07,-4.5941904640084384e-07,8.070813601147753e-07
20.23,7.396974542663665e-07,-4.4587176681975066e-07,8.636862603371143e-07
20.24,8.210409013121479e-07,-4.269226519543323e-07,9.254032161059224e-07
20.25,9.077953177555693e-07,-4.01877994501731e-07,9.927730160533516e-07
20.26,1.0001606712533962e-06,-3.699742153040406e-07,1.066396871859574e-06
20.27,1.0983323446092078e-06,-3.303711138585842e-07,1.1469433342963904e-06
20.28,1.2024994176502202e-06,-2.8214443356005617e-07,1.2351559945359305e-06
20.29,1.3128427399294093e-06,-2.242776677846833e-07,1.3318620544381821e-06
20.3,1.4295327762342981e-06,-1.556530247947472e-07,1.4379818574849596e-06
20.31,1.5527272059373278e-06,-7.504146043656428e-08,1.5545394806316091e-06
20.32,1.6825682562919344e-06,1.8908322354579344e-08,1.6826744966675952e-06
20.33,1.81917974886067e-06,1.2768201923595406e-07,1.8236550267802685e-06
20.34,1.962663837361161e-06,2.52913139498285e-07,1.9788922139965375e-06
20.35,2.1130974143114255e-06,3.963978280848854e-07,2.1499562601318304e-06
20.36,2.270528162956878e-06,5.601112470965382e-07,2.3385941819615415e-06
20.37,2.434970230025025e-06,7.462256857467171e-07,2.5467494566950006e-06
20.38,2.606399493856684e-06,9.571305859649467e-07,2.7765837426892027e-06
20.39,2.7847484013768457e-06,1.1954546910790958e-06,3.0305008789627356e-06
20.4,2.969900346107941e-06,1.4640905474631424e-06,3.31117338672909e-06
20.41,3.1616835579788365e-06,1.7662216140788482e-06,3.621571718305881e-06
20.42,3.3598644739033712e-06,2.105352262767111e-06,3.96499652374836e-06
20.43,3.5641405559655076e-06,2.4853409834474615e-06,4.345114234019827e-06
20.44,3.7741325214108056e-06,2.9104371435488382e-06,4.7659962920379414e-06
20.45,3.989375945427062e-06,3.3853216906456603e-06,5.2321624002995215e-06
20.46,4.2093121937731464e-06,3.915152232158813e-06,5.748628196850571e-06
20.47,4.433278637637302e-06,4.505612976971524e-06,6.320957821183863e-06
20.48,4.660498097503849e-06,5.162970081928837e-06,6.95532188929666e-06
20.49,4.890067456352139e-06,5.894133012679798e-06,7.658561464063346e-06
20.5,5.120945375076494e-06,6.7067226046025775e-06,8.438258684681604e-06
20.51,5.351939034769695e-06,7.609146597300494e-06,9.302814809029644e-06
20.52,5.5816898215229316e-06,8.610683517330052e-06,1.0261536527212294e-05
20.53,5.808657859970807e-06,9.72157590066139e-06,1.1324731525582448e-05
20.54,6.031105292342868e-06,1.0953133981525874e-05,1.250381442059114e-05
20.55,6.247078190854907e-06,1.2317851130757244e-05,1.381142434371461e-05
20.56,6.4543869836943725e-06,1.3829532507930828e-05,1.5261555645582102e-05
20.57,6.6505852696824885e-06,1.5503438601628704e-05,1.6869703402958473e-05
20.58,6.83294689537889e-06,1.7356445575420457e-05,1.8653025660401595e-05
20.59,6.998441172618539e-06,1.9407224619059056e-05,2.0630524623993794e-05
20.6,7.143706126645284e-06,2.1676442830886185e-05,2.2823249352897727e-05
20.61,7.2650196878009135e-06,2.4186988535452014e-05,2.5254522871719872e-05
20.62,7.358268776848872e-06,2.6964224377970422e-05,2.7950197060090354e-05
20.63,7.41891628965622e-06,3.003627204347023e-05,3.093893917351203e-05
20.64,7.441966066717148e-06,3.343433303438117e-05,3.4252554421416244e-05
20.65,7.421926043477383e-06,3.719305061759295e-05,3.7926349685115746e-05
20.66,7.3527699269463455e-06,4.135091883581031e-05,4.199954421376949e-05
20.67,7.227897942979876e-06,4.595074538411166e-05,4.6515734005061034e-05
20.68,7.0400974596047594e-06,5.10401762011578e-05,5.1523417577699254e-05
20.69,6.781504630711787e-06,5.667229083723247e-05,5.707659199528498e-05
20.7,6.443568641210623e-06,6.290627906501733e-05,6.323542933071483e-05
20.71,6.0170206938477095e-06,6.980821082380247e-05,7.00670452955642e-05
20.72,5.491850590169018e-06,7.745191346876313e-05,7.764637353333064e-05
20.73,4.857294662111753e-06,8.59199724757433e-05,8.605716112949034e-05
20.74,4.101839954503001e-06,9.53048742740472e-05,9.53931032695986e-05
20.75,3.213251002334387e-06,0.0001057103128020008,0.00010575913773618268
20.76,2.1786273660632117e-06,0.00011725268476095266,0.00011727292313595453
20.77,9.845023765305456e-07,0.00013006280245767162,0.00013006652846936717
20.78,-3.830035825904192e-07,0.00014428785764831746,0.00014428836597759847
20.79,-1.9379583168145296e-06,0.00016009367502264107,0.00016010540423325105
20.8,-3.6943001202628694e-06,0.0001776672999909552,0.0001777057042963299
20.81,-5.665399990229621e-06,0.00019721997236837532,0.00019730132857644935
20.82,-7.863469506050268e-06,0.00021899054550744275,0.00021913167998790118
20.83,-1.0298771226968834e-05,0.00024324941953092868,0.00024346733824256425
20.84,-1.2978577339801348e-05,0.0002703030676880797,0.0002706144709200744
20.85,-1.5905808390324344e-05,0.00030049924661224996,0.00030091990953587557
20.86,-1.907726658262968e-05,0.00033423299450106956,0.0003347769954961313
20.87,-2.248135649370108e-05,0.00037195353604134413,0.0003726323179267418
20.88,-2.60951590941167e-05,0.0004141722292766205,0.0004149934852887606
20.89,-2.988069142233928e-05,0.0004614717075038727,0.0004624380959073516
20.9,-3.3780142577297243e-05,0.0005145163884924448,0.0005156240995724025
20.91,-3.770982497194599e-05,0.0005740645434709163,0.0005753017738282112
20.92,-4.155251572888445e-05,0.0006409821387784797,0.0006423275751487192
20.93,-4.5147783904712356e-05,0.0007162586828157553,0.0007176801676934283
20.94,-4.8279801560093524e-05,0.0008010253284052389,0.0008024789816471226
20.95,-5.0662016551253813e-05,0.0008965754936324595,0.0008980057102843655
20.96,-5.1917917594022755e-05,0.0010043882694424798,0.001005729220993881
20.97,-5.1556942138728285e-05,0.0011261548751581993,0.0011273344318015288
20.98,-4.8944358566797216e-05,0.001263808397361344,0.0012647557928219045
20.99,-4.3263689024698634e-05,0.001419556994598474,0.0014202161130269849
21.0,-3.346992000514641e-05,0.0015959206584805125,0.0015962715883301387
21.01,-1.8231366205063722e-05,0.0017957714753221168,0.0017958640188762275
21.02,4.14239912488917e-06,0.0020223771108578413,0.0020223813532546774
21.03,3.578966488094322e-05,0.0022794469167120614,0.002279727866702606
21.04,7.940648641632743e-05,0.002571179596059265,0.002572405470620149
21.05,0.00013838180747203108,0.002902310722331312,0.0029056078630122347
21.06,0.00021696301756728842,0.0032781575218469097,0.003285329464305426
21.07,0.0003204580148164523,0.003704657137702221,0.0037184913402061475
21.08,0.0004554807353010104,0.004188393000498085,0.004213086591425781
21.09,0.000630247988673963,0.004736601835837606,0.004778347986332489
21.1,0.0008549362220775528,0.005357151114204496,0.005424940921728337
21.11,0.0011421073927374065,0.006058473253028958,0.00616518511110678
21.12,0.001507213275461656,0.006849438456224731,0.007013308707260651
21.13,0.0019691869962756817,0.007739142559964928,0.007985738850586196
21.14,0.00255112899545639,0.008736579490981082,0.00910143287365729
21.15,0.0032810914793825023,0.009850159815383112,0.010382254556918971
21.16,0.004192960058557688,0.011087027315460227,0.011853399881317651
21.17,0.0053274228392886,0.012452114663027126,0.013543876612320012
21.18,0.006733004680969866,0.013946867356157825,0.01548704171506692
21.19,0.008467126377230249,0.015567552768250177,0.017721199967277664
21.2,0.010597123701961501,0.017303059506084562,0.020290266115203553
21.21,0.013201127989141874,0.019132083011831807,0.023244491402423243
21.22,0.016368666608588264,0.02101958905259954,0.026641253170286018
21.23,0.020200787027626958,0.022912451085217278,0.03054590334673401
21.24,0.024809441403789833,0.02473417543958745,0.0350326678607892
21.25,0.030315790301213483,0.026378666292048738,0.040185584193021484
21.26,0.036846996556043024,0.027703048495081338,0.04609945825193475
21.27,0.04453098883680894,0.028519669837723628,0.05288081442675373
21.28,0.053488588452760576,0.028587555373105623,0.06064880391960893
21.29,0.06382232727107556,0.027603794891422593,0.06953602627921733
21.3,0.07560126072383067,0.0251956180842536,0.07968920751067982
21.31,0.0888411269786854,0.02091425309859241,0.09126966541800668
21.32,0.10347935840110212,0.014232066810454783,0.10445347931400366
21.33,0.11934475803634781,0.00454492926926845,0.11943126748392591
21.34,0.13612215877585696,-0.008817809068759773,0.13640746264985912
21.35,0.15331312970438712,-0.02657295510186103,0.15559896427225905
21.36,0.1701948129848234,-0.049449726899605397,0.17723303827837678
21.37,0.1857802678445221,-0.07813968021292929,0.20154433146124753
21.38,0.19878522212172503,-0.11322785455720658,0.2287708713573725
21.39,0.20760777642768685,-0.15510377726504124,0.25914893508392417
21.4,0.21032917579548405,-0.2038528135059682,0.2929066946403013
21.41,0.20474496515497032,-0.25913106778351847,0.33025658365418914
21.42,0.1884362877999307,-0.32003064076636006,0.37138638314987443
21.43,0.15889030716384325,-0.3849463819770056,0.4164490925765203
21.44,0.11367625064225434,-0.45145999794359215,0.46555173687068213
21.45,0.05067898141514452,-0.5162618651726982,0.5187433590792945
21.46,-0.031614911077916315,-0.5751342831670891,0.5760025575260808
21.47,-0.13379261690981142,-0.6230210980754988,0.6372250410857814
21.48,-0.25517700012940964,-0.6542064612268897,0.7022117880711308
21.49,-0.3935107202566384,-0.662618915399235,0.7706584937582645
21.5,-0.5447080364378226,-0.6422653953103186,0.842147067306577
21.51,-0.7027256793488763,-0.5877831912860425,0.9161399785921058
21.52,-0.8596039976419777,-0.49507758031505694,0.9919782473888632
21.53,-1.0057211886545896,-0.3619909821704734,1.0688838012064477
21.54,-1.130285590058305,-0.1889295759567357,1.1459667969730376
21.55,-1.2220640082983925,0.02064049719196465,1.2222383034836803
21.56,-1.270310086625403,0.2599186395476793,1.296628480084621
21.57,-1.2658200132438546,0.5187978941368244,1.3680100733874279
21.58,-1.2020093854264933,0.7842506837200011,1.4352267059836454
21.59,-1.075881567774173,1.0410870945084965,1.4971250736756618
21.6,-0.8887507446060888,1.2730503893400962,1.5525898298767928
21.61,-0.646596435475251,1.4641612829108281,1.6005796489848239
21.62,-0.3599615564413634,1.600175471888228,1.6401627550180506
21.63,-0.043360044683102464,1.6699872916400453,1.6705501033235053
21.64,0.2857746363582918,1.6668037355445822,1.6911244293697278
21.65,0.6085024967997346,1.588931363197471,1.7014635363604138
21.66,0.9059981965929567,1.440062890920275,1.7013564770603924
21.67,1.1611923503037973,1.2290144226849116,1.6908116765540695
21.68,1.3602381232646532,0.9689380794973113,1.6700565121822926
21.69,1.493631249177013,0.6761057531765143,1.6395283766975386
21.7,1.5568605242553224,0.3684157370783959,1.5998577584621627
21.71,1.5505320564820664,0.06380584199534167,1.551844336153353
21.72,1.4799824112899889,-0.22124020434762548,1.4964274675865543
21.73,1.3544611217466562,-0.4729307655070562,1.4346527242807927
21.74,1.1860116119899973,-0.6810326115467294,1.367636268079079
21.75,0.9882050569006452,-0.8393079886057158,1.296528879054138
21.76,0.7748824474805356,-0.9455251462906477,1.2224813330604993
21.77,0.5590390522520301,-1.0010973071325493,1.14661261125582
21.78,0.3519488451599488,-1.0104423621308745,1.0699821291956435
21.79,0.16258229685556413,-0.9801744963858534,0.9935668304729642
21.8,-0.002672873699338915,-0.9182397407198896,0.9182436309014851
21.81,-0.14001538902862715,-0.8330933122805967,0.8447773529939671
21.82,-0.24801208251926785,-0.7329925539653503,0.7738139810343253
21.83,-0.32722489135832383,-0.6254508513803064,0.7058788118486182
21.84,-0.3797527941624411,-0.5168700903317561,0.6413788856469622
21.85,-0.40875146091675907,-0.41234573551058257,0.5806089582458646
21.86,-0.4179805902378511,-0.31562159597164224,0.5237602177134772
21.87,-0.411413426052418,-0.22916140632408363,0.47093094746960534
21.88,-0.39292753425076604,-0.1543008996631872,0.42213838348254457
21.89,-0.36608255183403265,-0.09144571729921415,0.3773310932982929
21.9,-0.3339804029587195,-0.04028560235999269,0.3364013069504578
21.91,-0.2991967430130254,-2.2032897345496435e-06,0.2991967430211379
21.92,-0.2637688993284376,0.03054491427903675,0.2655315876524847
21.93,-0.22922472603129188,0.05266277704468818,0.23519639263853379
21.94,-0.19663783158134626,0.06770328360709321,0.2079667555649133
21.95,-0.16669682928609,0.07697445168728063,0.1836107271010965
21.96,-0.13977897074164208,0.08168118698825702,0.16189495659038744
21.97,-0.11602127363448494,0.08289070313356302,0.14258963707697872
21.98,-0.09538473639619528,0.08151724765086374,0.12547234596493329
21.99,-0.07770927519639137,0.07832098004620387,0.1103308994205447
22.0,-0.06275856819629662,0.07391644698509243,0.09696534956854017
22.01,-0.05025506903020281,0.0687868979869689,0.08518925576561938
22.02,-0.03990612190742205,0.06330153043159538,0.07483035694604313
22.03,-0.031422459641144845,0.05773354536605652,0.06573076319680066
22.04,-0.02453048008341693,0.0522775797186723,0.057746773021226494
22.05,-0.01897965359516861,0.04706563313745605,0.050748409563474976
22.06,-0.014546277767254865,0.0421810282168239,0.04461875545452414
22.07,-0.011034613531158565,0.037670244221203956,0.039253152681882474
22.08,-0.008276242495526514,0.0335526659999818,0.03455832150945838
22.09,-0.006128300139337087,0.02982841288267169,0.030451441307382043
22.1,-0.004471075341930216,0.026484477074047424,0.02685922635890617
22.11,-0.00320532886783056,0.023499424842849802,0.023717021336915275
22.12,-0.0022495726213459556,0.020846910690207686,0.020967934144884296
22.13,-0.0015374658292565534,0.018498235449100283,0.018562018098969783
22.14,-0.0010154205021038992,0.016424151692732713,0.016455510858736287
22.15,-0.0006404627705896532,0.014596089250890718,0.014610133948067655
22.16,-0.00037836525511891696,0.012986943466106377,0.012992453996767675
22.17,-0.00020204513323147385,0.011571541062684314,0.011573304834888422
22.18,-9.021015942014357e-05,0.010326874148235072,0.01032726815505187
22.19,-2.622824358932647e-05,0.009232172250084278,0.009232209506720912
22.2,2.8065047697361927e-06,0.008268865323415541,0.008268865799688193
22.21,6.838478012764137e-06,0.007420477035633851,0.007420480186696199
22.22,-6.528233365894046e-06,0.006672476902949042,0.006672480096502299
22.23,-3.1528735537442484e-05,0.006012111570302631,0.0060121942412842385
22.24,-6.383562926990074e-05,0.0054282292417833725,0.005428604580268889
22.25,-0.00010023882529633652,0.0049111065861139926,0.004912129448850979
22.26,-0.0001383916764642857,0.0044522840160802915,0.004454434331759606
22.27,-0.00017661068520392003,0.004044412783979719,0.004048267049163973
22.28,-0.00021371822717250986,0.0036811156132578087,0.0036873144209297057
22.29,-0.00024891962361731757,0.003356861412883926,0.00336607776563924
22.3,-0.0002817075053198864,0.0030668538499739792,0.003079764870189569
22.31,-0.00031178776212429163,0.0028069330755871764,0.0028241963280614467
22.32,-0.00033902249247281467,0.002573489623580103,0.002595724386963481
22.33,-0.00036338628745942415,0.0023633893695859474,0.0023911626682819815
22.34,-0.0003849329333106466,0.002173908399980009,0.0022077253213773633
22.35,-0.00040377022233232856,0.002002676665372886,0.002042974355803655
22.36,-0.0004200410496681141,0.0018476293557019993,0.0018947740549886353
22.37,-0.00043390936295815166,0.001706965017588597,0.0017612515171133247
22.38,-0.0004455498422610665,0.0015791095278234657,0.00164076249433052
22.39,-0.00045514043362146706,0.0014626851320420008,0.0015318618115919798
22.4,-0.00046285705400688924,0.0013564838500251778,0.0014332777427362308
22.41,-0.000468869938364962,0.0012594446357152064,0.0013438898055771434
22.42,-0.0004733412196660294,0.0011706337594378628,0.0012627095109210783
22.43,-0.0004764234268121735,0.0010892279513179527,0.0011888636639866485
22.44,-0.00047825865867665224,0.0010144999084274909,0.001121579871787372
22.45,-0.0004789782496653694,0.0009458058241206483,0.001060173957703659
22.46,-0.0004787027865374033,0.0008825746468245631,0.0010040390256639315
22.47,-0.00047754237055887304,0.0008242988179105437,0.0009526359519185214
22.48,-0.0004755970455623085,0.0007705262748335005,0.0009054851130506717
22.49,-0.00047295733286945236,0.0007208535371793765,0.0008621591852894712
22.5,-0.0004697048296608733,0.000674919720227648,0.0008222768729320536
22.51,-0.0004659128392899539,0.000632401343709411,0.0007854974432426212
22.52,-0.00046164701108321684,0.0005930078231466697,0.0007515159620096034
22.53,-0.0004569659739749279,0.0005564775479659823,0.0007200591383775964
22.54,-0.0004519219534064489,0.0005225744649001471,0.0006908816999576525
22.55,-0.0004465613646593065,0.0004910850973839085,0.0006637632298334587
22.56,-0.0004409253785011105,0.0004618159420207173,0.0006385054061719682
22.57,-0.0004350504569294475,0.00043459119200910947,0.0006149295929180997
22.58,-0.00042896885809488053,0.00040925074489480003,0.0005928747366958509
22.59,-0.00042270911030968923,0.00038564845834699614,0.0005721955307097599
22.6,-0.0004162964555191323,0.0003636506230008607,0.0005527608112798039
22.61,-0.000409753262821598,0.0003431346259035977,0.0005344521567801439
22.62,-0.0004030994126446751,0.00032398778185708735,0.0005171626622902679
22.63,-0.0003963526520820278,0.00030610631307056394,0.0005007958663109263
22.64,-0.00038952892172169673,0.000289394460101098,0.0004852648085271317
22.65,-0.0003826426540983694,0.0002737637091507315,0.00047049119990007324
22.66,-0.00037570704371506735,0.0002591321224714558,0.00045640468840019285
22.67,-0.0003687342884419467,0.00024542375997117045,0.0004429422055202862
22.68,-0.0003617358020313276,0.0002325681811745993,0.00043004738037349916
22.69,-0.0003547223975125275,0.00022050001753481105,0.0004176700097324293
22.7,-0.0003477044413550364,0.00020915860576876675,0.0004057655738294617
22.71,-0.0003406919785183361,0.00019848767345847465,0.00039429478913840144
22.72,-0.0003336948288332565,0.00018843506866920992,0.00038322319070539844
22.73,-0.00032672265557016477,0.00017895252582971862,0.00037252073789744464
22.74,-0.0003197850075179119,0.00016999546063617465,0.00036216143868465095
22.75,-0.00031289133639868856,0.00016152278730581163,0.0003521229887587514
22.76,-0.00030605099194173983,0.0001534967521399676,0.0003423864228996845
22.77,-0.00029927319740032836,0.0001458827780607113,0.0003329357770155179
22.78,-0.0002925670086884083,0.0001386493155607922,0.00032375776018245386
22.79,-0.00028594126060568076,0.0001317676963357427,0.00031484143678111107
22.8,-0.00027940450379102346,0.00012521198672792215,0.0003061779194505401
22.81,-0.0002729649360800817,0.0001189588389773347,0.000297760074052984
22.82,-0.00026663033183829226,0.0001129873391089947,0.00028958223815546565
22.83,-0.0002604079726026502,0.00010727885106321812,0.0002816399546947605
22.84,-0.0002543045820067969,0.00010181685736094693,0.000273929722506542
22.85,-0.00024832626750917236,9.65867971699683e-05,0.0002664487652862922
22.86,-0.00024247847091759652,9.157590308216172e-05,0.00025919482032604193
22.87,-0.00023676592914058058,8.677303821754706e-05,0.00025216594806457573
22.88,-0.00023119264602322744,8.216853543964029e-05,0.0002453603631223201
22.89,-0.00022576187557579432,7.775404050419815e-05,0.0002387762870936495
22.9,-0.00022047611640080641,7.352236088597734e-05,0.00023241182296395728
22.91,-0.0002153371166887867,6.946732185378854e-05,0.00022626485062726378
22.92,-0.00021034588879965558,6.558363111625382e-05,0.0002203329426239071
22.93,-0.00020550273218165183,6.186675306232803e-05,0.00021461329890898835
22.94,-0.00020080726320588198,5.831279329531398e-05,0.00020910269921294266
22.95,-0.00019625845040733097,5.491839382848065e-05,0.0002037974713704439
22.96,-0.00019185465361517724,5.1680638991316125e-05,0.00019869347387458497
22.97,-0.0001875936655150581,4.859697180416463e-05,0.0001937860908577039
22.98,-0.00018347275430190325,4.5665120324715676e-05,0.00018907023770386845
22.99,-0.00017948870623932337,4.288303325988738e-05,0.00018454037555243766
23.0,-0.0001756378671289509,4.024882397457502e-05,0.00018019053305027798
23.01,-0.00017191618189700702,3.776072191401352e-05,0.0001760143338410604
23.02,-0.00016831923171681926,3.541703038819821e-05,0.00017200502843597
23.03,-0.00016484226829478082,3.32160896406406e-05,0.000168155529280436
23.04,-0.0001614802451479547,3.1156244135000035e-05,0.00016445844800934753
23.05,-0.00015822784588811098,2.9235813037133373e-05,0.0001609061340606194
23.06,-0.00015507950969637356,2.745306294187028e-05,0.00015749071398834255
23.07,-0.00015202945432290138,2.58061819873363e-05,0.0001542041309773596
23.08,-0.0001490716970753673,2.429325461271509e-05,0.00015103818420720064
23.09,-0.00014620007436852008,2.291223634213087e-05,0.00014798456784259116
23.1,-0.0001434082604942,2.1660928116623692e-05,0.0001450349095385172
23.11,-0.00014068978633713792,2.0536949844642455e-05,0.00014218080843950381
23.12,-0.00013803805880587924,1.9537712997813218e-05,0.00013941387272463343
23.13,-0.00013544638177091407,1.8660392240625672e-05,0.00013672575680319423
23.14,-0.00013290797930078807,1.7901896249817187e-05,0.00013410819829957424
23.15,-0.00013041602196228652,1.725883804846927e-05,0.00013155305498258445
23.16,-0.00012796365689954266,1.672750535041001e-05,0.00012905234179336642
23.17,-0.0001255440423273188,1.6303831578588612e-05,0.00012659826810832207
23.18,-0.0001231503869642989,1.598336838396868e-05,0.0001241832753407407
23.19,-0.00012077599478999839,1.5761260643446063e-05,0.00012180007493669435
23.2,-0.00011841431533348847,1.5632225051217945e-05,0.00011944168675948429
23.21,-0.00011605899949195405,1.5590533530297627e-05,0.00011710147778244614
23.22,-0.00011370396063450825,1.563000277142648e-05,0.00011477320092516632
23.23,-0.0001113434404735099,1.574399124626125e-05,0.00011245103377399601
23.24,-0.00010897207888773873,1.5925405031238055e-05,0.00011012961682728463
23.25,-0.00010658498656759325,1.6166713708091105e-05,0.00010780409080240607
23.26,-0.00010417781903270411,1.6459977468926905e-05,0.0001054701324389442
23.27,-0.00010174685026165741,1.6796886341401668e-05,0.00010312398813532233
23.28,-9.928904388930523e-05,1.7168812159412485e-05,0.00010076250467022726
23.29,-9.680211968792796e-05,1.7566873537954923e-05,9.83831561903481e-05
23.3,-9.428461287623572e-05,1.7982013672568437e-05,9.598406659931675e-05
23.31,-9.173592371409515e-05,1.8405090285851746e-05,9.356402646374641e-05
23.32,-8.91563548613497e-05,1.8826976503307955e-05,9.112250356755472e-05
23.33,-8.654713412016724e-05,1.9238670881560725e-05,8.865964629809454e-05
23.34,-8.391042045279349e-05,1.9631414263068706e-05,8.617627914068233e-05
23.35,-8.124929157287788e-05,1.9996810624789637e-05,8.367388969241375e-05
23.36,-7.856771194203283e-05,2.03269486591346e-05,8.115460677988243e-05
23.37,-7.587048064903775e-05,2.061452050765941e-05,7.862116947538188e-05
23.38,-7.316315938089352e-05,2.0852933892034576e-05,7.60768870452754e-05
23.39,-7.045198147899424e-05,2.10364138770908e-05,7.352559012428807e-05
23.4,-6.774374386800664e-05,2.1160090672355177e-05,7.09715736793005e-05
23.41,-6.504568440440396e-05,2.122007023513079e-05,6.841953259429067e-05
23.42,-6.236534786816322e-05,2.1213484971055317e-05,6.587449096072166e-05
23.43,-5.971044437109409e-05,2.113852251534769e-05,6.334172638257804e-05
23.44,-5.708870434079645e-05,2.0994431385861825e-05,6.082669079052822e-05
23.45,-5.4507734431999054e-05,2.0781503183936832e-05,5.8334929394774385e-05
23.46,-5.1974878702278224e-05,2.0501031930729358e-05,5.5871999484010944e-05
23.47,-4.94970891652005e-05,2.0155252012187847e-05,5.344339079346118e-05
23.48,-4.7080809414557694e-05,1.9747257013527762e-05,5.1054449117468946e-05
23.49,-4.4731874424894495e-05,1.9280902408407214e-05,4.871030473367061e-05
23.5,-4.245542891382434e-05,1.8760695592189933e-05,4.641580704199386e-05
23.51,-4.02558658464579e-05,1.8191677088360628e-05,4.417546661140321e-05
23.52,-3.813678582073043e-05,1.7579296901012858e-05,4.199340558076025e-05
23.53,-3.6100977244184646e-05,1.6929289936998486e-05,3.987331708995498e-05
23.54,-3.4150416443283405e-05,1.6247554193850955e-05,3.781843413643412e-05
23.55,-3.228628617342668e-05,1.5540035029915936e-05,3.5831507972780284e-05
23.56,-3.050901045091608e-05,1.4812618334678928e-05,3.3914795895345933e-05
23.57,-2.8818303224586835e-05,1.4071034837986914e-05,3.2070058031691705e-05
23.58,-2.721322815220294e-05,1.3320777176277956e-05,3.0298562524382215e-05
23.59,-2.5692266641427614e-05,1.2567030709303957e-05,2.8601098335952116e-05
23.6,-2.4253391345471196e-05,1.1814618485349634e-05,2.697799476816137e-05
23.61,-2.2894142450525003e-05,1.1067960213961427e-05,2.5429146699068847e-05
23.62,-2.161170433269144e-05,1.0331044642241541e-05,2.3954044492812935e-05
23.63,-2.0402980470865483e-05,9.60741435673869e-06,2.2551807526595002e-05
23.64,-1.9264664853518486e-05,8.900161752908154e-06,2.1221220302949584e-05
23.65,-1.8193308487558256e-05,8.211934727297857e-06,1.9960770167727992e-05
23.66,-1.71853799857211e-05,7.544950547763126e-06,1.8768685729741826e-05
23.67,-1.6237319557909337e-05,6.901016334324061e-06,1.7642975170652838e-05
23.68,-1.53455860487339e-05,6.281554625268388e-06,1.6581463737840737e-05
23.69,-1.4506696939307114e-05,5.687632596270024e-06,1.5581829823196495e-05
23.7,-1.3717261461367613e-05,5.119993630878207e-06,1.4641639142519342e-05
23.71,-1.2974007154300921e-05,4.579090095752965e-06,1.375837663915603e-05
23.72,-1.2273800332115931e-05,4.06511634206128e-06,1.2929475838839825e-05
23.73,-1.1613661021004237e-05,3.578041125413313e-06,1.215234547755873e-05
23.74,-1.0990772983720107e-05,3.1176388030073402e-06,1.1424393309304824e-05
23.75,-1.0402489470140058e-05,2.6835188221416113e-06,1.0743047074511173e-05
23.76,-9.84633532999369e-06,2.2751531548995494e-06,1.0105772672533819e-05
23.77,-9.320006099737073e-06,1.891901457197644e-06,9.510089632747043e-06
23.78,-8.821364636315927e-06,1.5330338353317413e-06,8.953584019101912e-06
23.79,-8.348435821076748e-06,1.1977511897149285e-06,8.433918933159181e-06
23.8,-7.899399801509663e-06,8.852031744963343e-07,7.948842801579944e-06
23.81,-7.472584180332895e-06,5.945038645839335e-07,7.49619564693763e-06
23.82,-7.066455503400441e-06,3.2474526004431063e-07,7.073913546648675e-06
23.83,-6.679610342105291e-06,7.500878388101688e-08,6.6800314849571835e-06
23.84,-6.310766213812585e-06,-1.5562505522074029e-07,6.312684798341423e-06
23.85,-5.958752536375761e-06,-3.680686565052058e-07,5.970109406507231e-06
23.86,-5.622501770444379e-06,-5.632207980495457e-07,5.650641010186875e-06
23.87,-5.30104086628558e-06,-7.41961410645542e-07,5.352713424135174e-06
23.88,-4.9934831001289724e-06,-9.051474887743881e-07,5.074856199707361e-06
23.89,-4.699020358340796e-06,-1.0536099837741033e-06,4.8156916768009275e-06
23.9,-4.4169159057015055e-06,-1.1881515368319349e-06,4.57393159027494e-06
23.91,-4.1464976561709855e-06,-1.3095449227509528e-06,4.348373341530632e-06
23.92,-3.887151950396626e-06,-1.4185320889297366e-06,4.137896032139481e-06
23.93,-3.6383178332485196e-06,-1.5158236872190351e-06,3.941456343341699e-06
23.94,-3.399481816468348e-06,-1.6020990089280492e-06,3.758084333128672e-06
23.95,-3.1701731055845572e-06,-1.6780062450568486e-06,3.5868792114903207e-06
23.96,-2.949959266217876e-06,-1.7441630046848052e-06,3.4270051443287674e-06
23.97,-2.738442302383504e-06,-1.8011570342617234e-06,3.2776871274656394e-06
23.98,-2.5352551180875816e-06,-1.8495470893663696e-06,3.1382069641075115e-06
23.99,-2.3400583331627724e-06,-1.8898639182693144e-06,3.007899372017086e-06
24.0,-2.1525374246217742e-06,-1.922611323472542e-06,2.8861482403962173e-06
24.01,-1.9724001656848533e-06,-1.948267273324772e-06,2.7723830510775344e-06
24.02,-1.7993743358750323e-06,-1.967285040918159e-06,2.6660754739553185e-06
24.03,-1.6332056770493865e-06,-1.9800943518339982e-06,2.5667361425965165e-06
24.04,-1.4736560718703661e-06,-1.9871025260099552e-06,2.4739116126158475e-06
24.05,-1.3205019229095375e-06,-1.988695602113509e-06,2.387181502582784e-06
24.06,-1.1735327122877269e-06,-1.9852394354124043e-06,2.30615581492794e-06
24.07,-1.0325497234271571e-06,-1.9770807622901816e-06,2.230472432460761e-06
24.08,-8.973649081093745e-07,-1.9645482263361e-06,2.1597947846743363e-06
24.09,-7.677998835530888e-07,-1.9479533623846964e-06,2.0938096769310198e-06
24.1,-6.436850456654315e-07,-1.927591536057622e-06,2.0322252748881685e-06
24.11,-5.248587859355221e-07,-1.9037428372935e-06,1.974769236067854e-06
24.12,-4.111668006581363e-07,-1.8766729271018912e-06,1.921186980301664e-06
24.13,-3.0246148227555316e-07,-1.8466338373501404e-06,1.871240090823951e-06
24.14,-1.9860138361594254e-07,-1.813864723845215e-06,1.8247048380448396e-06
24.15,-9.945074669465585e-08,-1.7785925733097928e-06,1.7813708184572002e-06
24.16,-4.879088526120518e-09,-1.7410328651078788e-06,1.7410397016985553e-06
24.17,8.523916291773115e-08,-1.7013901887687365e-06,1.7035240794698008e-06
24.18,1.7102498887286578e-07,-1.6598588185001061e-06,1.66864641076878e-06
24.19,2.5259506182232135e-07,-1.6166232459978743e-06,1.6362380587059226e-06
24.2,3.3006199472680066e-07,-1.5718586729592101e-06,1.6061384149942132e-06
24.21,4.0353456238048163e-07,-1.525731464801339e-06,1.5781941090120843e-06
24.22,4.7311789950771493e-07,-1.4783995671922004e-06,1.5522582990947986e-06
24.23,5.389136799349915e-07,-1.430012887119673e-06,1.528190044382379e-06
24.24,6.010202809166917e-07,-1.3807136403736168e-06,1.5058537561087878e-06
24.25,6.595329364600848e-07,-1.3306366674841172e-06,1.4851187276204214e-06
24.26,7.145438832508219e-07,-1.2799097203654993e-06,1.4658587426410687e-06
24.27,7.661425025293587e-07,-1.2286537221456886e-06,1.4479517613250808e-06
24.28,8.144154609792077e-07,-1.1769830029131543e-06,1.431279683440117e-06
24.29,8.594468533601723e-07,-1.1250055143788714e-06,1.415728187588836e-06
24.3,9.013183492296169e-07,-1.0728230267147425e-06,1.401186644707757e-06
24.31,9.401093456444078e-07,-1.0205313110780399e-06,1.3875481031872802e-06
24.32,9.758971272133586e-07,-9.682203115346347e-07,1.3747093418506731e-06
24.33,1.0087570342826832e-06,-9.159743102426962e-07,1.3625709857616145e-06
24.34,1.0387626393886158e-06,-8.638720898164873e-07,1.3510376784359157e-06
24.35,1.065985931419701e-06,-8.119870967460402e-07,1.3400183025864947e-06
24.36,1.0904975062170321e-06,-7.603876095722167e-07,1.329426240096274e-06
24.37,1.1123667616348912e-06,-7.091369152066605e-07,1.3191796605841498e-06
24.38,1.1316620944151567e-06,-6.582934963227837e-07,1.3092018267772827e-06
24.39,1.1484510956424836e-06,-6.079112321392862e-07,1.2994214040270101e-06
24.4,1.1628007410713383e-06,-5.580396141802878e-07,1.2897727607724307e-06
24.41,1.1747775722960824e-06,-5.087239777478512e-07,1.280196246637785e-06
24.42,1.1844478645906084e-06,-4.600057489230248e-07,1.2706384351874003e-06
24.43,1.191877777308431e-06,-4.119227059554732e-07,1.2610523191855938e-06
24.44,1.1971334830048215e-06,-3.645092529659529e-07,1.251397447507806e-06
24.45,1.200281271925768e-06,-3.177967030164671e-07,1.241639994597418e-06
24.46,1.2013876291801596e-06,-2.718135668525191e-07,1.2317527554960914e-06
24.47,1.2005192827467388e-06,-2.2658584303886537e-07,1.2217150619159846e-06
24.48,1.1977432214163471e-06,-1.8213730482652784e-07,1.2115126174573174e-06
24.49,1.1931266827842224e-06,-1.3848977893199303e-07,1.2011372527901691e-06
24.5,1.1867371124332814e-06,-9.566341148789625e-08,1.1905866042938605e-06
24.51,1.1786420964197377e-06,-5.367691673598916e-08,1.1798637221488745e-06
24.52,1.1689092700439573e-06,-1.2547804545972683e-08,1.1689766161021446e-06
24.53,1.1576062066082791e-06,2.7707416457365172e-08,1.1579377489764946e-06
24.54,1.1448002903999768e-06,6.707306255861396e-08,1.1467634893999996e-06
24.55,1.1305585784653789e-06,1.0553412690012355e-07,1.1354735361435025e-06
24.56,1.1149476558588822e-06,1.4307616028052268e-07,1.1240903268624964e-06
24.57,1.0980334889601193e-06,1.7968518046422962e-07,1.1126384439504124e-06
24.58,1.0798812811767845e-06,2.1534760882864096e-07,1.1011440296637978e-06
24.59,1.060555334917445e-06,2.500502324540125e-07,1.0896342217332197e-06
24.6,1.0401189231645558e-06,2.837801891710392e-07,1.078136619399854e-06
24.61,1.0186341733433588e-06,3.165249726471329e-07,1.0666787883014156e-06
24.62,9.96161965506728e-07,3.4827245431448776e-07,1.05528781095797e-06
24.63,9.727618461771897e-07,3.790109188192405e-07,1.0439898878639865e-06
24.64,9.484919585397425e-07,4.0872910968649514e-07,1.0328099924573113e-06
24.65,9.234089890863753e-07,4.374162820336664e-07,1.0217715815747068e-06
24.66,8.975681302981828e-07,4.650622593977589e-07,1.0108963614748665e-06
24.67,8.710230585230281e-07,4.91657492051279e-07,1.0002041081544127e-06
24.68,8.438259258741856e-07,5.171931145324028e-07,9.89712539527086e-07
24.69,8.160273647336221e-07,5.416610004985586e-07,9.79437236097954e-07
24.7,7.876765032924393e-07,5.650538133899925e-07,9.693916060424582e-07
24.71,7.588209904865461e-07,5.873650517627381e-07,9.595868900913698e-07
24.72,7.295070286788827e-07,6.08589088492099e-07,9.500322013087431e-07
24.73,6.997794124887132e-07,6.287212033551655e-07,9.407345947138418e-07
24.74,6.696815722568582e-07,6.477576087702671e-07,9.316991617148702e-07
24.75,6.392556207588744e-07,6.656954686934364e-07,9.22929144469275e-07
24.76,6.085424019144603e-07,6.825329108561666e-07,9.144260655348866e-07
24.77,5.775815403918312e-07,6.982690326695309e-07,9.061898685080534e-07
24.78,5.464114911561344e-07,7.129039012271434e-07,8.982190657363887e-07
24.79,5.150695881580638e-07,7.264385479116638e-07,8.905108896230995e-07
24.8,4.835920914977542e-07,7.388749581601465e-07,8.830614444959821e-07
24.81,4.520142325279287e-07,7.50216056966941e-07,8.758658564750867e-07
24.82,4.2037025647734814e-07,7.604656907143881e-07,8.689184192342472e-07
24.83,3.8869346227962504e-07,7.696286059166398e-07,8.622127339955683e-07
24.84,3.57016239387434e-07,7.777104254487625e-07,8.55741842519133e-07
24.85,3.2537010143399893e-07,7.84717622814086e-07,8.494983522421694e-07
24.86,2.937857166775737e-07,7.906574949775653e-07,8.434745530767091e-07
24.87,2.622929352317322e-07,7.955381342635583e-07,8.376625256868193e-07
24.88,2.309208131422159e-07,7.993683997866946e-07,8.320542413327409e-07
24.89,1.996976334257613e-07,8.021578888489295e-07,8.266416535829907e-07
24.9,1.6865092423510133e-07,8.039169086994456e-07,8.21416782357304e-07
24.91,1.3780747435768657e-07,8.046564490144913e-07,8.163717908707129e-07
24.92,1.0719334629631052e-07,8.043881554102798e-07,8.114990561020716e-07
24.93,7.683388721308194e-08,8.031243042563657e-07,8.067912334126743e-07
24.94,4.675373804798731e-08,8.008777790052286e-07,8.02241315893047e-07
24.95,1.69768411446992e-08,7.976620482010166e-07,7.978426889277693e-07
24.96,-1.2473553268090919e-08,7.934911452742069e-07,7.935891803444049e-07
24.97,-4.15748813853705e-08,7.883796501696693e-07,7.894751063610921e-07
24.98,-7.030526057158582e-08,7.823426727968565e-07,7.854953133806514e-07
24.99,-9.86434842025259e-08,7.753958382332444e-07,7.816452155070416e-07
25.0,-1.2656901628423006e-07,7.67555273555391e-07,7.779208274920069e-07
25.01,-1.5406198555759786e-07,7.58837596120557e-07,7.7431879266874e-07
25.02,-1.8110317884009444e-07,7.492599030767489e-07,7.708364053056694e-07
25.03,-2.0767403339888023e-07,7.388397618409185e-07,7.674716267232974e-07
25.04,-2.3375662820473532e-07,7.275952012566552e-07,7.642230944700372e-07
25.05,-2.593336739703398e-07,7.155447031247355e-07,7.610901238518474e-07
25.06,-2.843885019372881e-07,7.027071937927715e-07,7.580727011588311e-07
25.07,-3.089050514310823e-07,6.891020354946065e-07,7.551714680272617e-07
25.08,-3.3286785626127816e-07,6.74749017146334e-07,7.523876965181731e-07
25.09,-3.5626203009143154e-07,6.596683443291395e-07,7.497232546712261e-07
25.1,-3.790732509474886e-07,6.438806282249385e-07,7.471805625063056e-07
25.11,-4.012877450680117e-07,6.27406873312013e-07,7.447625386798976e-07
25.12,-4.228922703217279e-07,6.102684636707195e-07,7.424725382456147e-07
25.13,-4.4387409943467635e-07,5.924871478002047e-07,7.40314282218955e-07
25.14,-4.6422100327061876e-07,5.740850218927288e-07,7.382917798805258e-07
25.15,-4.839212344032014e-07,5.550845115571225e-07,7.364092449697569e-07
25.16,-5.029635112037544e-07,5.355083520252195e-07,7.346710071121464e-07
25.17,-5.213370026463268e-07,5.153795669072058e-07,7.330814199757861e-07
25.18,-5.390313140050102e-07,4.947214455909137e-07,7.316447677702147e-07
25.19,-5.560364735880618e-07,4.7355751939697804e-07,7.303651717720846e-07
25.2,-5.723429206236858e-07,4.5191153661445405e-07,7.29246498595151e-07
25.21,-5.879414943808089e-07,4.298074365417748e-07,7.282922719082981e-07
25.22,-6.028234245830701e-07,4.072693226562417e-07,7.275055892588965e-07
25.23,-6.16980323151154e-07,3.8432143502343916e-07,7.26889045573104e-07
25.24,-6.304041772919681e-07,3.609881220450954e-07,7.264446647920321e-07
25.25,-6.430873439430542e-07,3.3729381162654967e-07,7.261738409646125e-07
25.26,-6.550225455766743e-07,3.1326298182941186e-07,7.260772899618889e-07
25.27,-6.662028673698232e-07,2.8892013105778503e-07,7.261550128052701e-07
25.28,-6.766217557549206e-07,2.642897478149497e-07,7.264062714218272e-07
25.29,-6.86273018376741e-07,2.393962800583048e-07,7.268295774510536e-07
25.3,-6.951508254980768e-07,2.1426410417648964e-07,7.274226945381971e-07
25.31,-7.03249712911301e-07,1.8891749361667396e-07,7.281826543555079e-07
25.32,-7.105645864305874e-07,1.633805871970556e-07,7.291057864001124e-07
25.33,-7.17090728054075e-07,1.3767735715622387e-07,7.301877614248584e-07
25.34,-7.228238038954952e-07,1.1183157700959997e-07,7.314236481645965e-07
25.35,-7.277598739911725e-07,8.586678930926776e-08,7.328079828290147e-07
25.36,-7.31895404088917e-07,5.980627343133755e-08,7.343348506425545e-07
25.37,-7.35227279517036e-07,3.367301354355236e-08,7.359979785210867e-07
25.38,-7.377528212188085e-07,7.489666937490336e-09,7.377908377901868e-07
25.39,-7.394698040132228e-07,-1.8721467065034365e-08,7.397067556649873e-07
25.4,-7.403764771173793e-07,-4.493847739541511e-08,7.417390340405173e-07
25.41,-7.404715869261061e-07,-7.113987045979235e-08,7.438810739721115e-07
25.42,-7.39754402008061e-07,-9.730459803371623e-08,7.461265040787701e-07
25.43,-7.382247402299445e-07,-1.234120835643319e-07,7.48469310965559e-07
25.44,-7.358829978786073e-07,-1.4944224662028349e-07,7.50903969653726e-07
25.45,-7.327301806033382e-07,-1.7537552524687307e-07,7.534255719197599e-07
25.46,-7.287679359615617e-07,-2.0119289601163285e-07,7.560299503929871e-07
25.47,-7.239985873148171e-07,-2.2687589156047805e-07,7.58713796240198e-07
25.48,-7.184251687937355e-07,-2.5240661555129216e-07,7.614747682821574e-07
25.49,-7.120514610344005e-07,-2.777677548804582e-07,7.643115914419685e-07
25.5,-7.048820273813691e-07,-3.02942589176538e-07,7.672241425178524e-07
25.51,-6.969222502616809e-07,-3.279149975896736e-07,7.702135214043184e-07
25.52,-6.88178367454652e-07,-3.5266946296372926e-07,7.732821060516499e-07
25.53,-6.786575080181526e-07,-3.771910735285147e-07,7.764335896514281e-07
25.54,-6.683677276814303e-07,-4.0146552229349376e-07,7.796729987606513e-07
25.55,-6.573180435759598e-07,-4.2547910435710284e-07,7.830066913220152e-07
25.56,-6.455184682465948e-07,-4.492187123636218e-07,7.864423337950853e-07
25.57,-6.329800429661107e-07,-4.7267183034174664e-07,7.899888568783716e-07
25.58,-6.197148704571961e-07,-4.958265261388229e-07,7.936563895595324e-07
25.59,-6.057361472118975e-07,-5.186714426291257e-07,7.974561714841086e-07
25.6,-5.910581956760625e-07,-5.411957878085984e-07,8.014004438591309e-07
25.61,-5.75696496639202e-07,-5.633893238102678e-07,8.055023193176054e-07
25.62,-5.59667722226432e-07,-5.852423547643768e-07,8.097756313401109e-07
25.63,-5.429897699311673e-07,-6.06745713306008e-07,8.142347639748125e-07
25.64,-5.25681798141906e-07,-6.278907453863206e-07,8.188944626992521e-07
25.65,-5.077642636090099e-07,-6.486692928859456e-07,8.237696273422278e-07
25.66,-4.892589612546658e-07,-6.69073673358656e-07,8.288750880257169e-07
25.67,-4.7018906665345966e-07,-6.890966560557425e-07,8.342253651068503e-07
25.68,-4.505791813954494e-07,-7.087314332022003e-07,8.398344141054463e-07
25.69,-4.3045538138564487e-07,-7.279715853219024e-07,8.457153566064323e-07
25.7,-4.0984526793363615e-07,-7.468110392435215e-07,8.518801981403151e-07
25.71,-3.887780212363756e-07,-7.652440172758701e-07,8.58339534084842e-07
25.72,-3.672844555625444e-07,-7.832649759229995e-07,8.651022447118789e-07
25.73,-3.4539707510048763e-07,-8.008685324304428e-07,8.721751806404854e-07
25.74,-3.2315012904249323e-07,-8.180493774240101e-07,8.79562840167768e-07
25.75,-3.005796640391349e-07,-8.34802171932926e-07,8.872670402408791e-07
25.76,-2.7772357168499736e-07,-8.511214271965646e-07,8.952865832249409e-07
25.77,-2.5462162818917964e-07,-8.670013658491983e-07,9.036169221114024e-07
25.78,-2.3131552286016296e-07,-8.824357633806324e-07,9.12249827409811e-07
25.79,-2.078488715044058e-07,-8.974177691913956e-07,9.211730596614928e-07
25.8,-1.8426721032921821e-07,-9.11939707120523e-07,9.303700523047684e-07
25.81,-1.6061796547508765e-07,-9.259928560276721e-07,9.39819610482587e-07
25.82,-1.369503929138885e-07,-9.395672118721876e-07,9.494956322935588e-07
25.83,-1.1331548318042576e-07,-9.526512337504831e-07,9.593668599106032e-07
25.84,-8.976582529449663e-08,-9.652315775218745e-07,9.693966688802724e-07
25.85,-6.635542433004691e-08,-9.77292821961937e-07,9.795429047246205e-07
25.86,-4.3139467447555983e-08,-9.88817193793535e-07,9.897577766268776e-07
25.87,-2.0174033873926673e-08,-9.997842994238884e-07,9.999878184344356e-07
25.88,2.4842546643870625e-09,-1.010170872696075e-06,1.0101739273831944e-06
25.89,2.4778645139733496e-08,-1.0199505493679942e-06,1.0202514907663865e-06
25.9,4.665272631970311e-08,-1.029093680271395e-06,1.0301506101767767e-06
25.91,6.80509618064238e-08,-1.0375671960661063e-06,1.0397964318823475e-06
25.92,8.89192784616433e-08,-1.0453345370771378e-06,1.0491095903138114e-06
25.93,1.0920570274579093e-07,-1.0523556617644304e-06,1.0580067695245878e-06
25.94,1.2886103436237888e-07,-1.058587146813612e-06,1.0664013848340249e-06
25.95,1.4783954337618662e-07,-1.0639823905523828e-06,1.074204383714404e-06
25.96,1.6609967383292799e-07,-1.0684919293280697e-06,1.0813251614045728e-06
25.97,1.8360473404560647e-07,-1.0720638735912677e-06,1.0876725828223636e-06
25.98,2.0032355134408845e-07,-1.0746444667464054e-06,1.0931560982457052e-06
25.99,2.1623106743520646e-07,-1.0761787654339e-06,1.0976869361047356e-06
26.0,2.3130884979676782e-07,-1.0766114349413752e-06,1.101179352258673e-06
26.01,2.455454949139912e-07,-1.0758876481199187e-06,1.1035519115336473e-06
26.02,2.5893690078799146e-07,-1.0739540707666773e-06,1.1047287742726751e-06
26.03,2.714863890631644e-07,-1.0707599112370432e-06,1.1046409583927786e-06
26.04,2.832046613093885e-07,-1.0662580074083735e-06,1.1032275461344502e-06
26.05,2.9410957934060337e-07,-1.0604059203554205e-06,1.1004368044484575e-06
26.06,3.042257657413337e-07,-1.0531670015307667e-06,1.0962271888865952e-06
26.07,3.135840277122557e-07,-1.0445113991174213e-06,1.0905682029669093e-06
26.08,3.2222061457154034e-07,-1.0344169696997736e-06,1.0834410882266387e-06
26.09,3.3017632634920275e-07,-1.0228700635547832e-06,1.0748393244564612e-06
26.1,3.374954974661062e-07,-1.0098661556517715e-06,1.064768924762919e-06
26.11,3.4422488509249836e-07,-9.954102997003182e-07,1.0532485159099068e-06
26.12,3.5041249608778065e-07,-9.795173890384263e-07,1.0403092005952483e-06
26.13,3.561063891578576e-07,-9.622122154557931e-07,1.0259942046480543e-06
26.14,3.613534898739466e-07,-9.435293247745522e-07,1.010358318297822e-06
26.15,3.661984554267037e-07,-9.2351267573627e-07,9.934671464132413e-07
26.16,3.7068262351333216e-07,-9.022151160192246e-07,9.75396187683912e-07
26.17,3.7484307576149694e-07,-8.796976956520318e-07,9.562297669398468e-07
26.18,3.7871184085381417e-07,-8.56028843369822e-07,9.360598480246656e-07
26.19,3.8231525637558806e-07,-8.312834353395417e-07,9.149847567732708e-07
26.2,3.856735017494353e-07,-8.055417880432146e-07,8.931078446836815e-07
26.21,3.888003078236545e-07,-7.788886079093628e-07,8.705361238310296e-07
26.22,3.917028421226404e-07,-7.514119296098926e-07,8.473789025501026e-07
26.23,3.9438176275745535e-07,-7.232020729418809e-07,8.237464495238273e-07
26.24,3.968314287934054e-07,-6.943506451165235e-07,7.99748711316216e-07
26.25,3.9904025065800835e-07,-6.649496113378697e-07,7.754941052410329e-07
26.26,4.009911610490941e-07,-6.35090452066063e-07,7.510884059449839e-07
26.27,4.026621847963657e-07,-6.048634205911737e-07,7.26633740363216e-07
26.28,4.0402708520167607e-07,-5.743569097635351e-07,7.022277019383954e-07
26.29,4.050560644390625e-07,-5.436569321546537e-07,6.779625913121399e-07
26.3,4.057164965013137e-07,-5.128467137410376e-07,6.539247872104881e-07
26.31,4.059736727783579e-07,-4.820063975499869e-07,6.301942480444147e-07
26.32,4.057915424706073e-07,-4.512128506577471e-07,6.068441418843598e-07
26.33,4.051334325099222e-07,-4.205395655384293e-07,5.839405999932891e-07
26.34,4.0396273432411175e-07,-3.9005664501752495e-07,5.615425870269683e-07
26.35,4.022435474919484e-07,-3.5983085896463273e-07,5.397018793390781e-07
26.36,3.9994127298001053e-07,-3.2992576030539144e-07,5.184631415500642e-07
26.37,3.970231511326061e-07,-3.004018478750755e-07,4.97864090633201e-07
26.38,3.934587418308811e-07,-2.7131676399144156e-07,4.77935736209302e-07
26.39,3.892203462010296e-07,-2.4272551531079967e-07,4.5870268549436527e-07
26.4,3.8428337090669175e-07,-2.1468070646331123e-07,4.401835013752747e-07
26.41,3.786266373993141e-07,-1.872327770626954e-07,4.2239110236239673e-07
26.42,3.722326395290545e-07,-1.604302338851755e-07,4.053331936508767e-07
26.43,3.6508775365360127e-07,-1.343198712452978e-07,3.8901271917404704e-07
26.44,3.5718240585254656e-07,-1.0894697381927552e-07,3.7342832532494263e-07
26.45,3.4851120108722566e-07,-8.435549733133373e-08,3.585748279136131e-07
26.46,3.3907301917916147e-07,-6.058822360241693e-08,3.4444367489412323e-07
26.47,3.288710823461429e-07,-3.7686887436083636e-08,3.3102339839978616e-07
26.48,3.179129987703033e-07,-1.5692273675605582e-08,3.1830005064441473e-07
26.49,3.0621078630710326e-07,5.3557164996691955e-09,3.0625761925222247e-07
26.5,2.9378088001018927e-07,2.5418030360639397e-08,2.948784185507234e-07
26.51,2.806441266684115e-07,4.445645932783103e-08,2.8414345427871903e-07
26.52,2.6682576904914466e-07,6.243366503421946e-08,2.740327600092234e-07
26.53,2.523554220377613e-07,7.93132349217172e-08,2.645257043570702e-07
26.54,2.3726704236609248e-07,9.505976634907689e-08,2.5560126872043147e-07
26.55,2.2159889314815308e-07,1.0963897807225278e-07,2.4723829589530524e-07
26.56,2.0539350399243305e-07,1.2301784790193595e-07,2.3941571039661006e-07
26.57,1.8869762704464913e-07,1.3516477533779379e-07,2.3211271172513963e-07
26.58,1.7156218893239664e-07,1.4604976800943364e-07,2.2530894213697944e-07
26.59,1.5404223823574156e-07,1.5564465081305434e-07,2.1898463071045553e-07
26.6,1.3619688779230594e-07,1.6392329670704846e-07,2.1312071566982176e-07
26.61,1.1808925086145223e-07,1.7086187821507074e-07,2.076989470271832e-07
26.62,9.978636991424205e-08,1.7643913876988691e-07,2.027019716493191e-07
26.63,8.13591365819585e-08,1.806366831134843e-07,1.9811340285705843e-07
26.64,6.288220108133659e-08,1.8343928604132805e-07,1.9391787662870542e-07
26.65,4.4433869235464486e-08,1.8483521883728285e-07,1.9010109641414646e-07
26.66,2.609598502144577e-08,1.848165927883129e-07,1.866498684813911e-07
26.67,7.953796396421535e-09,1.8337971919100768e-07,1.835521296190501e-07
26.68,-9.904198022261013e-09,1.8052548526286108e-07,1.8079696891224595e-07
26.69,-2.7386424020455065e-08,1.762597453484959e-07,1.7837464520201515e-07
26.7,-4.439843136756886e-08,1.7059372676274857e-07,1.7627660173348034e-07
26.71,-6.084312086581399e-08,1.635444495360879e-07,1.7449547939919262e-07
26.72,-7.66210020049347e-08,1.551351592224669e-07,1.7302512989511193e-07
26.73,-9.163048455061034e-08,1.4539577179268893e-07,1.7186063002960077e-07
26.74,-1.0576820759481557e-07,1.3436332946534193e-07,1.7099829836238727e-07
26.75,-1.1892940980587767e-07,1.220824661203236e-07,1.7043571530285063e-07
26.76,-1.3100834483546376e-07,1.0860588069331976e-07,1.70171747765895e-07
26.77,-1.418987460692958e-07,9.399481666047193e-08,1.7020657947057812e-07
26.78,-1.5149434514800757e-07,7.831954538653342e-08,1.7054174797209308e-07
26.79,-1.5968944893414227e-07,6.165985072312948e-08,1.7118018954332492e-07
26.8,-1.6637957985877538e-07,4.410551180056573e-08,1.721262930675394e-07
26.81,-1.7146218484740896e-07,2.575678045203306e-08,1.7338596417213614e-07
26.82,-1.7483741829518087e-07,6.724849135583307e-09,1.749667009234054e-07
26.83,-1.7640900483621942e-07,-1.2867695429304645e-08,1.7687768251807983e-07
26.84,-1.760851879263061e-07,-3.288643842706755e-08,1.7912987254910849e-07
26.85,-1.7377977052905037e-07,-5.3184729255531635e-08,1.8173613859415415e-07
26.86,-1.694132544587186e-07,-7.360330725152149e-08,1.8471139007829597e-07
26.87,-1.6291408518159893e-07,-9.396996914969294e-08,1.880727366009e-07
26.88,-1.542200091059924e-07,-1.1409928776391637e-07,1.9183966919509995e-07
26.89,-1.4327955058975847e-07,-1.3379239269646077e-07,1.9603426731224092e-07
26.9,-1.3005361605415697e-07,-1.528368253532063e-07,2.0068143469889925e-07
26.91,-1.1451723270094888e-07,-1.7100648219312618e-07,2.0580916776847248e-07
26.92,-9.666142937257967e-08,-1.8806166198563374e-07,2.1144886057188618e-07
26.93,-7.649526705520418e-08,-2.037492349123138e-07,2.1763565105285542e-07
26.94,-5.404802638093064e-08,-2.1780295365484022e-07,2.2440881394554504e-07
26.95,-2.9371559215016132e-08,-2.2994392918362374e-07,2.318122064497997e-07
26.96,-2.5428109869184452e-09,-2.398812968343921e-07,2.3989477372103157e-07
26.97,2.6333480192980875e-08,-2.473131014616093e-07,2.4871112225558865e-07
26.98,5.7121902436382635e-08,-2.519274340279735e-07,2.583221704652362e-07
26.99,8.965330293011902e-08,-2.534038559653639e-07,2.68795887141888e-07
27.0,1.2372153212899914e-07,-2.5141515207029585e-07,2.802081301512805e-07
27.01,1.5907999853656283e-07,-2.456294576227746e-07,2.926435995993271e-07
27.02,1.95438035659509e-07,-2.3571281089611113e-07,3.061969219358571e-07
27.03,2.3245708562807416e-07,-2.2133218831277817e-07,3.2097388404981004e-07
27.04,2.697467075605624e-07,-2.0215908626376616e-07,3.370928394356137e-07
27.05,3.0686042314160393e-07,-1.7787372111235113e-07,3.546863120462907e-07
27.06,3.4329141723218137e-07,-1.4816992722690298e-07,3.739028275898771e-07
27.07,3.784681178119348e-07,-1.1276084210886308e-07,3.9490900687779774e-07
27.08,4.11749687379993e-07,-7.138547789552864e-08,4.1789196153060305e-07
27.09,4.4242146735561205e-07,-2.3816289811700638e-08,4.4306203903910326e-07
27.1,4.696904283156879e-07,3.013213537108593e-08,4.70655972057506e-07
27.11,4.926806924249929e-07,9.059313402994247e-08,5.009404960888444e-07
27.12,5.104292105612073e-07,1.5763661151141527e-07,5.342165106798349e-07
27.13,5.21881695888719e-07,2.312561103206927e-07,5.70823872192064e-07
27.14,5.25888938558057e-07,3.113541135377239e-07,6.111469215455329e-07
27.15,5.212036534667974e-07,3.97725376137774e-07,6.556208684987621e-07
27.16,5.0647804540575e-07,4.900380547962028e-07,7.047391756007858e-07
27.17,4.802623143643082e-07,5.878123826007756e-07,7.590621105926459e-07
27.18,4.410043693910323e-07,6.903966087668578e-07,8.192266665696128e-07
27.19,3.8705107351516744e-07,7.969398948302815e-07,8.859580856233231e-07
27.2,3.166514063931989e-07,9.063618277847742e-07,9.600832651578443e-07
27.21,2.2796200741279977e-07,1.0173181771738607e-06,1.0425463780724673e-06
27.22,1.1905565217133282e-07,1.1281624872028958e-06,1.1344271002782706e-06
27.23,-1.2066677809979345e-08,1.236903056536586e-06,1.2369619137155836e-06
27.24,-1.6745934543133345e-07,1.341154817687169e-06,1.3515690427713246e-06
27.25,-3.492102912060484e-07,1.4380855849747685e-06,1.4798776899448264e-06
27.26,-5.594128334096148e-07,1.5243560952811947e-06,1.6237623666670883e-06
27.27,-8.001297070648067e-07,1.5960532197135485e-06,1.7853832720975062e-06
27.28,-1.0733477613579331e-06,1.6486156775598354e-06,1.9672338623326313e-06
27.29,-1.380921434967171e-06,1.6767515375446367e-06,2.1721969819079703e-06
27.3,-1.7245027714337528e-06,1.6743467467228464e-06,2.4036112075258917e-06
27.31,-2.10545531078927e-06,1.6343638861884812e-06,2.665349391394655e-06
27.32,-2.524748685456674e-06,1.548730317491049e-06,2.9619118016968586e-06
27.33,-2.9828301413351714e-06,1.4082148573159873e-06,3.2985367568700953e-06
27.34,-3.479468478816305e-06,1.2022921046073144e-06,3.681332258826597e-06
27.35,-4.013565038650188e-06,9.189935489579145e-07,4.117432872859174e-06
27.36,-4.58292531422186e-06,5.447446182764729e-07,4.6151870097404195e-06
27.37,-5.183983518227262e-06,6.418688566294358e-08,5.184380876589123e-06
27.38,-5.811470923212845e-06,-5.400152395953105e-07,5.836506724946313e-06
27.39,-6.458016976884436e-06,-1.2873838510106588e-06,6.585084696005862e-06
27.4,-7.113669996792577e-06,-2.199853194896806e-06,7.446049617237626e-06
27.41,-7.765321591457699e-06,-3.302011587259539e-06,8.438216632746245e-06
27.42,-8.39601573289888e-06,-4.621359111593132e-06,9.58384266489128e-06
27.43,-8.984119490903736e-06,-6.1885800227796355e-06,1.0909304548191126e-05
27.44,-9.502327673219975e-06,-8.037828009617039e-06,1.2445919424511247e-05
27.45,-9.916467800084923e-06,-1.0207021467183873e-05,1.4230938860864855e-05
27.46,-1.0184064729060102e-05,-1.2738144646476651e-05,1.630875542278588e-05
27.47,-1.025261552767456e-05,-1.5677548918073528e-05,1.873236945068354e-05
27.48,-1.0057514479218195e-05,-1.9076246333205687e-05,2.1565174974129635e-05
27.49,-9.519554913797577e-06,-2.2990185100690748e-05,2.4883137597996567e-05
27.5,-8.541918268969964e-06,-2.7480493420443926e-05,2.877745447993663e-05
27.51,-7.006540627433749e-06,-3.261367420929421e-05,3.335780803640824e-05
27.52,-4.769721974760011e-06,-3.846172849912486e-05,3.875635182595109e-05
27.53,-1.6568123283251844e-06,-4.5102179551738796e-05,4.513260049463775e-05
27.54,2.5442298622905677e-06,-5.2617962895644574e-05,5.267943740094042e-05
27.55,8.090660049769922e-06,-6.109713944465964e-05,6.16305056636819e-05
27.56,1.529446426472008e-05,-7.0632379551705e-05,7.226931353126937e-05
27.57,2.4533959762299122e-05,-8.132015531868456e-05,8.494046646135806e-05
27.58,3.626796482794759e-05,-9.325956691273501e-05,0.00010006354028072434
27.59,5.105314326084008e-05,-0.00010655071646879326,0.00011815023748103527
27.6,6.95652808241341e-05,-0.00012129253121790884,0.00013982562864292092
27.61,9.262544264944747e-05,-0.0001375799272022222,0.00016585448138345504
27.62,0.00012123220300050967,-0.00015550019865703268,0.00019717393039327843
27.63,0.0001566014456396882,-0.0001751285195370439,0.00023493405698552305
27.64,0.00020021562166215104,-0.0001965224583823599,0.0002805483413000476
27.65,0.0002538848439999302,-0.0002197154442554592,0.0003357564451462439
27.66,0.000319822821472791,-0.00024470919242585185,0.0004027024037580721
27.67,0.00040074142488758223,-0.0002714652222628374,0.00048403208211764376
27.68,0.0004999686764168434,-0.0002998958031050566,0.000583014725472725
27.69,0.0006215962147200896,-0.0003298549849838973,0.0007036946534350469
27.7,0.0007706638775500117,-0.00036113086442193543,0.0008510806738485805
27.71,0.0009533910404613631,-0.00039344097790758927,0.0010313827025546242
27.72,0.0011774668499612115,-0.0004264338145944062,0.0012523074626413094
27.73,0.0014524146040701337,-0.00045970104473700275,0.001523428118635236
27.74,0.0017900493915607484,-0.0004928073775031591,0.0018566464217907904
27.75,0.0022050528464125857,-0.0005253482733419022,0.002266770580313668
27.76,0.0027156946583357434,-0.0005570504253822851,0.0027722378422011117
27.77,0.0033447374532313803,-0.0005879365078527324,0.0033960179575960444
27.78,0.004120569946611094,-0.0006185848567978595,0.004166742601838297
27.79,0.005078622951378861,-0.0006505274114580492,0.005120116892740872
27.8,0.006263133857395638,-0.0006868465970810907,0.006300682817249051
27.81,0.007729337381909352,-0.0007330554155667414,0.00776402129090802
27.82,0.009546173214038924,-0.0007983768000230655,0.009579500433073183
27.83,0.011799613690067367,-0.0008975807611008832,0.011833703328101632
27.84,0.014596725215763481,-0.0010535940677779704,0.014634700115962828
27.85,0.0180705832003909,-0.0013011708640008738,0.018117367988192287
27.86,0.02238615781086023,-0.0016920080828304223,0.022450010086525616
27.87,0.027747271014171165,-0.002301811738370387,0.027842582243979508
27.88,0.034404685692863,-0.0032399745295597707,0.03455690716162093
27.89,0.04266531321509325,-0.004662717106209422,0.04291934159041293
27.9,0.05290240041550264,-0.006790779653687476,0.05333646649363932
27.91,0.06556635860012404,-0.00993303032237137,0.06631449669163755
27.92,0.08119559715599527,-0.014517682374933673,0.08248325950796397
27.93,0.10042628566975503,-0.021133177051667857,0.10262577661445678
27.94,0.1239993448303294,-0.030581179440456692,0.12771470570893687
27.95,0.15276210137783908,-0.04394452201998089,0.15895716603204074
27.96,0.18766086943225374,-0.06267326753297471,0.19784979246723816
27.97,0.22971916444294438,-0.08869227485472103,0.24624624693844552
27.98,0.27999423632059556,-0.12453362734559588,0.30643987454736576
27.99,0.339502046169895,-0.17349686360688096,0.3812647387773621
28.0,0.4090976404058571,-0.23983891537821453,0.47421892066369337
28.01,0.4892940612226201,-0.3289937113117064,0.5896147389867179
28.02,0.5799984938135008,-0.4478181646003033,0.732761462804857
28.03,0.6801394011625465,-0.6048562429116666,0.910187167346895
28.04,0.7871531908722054,-0.8106054309357787,1.1299076557678835
28.05,0.8962939553372706,-1.077759448146231,1.4017518619365545
28.06,0.9997257735003636,-1.421386807001899,1.7377548956397602
28.07,1.0853550915794705,-1.8589858890880673,2.1526319264207783
28.08,1.1353624427906468,-2.410332934446294,2.664348462828394
28.09,1.1244004759922086,-3.097009136074063,3.294805308259916
28.1,1.0174419384605258,-3.941456771666137,4.070659600243081
28.11,0.7672907409152837,-4.965372569731558,5.024306901189148
28.12,0.3118162559531024,-6.18720101655994,6.195053332845244
28.13,-0.42895886884403966,-7.6184444751247,7.630511249694743
28.14,-1.5556876891968043,-9.258466607354963,9.388256925852925
28.15,-3.192080049635532,-11.087439692552676,11.537794155698641
28.16,-5.486294981746287,-13.057088203741428,14.162873472110737
28.17,-8.610583001670784,-15.07892873953292,17.364222745650718
28.18,-12.758152626303824,-17.009824331041482,21.262751049874847
28.19,-18.135935576567736,-18.63488978999203,26.003293574517915
28.2,-24.951608909709886,-19.64814058324636,31.758970631337004
28.21,-33.392935033600715,-19.63181127555201,38.73623786736612
28.22,-43.597259438844944,-18.03602162017367,47.18070693049572
28.23,-55.60894638826432,-14.161472791242286,57.383815052939376
28.24,-69.32275377473789,-7.149128901543833,69.69041709563679
28.25,-84.41180593147335,4.017638705602272,84.50736300099224
28.26,-100.24010875704764,20.491270050248726,102.3131054747971
28.27,-115.76168167740329,43.50971214179434,123.66835486672511
28.28,-129.4115739073975,74.3072562557178,149.22775811973693
28.29,-138.9984655959295,113.9754195971123,179.7525235159735
28.3,-141.61429754937973,163.26329916749836,216.12383978973796
28.31,-133.58329355874335,222.30941552840702,259.3568440403749
28.32,-110.48037875966426,290.30264276646676,310.6147750640231
28.33,-67.25643013166456,365.07936629765624,371.222805186257
28.34,1.4865131281974713,442.6783776854419,442.6808735324975
28.35,101.02524503952965,516.8946551663082,526.6746478375371
28.36,235.8109940947259,578.8977343964604,625.0835238792474
28.37,408.50669662520227,617.0081846333389,739.9843384100527
28.38,618.7716845471826,616.7532628839214,873.6492344615896
28.39,861.8460732843472,561.3443069334409,1028.5358938618688
28.4,1127.0514740397466,432.72554059606057,1207.2681635077265
28.41,1396.4042150864288,213.32626103361957,1412.6049785972473
28.42,1643.6242344057118,-111.40550933967263,1647.3954629769364
28.43,1833.9026720261145,-549.7098729372306,1914.5182043713214
28.44,1924.8420753122705,-1099.6356405301533,2216.803003610517
28.45,1868.9769029312731,-1744.945967342246,2556.933924182348
28.46,1618.1879073886064,-2451.406649642339,2937.333257485332
28.47,1130.1153607293747,-3164.272639734666,3360.0270932136655
28.48,376.34029805538967,-3807.9428161094197,3826.4945460172494
28.49,-648.3470302663779,-4288.774859000751,4337.5043127185645
28.5,-1916.7870103028447,-4501.869511272249,4892.944056433545
28.51,-3362.08189579189,-4342.191310926001,5491.650030245269
28.52,-4874.0316472966115,-3719.676820935359,6131.246215171325
28.53,-6301.409805025897,-2577.043094096515,6808.003866017341
28.54,-7461.692127652627,-907.9831129975728,7516.733515388313
28.55,-8158.906126782141,1227.4622215442632,8250.72194968183
28.56,-8208.835046567645,3694.063100264263,9001.726223924567
28.57,-7469.062304913245,6282.62655353151,9760.035252283424
28.58,-5869.608988646138,8723.797714330562,10514.606803877863
28.59,-3438.633574293152,10715.04535170556,11253.283865048592
28.6,-317.2829237009011,11958.88124797554,11963.089448668901
28.61,3241.3511209033663,12207.601353169035,12630.593330753549
28.62,6892.00764853867,11307.508754904335,13242.338300683672
28.63,10235.296460401923,9234.360778602166,13785.307853715205
28.64,12869.72191024617,6112.202426526227,14247.412415940777
28.65,14449.944419588723,2209.9970946888598,14617.967741370088
28.66,14741.316083933518,-2085.7227724070412,14888.137538650506
28.67,13660.466324230576,-6319.310293289524,15051.31299183937
28.68,11293.687634122462,-10028.23286326522,15103.404739892365
28.69,7888.798314139654,-12808.573319655286,15043.027930777698
28.7,3821.2252057272594,-14372.256823380694,14871.567781175534
28.71,-459.8977755372681,-14585.872486885908,14593.121056430646
28.72,-4495.965614774843,-13484.550772957007,14214.317301850733
28.73,-7882.060041558934,-11259.286716096307,13744.03171758574
28.74,-10318.300280536878,-8221.201458476951,13193.008531043668
28.75,-11641.52455432911,-4750.344272297538,12573.418972355832
28.76,-11833.706457143138,-1238.8963133684847,11898.381091102658
28.77,-11008.113672284433,1961.2989412275865,11181.469499077297
28.78,-9378.116284064517,4578.872906381066,10436.241762733682
28.79,-7215.99321075617,6445.97877706911,9675.80489737699
28.8,-4809.752721020706,7503.191181466425,8912.440695062247
28.81,-2425.01464705109,7788.510532718588,8157.303007531394
28.82,-276.8806384823702,7415.026557877338,7420.194184924857
28.83,1485.9069241391433,6542.814880675204,6709.42217705739
28.84,2784.719535892838,5350.435638926848,6031.734776984293
28.85,3604.828171433193,4010.282523481782,5392.323438342863
28.86,3982.4323535563344,2670.424351442082,4794.886199632595
28.87,3988.414399417962,1443.9140953813094,4241.737537416167
28.88,3711.9082275112232,405.1390059871191,3733.9523702958163
28.89,3245.9699990795793,-408.1654024904837,3271.531786597053
28.9,2676.6865830611205,-989.0717663704006,2853.5791601023584
28.91,2076.169492031791,-1353.649910285596,2478.4769192509634
28.92,1499.191481192074,-1532.7757687147257,2144.0561220354994
28.93,982.7856439246219,-1564.7119198584596,1847.752963480638
28.94,547.9334747743335,-1489.1403232581376,1586.7482456683622
28.95,202.4692722468632,-1342.9102735143242,1358.0875556879578
28.96,-55.54322077613932,-1157.4494250501693,1158.781351646269
28.97,-234.5148854471205,-957.5868761667086,985.8853163035706
28.98,-346.467169329997,-761.4438999257704,836.5621986186727
28.99,-404.7731732819982,-581.0356691524909,708.1269452833026
29.0,-422.54075336161515,-423.26790954600057,598.0772621516743
29.01,-411.58383598870313,-291.0799475753948,504.11188235120017
29.02,-381.878633701204,-184.56009875503707,424.1387991329812
29.03,-341.3840318602846,-101.92761774223247,356.2755906146119
29.04,-296.10984144719276,-40.33056153689718,298.84375917151607
29.05,-250.33357439882815,3.551286492481411,250.3587627926079
29.06,-206.888602810038,33.08389661847176,209.51715487795119
29.07,-167.46900360181758,51.40878400732198,175.18199176997922
29.08,-132.91612322447952,61.29215156994472,146.3674268992186
29.09,-103.4675912557282,65.06125521860154,122.22319489721437
29.1,-78.96094076294006,64.59991273901628,102.01950250837851
29.11,-58.99158416405797,61.380512765064594,85.13268672776275
29.12,-43.0293796062485,56.51548032209887,71.03187330583488
29.13,-30.500208738489064,50.816208853102594,59.26676822042474
29.14,-20.83960798340016,44.85164166036945,49.45663778030189
29.15,-13.525153653446722,39.001896578298044,41.280476233367274
29.16,-8.09344704116449,33.50464406431522,34.46831964115146
29.17,-4.1464898588691925,28.493511839255188,28.79363810086319
29.18,-1.3511792558237976,24.028762628175336,24.066722228474823
29.19,0.5653051427642165,20.121032016474487,20.128971640708002
29.2,1.8222524947757295,16.7491549754793,16.847990875690176
29.21,2.5929781898019617,13.8731584378985,14.11340004874173
29.22,3.0123387859185704,11.443432422091602,11.833272183133735
29.23,3.1837068396377193,9.406969032722298,9.931115527641003
29.24,3.185152203340143,7.7114137584134115,8.343326477604135
29.25,3.0747381467810286,6.3075292414726265,7.017046373176017
29.26,2.894941588666077,5.150540469305828,5.908363049757993
29.27,2.6762644829392475,4.200717764080794,4.980805287913394
29.28,2.4401317984125273,3.4234614343157785,4.204085083091374
29.29,2.2011808934316255,2.78907846802856,3.5530488353566136
29.3,1.969044860611947,2.272384931229717,3.006804107151347
29.31,1.7497237573954791,1.8522250708131445,2.5479935125786546
29.32,1.5466259753784164,1.5109667929232526,2.162191609694205
29.33,1.361349505404034,1.2340107315676865,1.8374044088028159
29.34,1.1942608120829215,1.0093344290092094,1.5636543341993159
29.35,1.0449181275109016,0.8270824917443895,1.3326362374447862
29.36,0.9123765071214779,0.6792065941848973,1.1374324104453133
29.37,0.7954040184111003,0.5591548202759804,0.9722765375871157
29.38,0.6926318755211459,0.461607265635886,0.8323582057478497
29.39,0.6026560390906623,0.38225348299545137,0.7136610026578444
29.4,0.5241035940668958,0.3176068184449505,0.6128284167991569
29.41,0.45567391955515113,0.26485065600875113,0.5270527401987586
29.42,0.3961621084740624,0.22171185649649575,0.4539829991329384
29.43,0.34447013456840314,0.18635710398289915,0.3916486228936173
29.44,0.29960977584492776,0.15730836849268148,0.33839612967597177
29.45,0.260700183662632,0.13337419924269237,0.2928365803402291
29.46,0.22696215183632096,0.11359404516168903,0.25380194140780143
29.47,0.19771052335107892,0.09719324003683125,0.22030882177664746
29.48,0.1723457209640433,0.08354668038621246,0.19152831471657608
29.49,0.15034506107584375,0.07214956328998189,0.16676089731359173
29.5,0.1312542761659879,0.06259384097829693,0.14541552166214494
29.51,0.11467950565886312,0.054549293101424104,0.12699218242091243
29.52,0.10027990002048091,0.04774832135300356,0.11106736937619142
29.53,0.08776090443678997,0.041973739783048594,0.09728191599130055
29.54,0.07686823633185967,0.03704897283339482,0.08533083935354356
29.55,0.06738253765637832,0.032830186558595244,0.0749548366050211
29.56,0.059114662733978925,0.029199970841198627,0.0659331604526806
29.57,0.05190155142505792,0.026062265309495833,0.05807764383470185
29.58,0.0456026325165886,0.023338282224802054,0.051227683040008125
29.59,0.040096701465373454,0.0209632284430955,0.04524602098705134
29.6,0.03527921842170029,0.018883667857260807,0.04001519916468469
29.61,0.03105997579887997,0.017055397298249425,0.03543456890704532
29.62,0.027361088815570398,0.015441734200249824,0.03141777102667687
29.63,0.024115266940612178,0.01401213462941302,0.02789060803370515
29.64,0.021264328699223012,0.012741076523195578,0.024789245773087266
29.65,0.01875792665710313,0.01160715598686065,0.022058691769381415
29.66,0.016552453469405967,0.010592354889511608,0.01965150625174086
29.67,0.014610103604516917,0.009681446313621521,0.017526709048142894
29.68,0.012898068705042764,0.008861511056336558,0.015648851540019753
29.69,0.011387847531798305,0.008121543692614025,0.013987227865396466
29.7,0.010054654067092987,0.007452130957341572,0.01251520372244408
29.71,0.008876909656021224,0.006845188600449896,0.011209644598152612
29.72,0.007835807068142343,0.006293745586944409,0.010050428146220028
29.73,0.0069149360973045715,0.005791766689569182,0.009020027861165892
29.74,0.006099961814848818,0.005334006264691335,0.008103157222612683
29.75,0.00537834787954745,0.004915887399107544,0.007286465181014514
29.76,0.004739118413111127,0.00453340173629204,0.006558275279073348
29.77,0.004172652896867818,0.0041830261905695535,0.005908361897237696
29.78,0.003670509354938708,0.003861653481044273,0.005327758115038062
29.79,0.0032252717808946845,0.0035665339990571796,0.0048085905239546416
29.8,0.00283041835522798,0.003295226991661888,0.00434393703823945
29.81,0.0024802075045366025,0.0030455594215263067,0.003927704349312373
29.82,0.002169579282707681,0.00281559116872485,0.003554522175110987
29.83,0.0018940699204723426,0.0026035854864171677,0.003219651883157592
29.84,0.0016497377017857479,0.0024079838218705953,0.002918907427631757
29.85,0.0014330985915717725,0.0022273842758307027,0.0026485868468643543
29.86,0.0012410702662787574,0.0020605231042643184,0.002405412827156347
29.87,0.0010709233922268984,0.001906258772855309,0.0021864810589407343
29.88,0.0009202391618649662,0.0017635581610813654,0.001989215298188364
29.89,0.0007868722389929253,0.0016314845830560085,0.001811328204729109
29.9,0.0006689183843467155,0.0015091873496450086,0.0016507871641267221
29.91,0.0005646861357299429,0.0013958926431427282,0.00150578441453802
29.92,0.00047267200471722736,0.0012908955140250792,0.001374710897670298
29.93,0.00039153872703423417,0.0011935528405962609,0.001256133336100508
29.94,0.0003200961679543034,0.0011032771180197814,0.0011487741100342853
29.95,0.00025728453900746766,0.0010195309643400332,0.0010514935669134657
29.96,0.0002021596293570306,0.00094182224850298,0.000963274448699321
29.97,0.00015387979552763205,0.0008696997597777673,0.000883208165513166
29.98,0.00011169448773418623,0.0008027493499149275,0.000810482681726785
29.99,7.493412073796341e-05,0.0007405904893205863,0.0007443718125526229
30.0,4.300112263433747e-05,0.0006828731868264548,0.0006842257564827061
30.01,1.5362016890134226e-05,0.0006292752296116202,0.0006294627122917528
30.02,-8.459588193447599e-06,0.0005794997057026166,0.0005795614493233844
30.03,-2.8889212163654623e-05,0.0005332727764535393,0.000534054716940037
30.04,-4.630701279124231e-05,0.0004903416706347558,0.0004925233937535673
30.05,-6.105267756759351e-05,0.00045047287536694385,0.00045459128992924474
30.06,-7.34297692676675e-05,0.0004134505022310657,0.00041992052677836946
30.07,-8.370958943644691e-05,0.0003790748095458516,0.00038820742728062555
30.08,-9.213461577136697e-05,0.0003471608641013035,0.0003591788593262431
30.09,-9.892156251989667e-05,0.0003175373276262838,0.0003325889805261439
30.1,-0.00010426410704598,0.000290045354995951,0.0003082163395617157
30.11,-0.00010833532052030891,0.00026453759268768644,0.000285861294367101
30.12,-0.00011128983615080467,0.00024087726730646428,0.0002653437120707834
30.13,-0.00011326578440398313,0.00021893735514665326,0.000246500919664129
30.14,-0.00011438652119821519,0.00019859982476021814,0.00022918587789525578
30.15,-0.00011476217200945308,0.00017975494538229007,0.00021326555397840826
30.16,-0.0001144910121655375,0.00016230065483666394,0.00019861947141984641
30.17,-0.0001136607012655193,0.000146141981224913,0.00018513841764612886
30.18,-0.00011234938760515344,0.00013119051330093948,0.00017272329222029373
30.19,-0.00011062669668342207,0.00011736391496266201,0.00016128408028831867
30.2,-0.00010855461627458813,0.00010458547976017555,0.00015073893754166228
30.21,-0.00010618828914987191,9.278372173522127e-05,0.00014101337444234069
30.22,-0.00010357672329891943,8.189199927554764e-05,0.00013203952875819882
30.23,-0.00010076342841153797,7.184816899682276e-05,0.00012375551661822248
30.24,-9.778698641893025e-05,6.259426695830619e-05,0.0001161048533393146
30.25,-9.468156304260841e-05,5.407621478141525e-05,0.00010903593621039433
30.26,-9.147736654700501e-05,4.624354847628381e-05,0.00010250158226121937
30.27,-8.820105922427672e-05,3.904916799311281e-05,9.645861480053876e-05
30.28,-8.487612654809159e-05,3.2449105706091464e-05,9.086749319164008e-05
30.29,-8.152320840723114e-05,2.640231220924082e-05,8.569198094922925e-05
30.3,-7.816039636205408e-05,2.087045795837288e-05,8.089884779689761e-05
30.31,-7.480350045006969e-05,1.5817749432966376e-05,7.645760182419851e-05
30.32,-7.146628869550341e-05,1.121075861728078e-05,7.234024833164437e-05
30.33,-6.81607021460272e-05,7.018264713437364e-06,6.852107235462181e-05
30.34,-6.489704796353086e-05,3.211107100967532e-06,6.497644221711981e-05
30.35,-6.168417283110716e-05,-2.3795135115682472e-07,6.168463178704576e-05
30.36,-5.8529618701388504e-05,-3.3543514316608006e-06,5.8625659389528495e-05
30.37,-5.5439762699552416e-05,-6.161855931220648e-06,5.578114158655955e-05
30.38,-5.241994280459999e-05,-8.682659855642028e-06,5.3134160253139524e-05
30.39,-4.9474570762695917e-05,-1.0937493120555078e-05,5.0669141574682274e-05
30.4,-4.6607233534716206e-05,-1.2945716287080165e-05,4.837174576077597e-05
30.41,-4.382078444408841e-05,-1.4725409850521482e-05,4.622876641833628e-05
30.42,-4.1117425069758986e-05,-1.6293457551380107e-05,4.422803865587836e-05
30.43,-3.849877882056652e-05,-1.766562413985845e-05,4.2358355101746466e-05
30.44,-3.596595703032525e-05,-1.8856627990587724e-05,4.060938911486627e-05
30.45,-3.35196183266066e-05,-1.9880208933274903e-05,3.897162454904908e-05
30.46,-3.116002194890006e-05,-2.074919163695868e-05,3.7436291502273165e-05
30.47,-2.8887075623174013e-05,-2.147554486008678e-05,3.599530754274193e-05
30.48,-2.6700378538538346e-05,-2.207043685532768e-05,3.464122395479475e-05
30.49,-2.459925991711213e-05,-2.2544287196802625e-05,3.33671765913983e-05
30.5,-2.2582813619533873e-05,-2.290681527765105e-05,3.216684095678393e-05
30.51,-2.064992918519949e-05,-2.3167085707657846e-05,3.103439117398178e-05
30.52,-1.8799319667537765e-05,-2.3333550823599008e-05,2.996446251811886e-05
30.53,-1.7029546590029686e-05,-2.341409050893762e-05,2.8952117218309173e-05
30.54,-1.5339042317631333e-05,-2.3416049504448217e-05,2.7992813249419114e-05
30.55,-1.3726130110192142e-05,-2.3346272377016215e-05,2.7082375850426302e-05
30.56,-1.2189042099295868e-05,-2.32111363003067e-05,2.6216971519415098e-05
30.57,-1.072593540675692e-05,-2.3016581788166746e-05,2.5393084246725345e-05
30.58,-9.33490660199498e-06,-2.2768141509429764e-05,2.4607493758231214e-05
30.59,-8.014004675969898e-06,-2.2470967301352935e-05,2.385725555056449e-05
30.6,-6.761242691241938e-06,-2.2129855488277126e-05,2.3139682509963307e-05
30.61,-5.5746082507767004e-06,-2.1749270602232385e-05,2.2452327916694017e-05
30.62,-4.452072912177639e-06,-2.1333367593282023e-05,2.1792969648155833e-05
30.63,-3.391600659033005e-06,-2.0886012609547493e-05,2.1159595406257892e-05
30.64,-2.3911555269467943e-06,-2.0410802419910685e-05,2.0550388808455187e-05
30.65,-1.4487084685807919e-06,-1.9911082546777478e-05,1.9963716197429885e-05
30.66,-5.622435297857139e-07,-1.9389964171659626e-05,1.93981140414482e-05
30.67,2.7023660241664584e-07,-1.8850339872987248e-05,1.8852276816035207e-05
30.68,1.0507056293924386e-06,-1.8294898253234104e-05,1.8325045277319927e-05
30.69,1.781109206290141e-06,-1.7726137511184855e-05,1.7815395057931394e-05
30.7,2.4633610092587024e-06,-1.7146378014744725e-05,1.732242553704467e-05
30.71,3.0993392766761782e-06,-1.6557773929939254e-05,1.6845348956519824e-05
30.72,3.6908838014352065e-06,-1.596232396252588e-05,1.6383479774465638e-05
30.73,4.239793354714357e-06,-1.53618812695399e-05,1.5936224265180284e-05
30.74,4.74782352378045e-06,-1.4758162599108384e-05,1.5503070389915817e-05
30.75,5.216684947152694e-06,-1.415275671749798e-05,1.5083577975484917e-05
30.76,5.648041930275176e-06,-1.3547132182651461e-05,1.467736924725877e-05
30.77,6.043511423712073e-06,-1.294264452307577e-05,1.4284119769143688e-05
30.78,6.404662344192262e-06,-1.234054287981706e-05,1.3903549845694727e-05
30.79,6.733015216712836e-06,-1.1741976167364286e-05,1.3535416440709814e-05
30.8,7.030042113712158e-06,-1.1147998806594148e-05,1.3179505662671534e-05
30.81,7.297166865184617e-06,-1.0559576079433585e-05,1.2835625860693132e-05
30.82,7.535765511837245e-06,-9.977589150823138e-06,1.2503601365687379e-05
30.83,7.747166972015331e-06,-9.402839798994898e-06,1.2183266900870539e-05
30.84,7.932653892406614e-06,-8.836054890154105e-06,1.1874462674097302e-05
30.85,8.093463652406154e-06,-8.277890628653017e-06,1.1577030152537437e-05
30.86,8.230789492582655e-06,-7.728936608704103e-06,1.1290808508365357e-05
30.87,8.345781738860045e-06,-7.189719688886885e-06,1.1015631713045672e-05
30.88,8.439549095773634e-06,-6.660707706252117e-06,1.075132624786821e-05
30.89,8.513159984346757e-06,-6.142313042797499e-06,1.0497709389900405e-05
30.9,8.567643902688214e-06,-5.63489605361681e-06,1.025458802577348e-05
30.91,8.603992790181503e-06,-5.138768363119289e-06,1.0021757940765232e-05
30.92,8.623162379025025e-06,-4.654196033381494e-06,9.799003527511181e-06
30.93,8.6260735197444e-06,-4.1814026069345076e-06,9.586097857278229e-06
30.94,8.613613470108077e-06,-3.720572025053128e-06,9.382803056977976e-06
30.95,8.586637139445058e-06,-3.2718514218358727e-06,9.188870936685673e-06
30.96,8.54596828275728e-06,-2.8353537939915596e-06,9.004043815252998e-06
30.97,8.492400641091098e-06,-2.411160546206318e-06,8.828055495316419e-06
30.98,8.426699026437065e-06,-1.9993239121368504e-06,8.660632343414513e-06
30.99,8.349600350910402e-06,-1.5998692514855035e-06,8.501494435790212e-06
31.0,8.261814601167886e-06,-1.2127972240812679e-06,8.350356735541909e-06
31.01,8.164025759953334e-06,-8.380858424464782e-07,8.206930271940346e-06
31.02,8.056892677328867e-06,-4.7569240491141675e-07,8.07092329774518e-06
31.03,7.941049894635714e-06,-1.255553118671722e-07,7.942042405164552e-06
31.04,7.817108424509086e-06,2.124042317390906e-07,7.819993585559493e-06
31.05,7.685656490408734e-06,5.382806241223345e-07,7.704483222051133e-06
31.06,7.547260229163166e-06,8.521823806884006e-07,7.59521900781431e-06
31.07,7.4024643599605056e-06,1.1542307501626583e-06,7.49191078598154e-06
31.08,7.251792823096929e-06,1.444558428400928e-06,7.394271309749479e-06
31.09,7.095749391637571e-06,1.7233083652922355e-06,7.302016923481563e-06
31.1,6.934818258953878e-06,1.9906326600742555e-06,7.214868167338499e-06
31.11,6.769464604909353e-06,2.246691540321133e-06,7.132550309284266e-06
31.12,6.600135143260612e-06,2.4916524198467285e-06,7.054793809221631e-06
31.13,6.4272586526431206e-06,2.725689030771452e-06,6.981334720556212e-06
31.14,6.251246493309365e-06,2.948980625023457e-06,6.911915034697429e-06
31.15,6.072493111582068e-06,3.1617112405811356e-06,6.846282973923059e-06
31.16,5.891376533788588e-06,3.3640690277962996e-06,6.78419323771465e-06
31.17,5.708258851224389e-06,3.5562456311810355e-06,6.725407207141868e-06
31.18,5.523486697457876e-06,3.7384356220799725e-06,6.669693111188143e-06
31.19,5.337391719054959e-06,3.910835977700414e-06,6.616826158145037e-06
31.2,5.1502910405211245e-06,4.073645602029992e-06,6.56658863436796e-06
31.21,4.962487723960003e-06,4.22706488424153e-06,6.518769971861378e-06
31.22,4.774271223637293e-06,4.371295290299503e-06,6.473166785418536e-06
31.23,4.58591783527426e-06,4.506538983602303e-06,6.429582879364247e-06
31.24,4.397691139548295e-06,4.632998470697236e-06,6.387829223479954e-06
31.25,4.209842438891908e-06,4.750876268326285e-06,6.347723897369927e-06
31.26,4.022611186309914e-06,4.860374588365874e-06,6.309092002456328e-06
31.27,3.8362254045801355e-06,4.961695037602377e-06,6.271765540971225e-06
31.28,3.650902093867731e-06,5.05503832969988e-06,6.23558326171199e-06
31.29,3.4668476255035766e-06,5.140604007243695e-06,6.200390473006496e-06
31.3,3.2842581194603364e-06,5.218590172304181e-06,6.166038824213722e-06
31.31,3.1033198029257825e-06,5.2891932245910106e-06,6.132386058158013e-06
31.32,2.924209347323722e-06,5.3526076069356665e-06,6.099295738099686e-06
31.33,2.747094181231184e-06,5.409025558535394e-06,6.0666369541487615e-06
31.34,2.5721327767964606e-06,5.458636877085102e-06,6.03428401530323e-06
31.35,2.3994749076326944e-06,5.501628691597406e-06,6.002116134545109e-06
31.36,2.229261876569405e-06,5.5381852483503595e-06,5.970017115500699e-06
31.37,2.061626712260677e-06,5.568487712957499e-06,5.937875050054979e-06
31.38,1.8966943343278934e-06,5.592713992009338e-06,5.9055820368773604e-06
31.39,1.734581687519347e-06,5.611038578083773e-06,5.873033931063385e-06
31.4,1.5753978462616025e-06,5.623632422087947e-06,5.840130134916896e-06
31.41,1.4192440919133648e-06,5.630662836917919e-06,5.806773439310298e-06
31.42,1.2662139659962124e-06,5.632293436238348e-06,5.772869924013309e-06
31.43,1.1163933036412098e-06,5.6286841118000926e-06,5.738328923898118e-06
31.44,9.698602523814524e-07,5.619991052131463e-06,5.703063066036279e-06
31.45,8.266852822377831e-07,5.6063668046518805e-06,5.666988380451393e-06
31.46,6.869311936994762e-07,5.587960382267249e-06,5.630024484730571e-06
31.47,5.506531307004172e-07,5.564917414374008e-06,5.592094839964113e-06
31.48,4.178986059253329e-07,5.5373803409109195e-06,5.553127072626834e-06
31.49,2.8870754580170947e-07,5.505488646737932e-06,5.513053354209727e-06
31.5,1.6311236222728088e-07,5.469379132212162e-06,5.47181082774151e-06
31.51,4.113805749562992e-08,5.429186214459048e-06,5.42934206797165e-06
31.52,-7.719763200506658e-08,5.38504225256016e-06,5.385595560032836e-06
31.53,-1.918840489405414e-07,5.337077888746732e-06,5.3405261799552195e-06
31.54,-3.0291738206865927e-07,5.285422396819875e-06,5.294095659615953e-06
31.55,-4.103003858711242e-07,5.230204028415819e-06,5.246273018582149e-06
31.56,-5.140420532579471e-07,5.171550347490177e-06,5.19703494592286e-06
31.57,-6.14157243683577e-07,5.1095885435326344e-06,5.1463661164134985e-06
31.58,-7.106662708273114e-07,5.044445714551127e-06,5.094259427585606e-06
31.59,-8.035944557133399e-07,4.976249111789429e-06,5.040716146723429e-06
31.6,-8.929716526246372e-07,4.905126339421409e-06,4.985745960042172e-06
31.61,-9.788317563816085e-07,4.8312055040714244e-06,4.929366919785048e-06
31.62,-1.061212200392849e-06,4.754615310822535e-06,4.871605288626194e-06
31.63,-1.14015345531044e-06,4.675485104371987e-06,4.8124952844507455e-06
31.64,-1.2156985381133479e-06,4.5939448560006525e-06,4.752078732044092e-06
31.65,-1.2878925409922638e-06,4.510125099008622e-06,4.690404631356557e-06
31.66,-1.35678218853654e-06,4.424156817058942e-06,4.627528654590819e-06
31.67,-1.4224154305059199e-06,4.336171291444157e-06,4.563512586340245e-06
31.68,-1.4848410759364843e-06,4.246299914502662e-06,4.49842372222688e-06
31.69,-1.5441084726204548e-06,4.154673977272289e-06,4.432334241981511e-06
31.7,-1.6002672341589672e-06,4.061424439885355e-06,4.365320572606421e-06
31.71,-1.6533670149669441e-06,3.966681693228395e-06,4.2974627562753805e-06
31.72,-1.703457331860159e-06,3.87057532000447e-06,4.2288438360024406e-06
31.73,-1.750587429301332e-06,3.773233862582963e-06,4.159549269977528e-06
31.74,-1.794806184075247e-06,3.674784603986732e-06,4.089666382981951e-06
31.75,-1.8361620441617433e-06,3.5753533671043096e-06,4.019283860600587e-06
31.76,-1.8747029959150675e-06,3.475064335811052e-06,3.94849128920387e-06
31.77,-1.91047655333941e-06,3.374039900230398e-06,3.877378742037768e-06
31.78,-1.9435297632844004e-06,3.272400526949379e-06,3.806036409383243e-06
31.79,-1.973909220706604e-06,3.1702646536704486e-06,3.7345542687050036e-06
31.8,-2.001661088754872e-06,3.067748606645247e-06,3.6630217891529382e-06
31.81,-2.026831119236413e-06,2.96496653828845e-06,3.5915276636934493e-06
31.82,-2.0494646699812543e-06,2.8620303816922896e-06,3.5201595616152237e-06
31.83,-2.0696067166515804e-06,2.7590498183317653e-06,3.449003894118689e-06
31.84,-2.0873018575966997e-06,2.656132255099224e-06,3.378145586161899e-06
31.85,-2.1025943113436402e-06,2.5533828068869465e-06,3.30766784859068e-06
31.86,-2.1155279072258e-06,2.450904281248411e-06,3.2376519457923455e-06
31.87,-2.1261460704034773e-06,2.3487971621494407e-06,3.1681769555397967e-06
31.88,-2.134491803112692e-06,2.2471595904429436e-06,3.099319519261441e-06
31.89,-2.140607664384804e-06,2.146087339398215e-06,3.0311535825735182e-06
31.9,-2.1445357506706966e-06,2.0456737843567427e-06,2.9637501274414426e-06
31.91,-2.14631767981982e-06,1.946009866302206e-06,2.897176898715828e-06
31.92,-2.1459945807142213e-06,1.8471840498075063e-06,2.8314981289624872e-06
31.93,-2.143607090551696e-06,1.7492822763863377e-06,2.7667742663872808e-06
31.94,-2.139195361365895e-06,1.6523879147467166e-06,2.703061711261947e-06
31.95,-2.1327990768901903e-06,1.5565817097675278e-06,2.640412566544563e-06
31.96,-2.1244574803388797e-06,1.461941732206568e-06,2.5788744083679146e-06
31.97,-2.1142094131598963e-06,1.368543331204819e-06,2.5184900817908925e-06
31.98,-2.1020933643089225e-06,1.2764590915764973e-06,2.4592975266811255e-06
31.99,-2.0881475291452936e-06,1.1857587976910407e-06,2.4013296378834156e-06
32.0,-2.0724098766797428e-06,1.0965094054820449e-06,2.3446141629851026e-06
32.01,-2.0549182236152857e-06,1.008775023783877e-06,2.2891736400623617e-06
32.02,-2.035710313429639e-06,9.226169058154879e-07,2.235025376835875e-06
32.03,-2.014823898650768e-06,8.380934512432918e-07,2.1821814717367512e-06
32.04,-1.9922968244701976e-06,7.552602188642818e-07,2.1306488765146066e-06
32.05,-1.968167111913673e-06,6.74169949587392e-07,2.0804294992489595e-06
32.06,-1.942473038931959e-06,5.94872599067615e-07,2.0315203459722028e-06
32.07,-1.9152532179821437e-06,5.17415379073603e-07,1.983913698600027e-06
32.08,-1.8865466689044638e-06,4.418428064515271e-07,1.937597326476141e-06
32.09,-1.8563928861789028e-06,3.681967583960165e-07,1.892554728600727e-06
32.1,-1.8248318999237623e-06,2.9651653264186704e-07,1.8487654034812862e-06
32.11,-1.7919043302854319e-06,2.2683891115923338e-07,1.8062051435292695e-06
32.12,-1.7576514351396565e-06,1.5919822595611196e-07,1.7648463509881156e-06
32.13,-1.7221151512837393e-06,9.362642566186081e-08,1.7246583725083737e-06
32.14,-1.6853381295196699e-06,3.0153141679222877e-08,1.6856078496394074e-06
32.15,-1.6473637642259005e-06,-3.1194247156314316e-08,1.6476590826806915e-06
32.160000000000004,-1.6082362181731911e-06,-9.039055229688965e-08,1.610774405492136e-06
32.17,-1.5680004434535187e-06,-1.4741271626802087e-07,1.5749145689807899e-06
32.18,-1.5267021994695834e-06,-2.0223975699799574e-07,1.540039131053452e-06
32.19,-1.4843880689633814e-06,-2.548527159500676e-07,1.5061068508269798e-06
32.2,-1.4411054730526917e-06,-3.052346101030268e-07,1.4730760848195075e-06
32.21,-1.396902686196349e-06,-3.5337038761850835e-07,1.440905182705729e-06
32.22,-1.3518288519146722e-06,-3.9924688684310866e-07,1.409552880002327e-06
32.230000000000004,-1.3059339999684054e-06,-4.428527981233533e-07,1.3789786847805743e-06
32.24,-1.2592690655385777e-06,-4.841786277734826e-07,1.349143255186422e-06
32.25,-1.2118859107629922e-06,-5.23216663430647e-07,1.3200087642123237e-06
32.26,-1.1638373487783101e-06,-5.599609399682931e-07,1.2915392478362786e-06
32.27,-1.1151771701947432e-06,-5.944072051217311e-07,1.2637009323507609e-06
32.28,-1.0659601717065262e-06,-6.265528840099685e-07,1.236462536482936e-06
32.29,-1.0162421863212549e-06,-6.563970418200103e-07,1.2097955437879014e-06
32.3,-9.66080114492748e-07,-6.839403440517457e-07,1.1836744408155231e-06
32.31,-9.15531955264628e-07,-7.091850139008336e-07,1.1580769167253953e-06
32.32,-8.646568364031444e-07,-7.321347865754264e-07,1.1329840203871098e-06
32.33,-8.135150424099806e-07,-7.527948605984913e-07,1.108380271554314e-06
32.34,-7.621680392798279e-07,-7.711718464175302e-07,1.084253723446076e-06
32.35,-7.106784949041243e-07,-7.872737129305775e-07,1.0605959750021159e-06
32.36,-6.591102941199644e-07,-8.011097328090296e-07,1.0374021321629625e-06
32.37,-6.075285475677999e-07,-8.12690427754202e-07,1.0146707187423654e-06
32.38,-5.559995937405764e-07,-8.220275150398781e-07,9.924035387493956e-07
32.39,-5.045909938722689e-07,-8.291338568590803e-07,9.706054933323929e-07
32.4,-4.533715196177405e-07,-8.340234140987307e-07,9.492843568001118e-07
32.410000000000004,-4.024111337914499e-07,-8.367112062008469e-07,9.284505173574929e-07
32.42,-3.5178096475629417e-07,-8.372132787352398e-07,9.081166892285812e-07
32.43,-3.0155327535567127e-07,-8.355466802026744e-07,8.882976036641343e-07
32.44,-2.518014275531413e-07,-8.317294494204158e-07,8.690096869143566e-07
32.45,-2.0259984416684915e-07,-8.257806146205389e-07,8.502707335546169e-07
32.46,-1.540239692511849e-07,-8.177202051332017e-07,8.320995835757734e-07
32.47,-1.0615022877399986e-07,-8.07569276241989e-07,8.145158113866069e-07
32.480000000000004,-5.905599327098437e-08,-7.953499475136656e-07,7.975394343549499e-07
32.49,-1.2819544119436122e-08,-7.810854546250739e-07,7.811906477539835e-07
32.5,3.2479955022725106e-08,-7.648002144608175e-07,7.654895920374036e-07
32.51,7.67624802131214e-08,-7.465199030453447e-07,7.504561572878864e-07
32.52,1.1994716144773358e-07,-7.262715457102896e-07,7.361098285227429e-07
32.53,1.6195228811021384e-07,-7.040836187938763e-07,7.224695743614495e-07
32.54,2.0269530487637234e-07,-6.799861621213352e-07,7.095537804109201e-07
32.55,2.420927975222532e-07,-6.540109015241084e-07,6.973802276552783e-07
32.56,2.800604682965006e-07,-6.261913807206234e-07,6.859661151917462e-07
32.57,3.1651310070355334e-07,-5.965631019905966e-07,6.753281258570686e-07
32.58,3.5136451370092633e-07,-5.651636752263862e-07,6.654825326660984e-07
32.59,3.8452750543299156e-07,-5.320329751267805e-07,6.564453435410848e-07
32.6,4.159137867091002e-07,-4.972133065037697e-07,6.48232481552039e-07
32.61,4.4543390447503727e-07,-4.607495778934276e-07,6.408599978036141e-07
32.62,4.729971555342809e-07,-4.2268948389235674e-07,6.343443141833208e-07
32.63,4.985114907482e-07,-3.8308369687215385e-07,6.287024934078352e-07
32.64,5.218834098830966e-07,-3.4198606895713536e-07,6.239525341498044e-07
32.65,5.430178471862482e-07,-2.994538453787308e-07,6.201136894754834e-07
32.660000000000004,5.618180476615581e-07,-2.5554789054412116e-07,6.172068073504981e-07
32.67,5.7818543388434e-07,-2.1033292837774584e-07,6.152546925590901e-07
32.68,5.920194630465456e-07,-1.6387779871270182e-07,6.142824900132194e-07
32.69,6.032174737602888e-07,-1.1625573172833327e-07,6.143180900880544e-07
32.7,6.116745219693858e-07,-6.754464265379105e-08,6.153925572979454e-07
32.71,6.172832051283844e-07,-1.782744918825605e-08,6.17540584316635e-07
32.72,6.199334736023915e-07,3.2807585668302466e-08,6.208009740408837e-07
32.730000000000004,6.195124280200776e-07,8.426648241717045e-08,6.252171530998611e-07
32.74,6.159041010715522e-07,1.364491422573061e-07,6.308377209231478e-07
32.75,6.08989221981081e-07,1.8924890912607232e-07,6.377170392066772e-07
32.76,5.986449615942034e-07,2.4255209268772837e-07,6.459158673614712e-07
32.77,5.847446556959091e-07,2.962374479910153e-07,6.555020503073631e-07
32.78,5.671575038152483e-07,3.501756070861625e-07,6.665512657943918e-07
32.79,5.457482403582342e-07,4.042284574104077e-07,6.791478393063668e-07
32.8,5.203767744446044e-07,4.582484612109198e-07,6.933856355474539e-07
32.81,4.908977942835567e-07,5.120779096672125e-07,7.093690365399403e-07
32.82,4.571603313031794e-07,5.655481046943093e-07,7.272140174945461e-07
32.83,4.1900727852844497e-07,6.184784606461186e-07,7.470493328710002e-07
32.84,3.7627485686719837e-07,6.706755172813184e-07,7.690178264455217e-07
32.85,3.2879202198809056e-07,7.219318543995661e-07,7.932778807705491e-07
32.86,2.763798033356523e-07,7.720248974870268e-07,8.200050231746803e-07
32.87,2.188505654988745e-07,8.207156025163571e-07,8.493937074366422e-07
32.88,1.5600718058558688e-07,8.677470067217098e-07,8.816592925097262e-07
32.89,8.764209842422929e-08,9.128426306918547e-07,9.17040242205667e-07
32.9,1.3536299262361556e-08,9.557047154925535e-07,9.558005726156597e-07
32.910000000000004,-6.654188890122366e-08,9.960122767210018e-07,9.982325772872252e-07
32.92,-1.528381291969035e-07,1.0334189554062895e-06,1.0446598638453744e-06
32.93,-2.4561359533685045e-07,1.0675506434898887e-06,1.095440739898772e-06
32.94,-3.451467001467606e-07,1.0980028592369719e-06,1.1509719907603153e-06
32.95,-4.517350665758151e-07,1.1243378453503245e-06,1.2116930968117573e-06
32.96,-5.656977803635379e-07,1.1460813597826868e-06,1.278090944318739e-06
32.97,-6.873779703716752e-07,1.1627191262832288e-06,1.3507050902314385e-06
32.980000000000004,-8.171457706566485e-07,1.1736929086029532e-06,1.43013364907162e-06
32.99,-9.554017278977692e-07,1.1783961690691496e-06,1.5170398784959118e-06
33.0,-1.102580729071899e-06,1.1761692689757182e-06,1.6121595496115126e-06
33.01,-1.2591565375822815e-06,1.1662941650590406e-06,1.7163091987130303e-06
33.02,-1.4256470417904529e-06,1.1479885533488225e-06,1.830395368871379e-06
33.03,-1.6026203384655435e-06,1.120399409138227e-06,1.95542496283051e-06
33.04,-1.790701795570101e-06,1.0825958699631954e-06,2.0925168430192743e-06
33.05,-1.9905822645854057e-06,1.0335614077144511e-06,2.2429148302150574e-06
33.06,-2.2030276429069504e-06,9.721852368061011e-07,2.4080022695329605e-06
33.07,-2.4288900224163414e-06,8.972529083769899e-07,2.5893183509535132e-06
33.08,-2.669120701989267e-06,8.074360466376573e-07,2.788576391493969e-06
33.09,-2.9247853902966475e-06,7.012811938431423e-07,3.0076843072587884e-06
33.1,-3.197081981784793e-06,5.771977463659632e-07,3.2487675257954253e-06
33.11,-3.487361354165768e-06,4.3344498782067766e-07,3.5141946121402785e-06
33.12,-3.797151711137182e-06,2.6811825844893305e-07,3.8066059052528307e-06
33.13,-4.128187080365297e-06,7.913434591353908e-08,4.1289454846483646e-06
33.14,-4.4824406748336376e-06,-1.3578375507841853e-07,4.4844968091800705e-06
33.15,-4.862163936081982e-06,-3.7912248383993616e-07,4.876922390103127e-06
33.160000000000004,-5.269932200781925e-06,-6.535934155622923e-07,5.310307877487387e-06
33.17,-5.708698067010161e-06,-9.621485416444467e-07,5.789210951111912e-06
33.18,-6.1818536819896005e-06,-1.3079944626530828e-06,6.318715412159303e-06
33.19,-6.693303326011093e-06,-1.694604593820257e-06,6.904490867789448e-06
33.2,-7.247547822858507e-06,-2.1257281868559283e-06,7.552858384016932e-06
33.21,-7.84978245770843e-06,-2.6053946008045902e-06,8.270862449542293e-06
33.22,-8.506010217985518e-06,-3.1379107941838507e-06,9.066349539959816e-06
33.230000000000004,-9.22317227517348e-06,-3.727849444636278e-06,9.948053492990663e-06
33.24,-1.0009297674264802e-05,-4.380024413920007e-06,1.0925687795218115e-05
33.25,-1.0873674163011356e-05,-5.0994494481888134e-06,1.2010044732555075e-05
33.26,-1.1827041936767304e-05,-5.891275020526011e-06,1.3213101162918805e-05
33.27,-1.2881811746925018e-05,-6.760697072259025e-06,1.4548130422362426e-05
33.28,-1.4052308258953416e-05,-7.712830085701796e-06,1.602981956653153e-05
33.29,-1.5355038672837408e-05,-8.752535428003226e-06,1.767439076921137e-05
33.3,-1.6808985341287454e-05,-9.884194263732891e-06,1.949972524029061e-05
33.31,-1.843591933081751e-05,-1.1111412585352743e-05,2.1525487479133802e-05
33.32,-2.0260729444397394e-05,-1.2436644129306865e-05,2.3773247039857525e-05
33.33,-2.2311758028297982e-05,-1.3860715246016749e-05,2.626659424905484e-05
33.34,-2.4621130782331146e-05,-1.5382234341653832e-05,2.903124548382671e-05
33.35,-2.7225062653379725e-05,-1.699686754041068e-05,3.2095132694331045e-05
33.36,-3.01641156131475e-05,-1.8696462036903656e-05,3.548847085210502e-05
33.37,-3.348337664958058e-05,-2.0467999614343813e-05,3.9243795943696074e-05
33.38,-3.723251566709547e-05,-2.2292365482867582e-05,4.3395965039646895e-05
33.39,-4.146567334707661e-05,-2.414292252010513e-05,4.798210889423535e-05
33.4,-4.624111869362577e-05,-2.5983888823893153e-05,5.304152652828184e-05
33.410000000000004,-5.16206055340725e-05,-2.7768527908309595e-05,5.8615510386747345e-05
33.42,-5.766834749814875e-05,-2.9437176569420177e-05,6.474709003149454e-05
33.43,-6.444952313670367e-05,-3.091515600124308e-05,7.148068202759187e-05
33.44,-7.20282184053354e-05,-3.211063752894307e-05,7.886163382254937e-05
33.45,-8.046471465035703e-05,-3.2912565360004586e-05,8.693565012317993e-05
33.46,-8.981203875100924e-05,-3.318877451339085e-05,9.574809166930423e-05
33.47,-0.00010011171068018483,-3.2784481315854174e-05,0.00010534313850679895
33.480000000000004,-0.00011138865497427405,-3.152136437145671e-05,0.00011576281297902192
33.49,-0.00012364528873578224,-2.9197492436077038e-05,0.0001270458617630253
33.5,-0.0001368548614786934,-2.5588387699130046e-05,0.00013922650141188404
33.51,-0.0001509542018974467,-2.04495329596228e-05,0.00015233303800804934
33.52,-0.00016583612236192223,-1.352063249050051e-05,0.000166386378598074
33.53,-0.0001813418402568719,-4.531911876482434e-06,0.00018139845989700423
33.54,-0.00019725389013796585,6.787315217051e-06,0.00019737062806409752
33.55,-0.00021329011300734324,2.06976814609458e-05,0.00021429201180758937
33.56,-0.0002290994067718039,3.7436408091322764e-05,0.00023213793923866155
33.57,-0.000244259990530575,5.720174267206111e-05,0.00025086845624493583
33.58,-0.00025828095856444917,8.013559913082155e-05,0.0002704270101247774
33.59,-0.0002706078615415973,0.0001063050532350824,0.0002907393662224468
33.6,-0.00028063293834285297,0.0001356836035850552,0.0003117128267568884
33.61,-0.00028771042238323976,0.00016813335244590997,0.0003332358194321895
33.62,-0.0002911770588273367,0.00020338946408739704,0.0003551779183579645
33.63,-0.00029037760058217804,0.00024104838964509248,0.0003773903510562442
33.64,-0.00028469461942999297,0.00028056137613722583,0.0003997070328533168
33.65,-0.00027358150375981474,0.0003212346768895497,0.00042194615395310214
33.660000000000004,-0.00025659705623896483,0.0003622376338567382,0.0004439123254119341
33.67,-0.0002334397013547034,0.0004026194049213553,0.0004653992687873493
33.68,-0.00020397901518572618,0.000441334573353859,0.00048619301133764913
33.69,-0.00016828214649148012,0.000477277232428671,0.0005060755254135015
33.7,-0.0001266327483614422,0.000509322433363974,0.0005248287283346559
33.71,-7.954030656476863e-05,0.0005363731812340244,0.0005422387388554279
33.72,-2.7738236550852702e-05,0.0005574105318974102,0.0005581002695189323
33.730000000000004,2.7830196333826424e-05,0.000571543854887364,0.0005722210218853267
33.74,8.603824606654552e-05,0.0005780580464277803,0.00058442594468941
33.75,0.00014561354235978634,0.0005764544505248122,0.0005945612140464836
33.76,0.00020518571811452307,0.0005664824977907372,0.0006024978001797227
33.77,0.00026334126818166454,0.0005481595958872725,0.0006081344967117267
33.78,0.0003186824514762926,0.000521777566792223,0.0006114003059261194
33.79,0.0003698866459856578,0.0004878948615837379,0.0006122560957951616
33.8,0.00041576245599381955,0.00044731480904918456,0.0006106954709253387
33.81,0.00045529906944387794,0.00040105117430838845,0.0006067448286146314
33.82,0.00048770585473829865,0.0003502832211921841,0.0006004626014955362
33.83,0.0005124399234884005,0.0002963032013278902,0.0005919377182626175
33.84,0.0005292202965103852,0.00024045966825898702,0.0005812873422824225
33.85,0.0005380283058953509,0.0001841001987289592,0.0005686539730949424
33.86,0.0005390948515166465,0.00012851698907683626,0.0005542020167891226
33.87,0.0005328760162213963,7.489840694397991e-05,0.0005381139470657975
33.88,0.0005200192555066145,2.42889681351871e-05,0.0005205861888974061
33.89,0.000501322862470965,-2.2440554302088884e-05,0.0005018248607965404
