t,phi_model_real,phi_model_imag,phi_model_abs
20.0,-0.0005410578747668661,0.00013061540351616357,0.0005566004019787697
20.01,-0.0005332997471920102,0.0001415438112366347,0.0005517637817530741
20.02,-0.0005252192656187759,0.00015116187216484406,0.0005465392836507794
20.03,-0.00051694278588386,0.00015949706152653553,0.0005409890539677912
20.04,-0.0005085850903475372,0.0001665880905780554,0.0005351732299417217
20.05,-0.0005002488649668286,0.00017248261374548654,0.0005291494863883693
20.06,-0.000492024537983109,0.00017723506728025185,0.0005229726714191929
20.07,-0.0004839904236231278,0.000180904681529218,0.0005166945267351712
20.08,-0.0004762131135490259,0.00018355369479821875,0.0005103634865369338
20.09,-0.0004687480607323523,0.00018524578429662513,0.0005040245480529821
20.1,-0.0004616403043080699,0.00018604471906176907,0.0004977192060312923
20.11,-0.00045492528916448534,0.00018601323117817384,0.0004914854432175335
20.12,-0.0004486297400001774,0.00018521209499027633,0.0004853577688090651
20.13,-0.00044277255586719924,0.00018369939922413019,0.00047936729707446504
20.14,-0.00043736569745691123,0.00018152999378068314,0.00047354185871365716
20.15,-0.0004324150453029077,0.00017875509119989226,0.00046790613805997196
20.16,-0.00042792121248174894,0.00017542200217418979,0.0004624818298470239
20.17,-0.0004238803001795198,0.00017157398476042062,0.000457287809947793
20.18,-0.0004202845886007915,0.00016725018787779687,0.0004523403152058137
20.19,-0.0004171231591253929,0.00016248567108277315,0.0004476531281985719
20.2,-0.00041438244639016846,0.00015731148430748071,0.00044323776347613206
20.21,-0.0004120467211426231,0.0001517547930995549,0.00043910365249343503
20.22,-0.0004100985063437677,0.00014583903679536727,0.00043525832508843496
20.23,-0.00040851893016165253,0.00013958410891433423,0.0004317075859442707
20.24,-0.00040728802026846443,0.00013300655082036528,0.0004284556850076044
20.25,-0.000406384944302132,0.00012611975131999065,0.00042550548131424016
20.26,-0.0004057882015431919,0.00011893414633196247,0.0004228586000962624
20.27,-0.00040547577084687096,0.00011145741406111214,0.0004205155834128557
20.28,-0.0004054252197075256,0.00010369466224167911,0.0004184760348601952
20.29,-0.00040561377906091347,9.564860498578257e-05,0.00041673875917629956
20.3,-0.00040601838808072046,8.731972759616456e-05,0.000415301897764909
20.31,-0.0004066157128276094,7.87064383892551e-05,0.00041416306132032897
20.32,-0.00040738214218277984,6.980520714186644e-05,0.000413319460845421
20.33,-0.00040829376405599025,6.061069023652667e-05,0.00041276803841619914
20.34,-0.00040932632441502653,5.111584295012886e-05,0.0004125055990645676
20.35,-0.0004104551712437059,4.131201962174044e-05,0.0004125289451249779
20.36,-0.0004116551851047584,3.118906265885786e-05,0.0004128350143255427
20.37,-0.00041290069756633516,2.0735381506702227e-05,0.0004134210228048335
20.38,-0.000414165398344324,9.938022820478938e-06,0.0004142846141039912
20.39,-0.0004154222316243633,-1.2172668471980576e-06,0.00041542401503324707
20.4,-0.0004166432816491699,-1.2745984496429186e-05,0.0004168381991422724
20.41,-0.0004177996472987303,-2.4664818918436907e-05,0.00041852705835492015
20.42,-0.0004188613050452942,-3.699160239782358e-05,0.00042049158316452144
20.43,-0.0004197969593373859,-4.974526460210292e-05,0.00042273405164387697
20.44,-0.0004205738791560032,-6.294578744828925e-05,0.0004252582274169585
20.45,-0.00042115771919218776,-7.661415981389924e-05,0.00042806956668181323
20.46,-0.0004215123238167962,-9.077233104345596e-05,0.0004311754343796715
20.47,-0.0004215995117517849,-0.00010544316228486766,0.00043458532969024204
20.48,-0.00042137883910044747,-0.00012065037476211199,0.00043831112120487983
20.49,-0.00042080733815279086,-0.00013641849414750438,0.00044236729240384624
20.5,-0.0004198392291393233,-0.00015277279022666074,0.0004467711984427158
20.51,-0.00041842560185902886,-0.00016973921104388655,0.0004515433357462953
20.52,-0.00041651406383960774,-0.0001873443106704185,0.00045670762651477495
20.53,-0.00041404835139135447,-0.00020561516964047062,0.0004622917209686737
20.54,-0.00041096789957235545,-0.00022457930694954652,0.000468327320993397
20.55,-0.0004072073666774913,-0.0002442645822976478,0.00047485052978959725
20.56,-0.0004026961083783816,-0.000264699086984907,0.000481902233190236
20.57,-0.00039735759605433814,-0.0002859110215268146,0.0004895285194680583
20.58,-0.00039110877314842986,-0.0003079285576474226,0.0004977811457342393
20.59,-0.0003838593425317698,-0.00033077968183257284,0.0005067180604262895
20.6,-0.00037551097684096853,-0.0003544920170790204,0.0005164039929171839
20.61,-0.0003659564425402497,-0.00037909261885756717,0.0005269111229695229
20.62,-0.0003550786270246056,-0.00040460774061655747,0.0005383198446430471
20.63,-0.00034274945638341207,-0.0004310625633811666,0.0005507196413783212
20.64,-0.0003288286894522882,-0.00045848088314791335,0.00056421009138352
20.65,-0.00031316257144116475,-0.0004868847488227588,0.0005789020252062032
20.66,-0.00029558232768407607,-0.0005162940423947753,0.000594918860561232
20.67,-0.00027590247484134557,-0.0005467259918620427,0.0006123981432051487
20.68,-0.00025391892310908104,-0.0005781946061153409,0.000631493327006509
20.69,-0.00022940683855564298,-0.0006107100195248865,0.0006523758314991306
20.7,-0.00020211822947492522,-0.0006442777323444146,0.0006752374212682081
20.71,-0.0001717792144731559,-0.0006788977312350029,0.0007002929586973218
20.72,-0.00013808692269422267,-0.0007145634721992298,0.0007277835901011918
20.73,-0.000100705967908105,-0.0007512607060023744,0.0007579804353382047
20.74,-5.9264427856106e-05,-0.0007889661237407474,0.0007911888629269321
20.75,-1.3349247919334358e-05,-0.0008276457976122887,0.0008277534468217534
20.76,3.749902656395799e-05,-0.0008672533891921075,0.0008680637177410662
20.77,9.379230267027484e-05,-0.0009077280946773925,0.0009125608417562313
20.78,0.00015610191149599277,-0.000948992293754734,0.0009617453823016641
20.79,0.00022506665903958384,-0.000990948866128914,0.0010161863295151243
20.8,0.0003014021471125377,-0.0010334781375846349,0.0010765316136321559
20.81,0.00038591159205077365,-0.0010764344161072804,0.0011435203579558103
20.82,0.0004794984136768908,-0.001119642078590566,0.00121799717276735
20.83,0.0005831809209103714,-0.0011628911707567153,0.0013009288456859555
20.84,0.0006981094855950599,-0.0012059324881487216,0.0013934238478834665
20.85,0.0008255866748395369,-0.001248472115870578,0.0014967551509111172
20.86,0.0009670909072368409,-0.0012901654211256667,0.0016123869376575043
20.87,0.001124304313038975,-0.0013306105182367297,0.0017420058953861951
20.88,0.0012991456165918642,-0.0013693412643845267,0.0018875579014843674
20.89,0.0014938090255794153,-0.0014058199007031956,0.002051291056411953
20.9,0.0017108103110392405,-0.001439429534230768,0.0022358061866749514
20.91,0.0019530415004779692,-0.0014694667703407,0.0024441161371188493
20.92,0.0022238358900473847,-0.0014951349643557415,0.00267971540046735
20.93,0.002527045417302203,-0.001515538780456147,0.00294666189716
20.94,0.002867132830092096,-0.0015296810459016013,0.0032496730247184146
20.95,0.0032492815454976173,-0.0015364632952159674,0.0035942384477740614
20.96,0.0036795266194137735,-0.001534691946190581,0.003986752502059388
20.97,0.004164910842977872,-0.0015230927806973182,0.004434669542205703
20.98,0.00471367064130393,-0.0015003373733135912,0.00494668607741103
20.99,0.0053354571582301035,-0.0014650863885090149,0.005532954112687294
21.0,0.00604159863918089,-0.0014160563377819653,0.006205330746118603
21.01,0.006845410922630511,-0.001352118555173246,0.0069776697605226975
21.02,0.00776256343866044,-0.001272441936392572,0.007866161682848776
21.03,0.008811508467450732,-0.0011766945364049917,0.008889729551789599
21.04,0.0100139813494339,-0.0010653235929399723,0.01007048841042402
21.05,0.011395578601666775,-0.0009399391092885226,0.011434277292244395
21.06,0.012986419118018577,-0.0008038329560096177,0.013011273147928512
21.07,0.014821890318580782,-0.0006626736782927332,0.014836696701757461
21.08,0.01694347560785662,-0.0005254269011335498,0.01695162054502362
21.09,0.01939965094898994,-0.0004055623667898352,0.019403889758911802
21.1,0.022246825688922507,-0.00032262097866131374,0.022249164872623305
21.11,0.025550284670041962,-0.000304228215386541,0.025552095834338494
21.12,0.029385063610236878,-0.00038865291822354886,0.02938763369971307
21.13,0.03383665603615139,-0.0006280211084497416,0.033842483688722946
21.14,0.03900140598985492,-0.0010923006716577637,0.039016698860139296
21.15,0.04498638476600338,-0.0018741708717483169,0.04502540761360647
21.16,0.051908481102575656,-0.0030948758190278945,0.052000660252651196
21.17,0.05989235266733461,-0.004911126787159135,0.0600933696371566
21.18,0.06906679432218565,-0.007523056647799146,0.06947530827041426
21.19,0.07955898028073105,-0.011183131254082438,0.08034110882951384
21.2,0.09148594163654186,-0.016205777070325014,0.092910197113007
21.21,0.10494256179229117,-0.022977281644279608,0.10742856578810592
21.22,0.1199853304406027,-0.031965255595015014,0.12417027456760842
21.23,0.13661111955728863,-0.043726608285187506,0.1434385382622886
21.24,0.15473036724534417,-0.05891258921664826,0.16556623966282685
21.25,0.17413431800121434,-0.07826900117092035,0.190915680995673
21.26,0.19445641436121958,-0.10262923466183463,0.21987736785193748
21.27,0.21512860466153488,-0.13289736420448225,0.2528676055886119
21.28,0.2353342517547139,-0.17001826861314376,0.2903246832619682
21.29,0.25396049975950785,-0.2149316989941419,0.33270342750054055
21.3,0.2695543421504506,-0.26850754875959104,0.38046793178012567
21.31,0.28028814138208175,-0.331460417520916,0.43408230853440893
21.32,0.2839418165474256,-0.4042430300492858,0.4939993750276206
21.33,0.27791010647109654,-0.48692025486326024,0.5606472704605621
21.34,0.2592439293194959,-0.5790283669826117,0.634414111333884
21.35,0.22473455145564733,-0.679427699377334,0.7156309225425828
21.36,0.17104770494894248,-0.7861606579033906,0.8045532284463176
21.37,0.09491167969906637,-0.8963307942587156,0.9013418439636309
21.38,-0.006641363381389822,-1.0060216389944705,1.0060435606039553
21.39,-0.1359879487478411,-1.1102755777782942,1.1185725639472703
21.4,-0.2945942838274586,-1.203152474832605,1.2386935334293285
21.41,-0.48268814245209574,-1.2778843862975215,1.366007447859216
21.42,-0.6989512789793769,-1.3271362117899166,1.4999411371887224
21.43,-0.9402672695017126,-1.3433725778927184,1.6397415714466512
21.44,-1.2015616700891327,-1.3193192452431581,1.7844757543593475
21.45,-1.475769013443999,-1.2484940684832293,1.9330368905117357
21.46,-1.7539537967927759,-1.1257697021317796,2.0841572261999977
21.47,-2.025600303205162,-0.9479198228046554,2.236427637731848
21.48,-2.2790697374182853,-0.7140946110155737,2.3883236760324875
21.49,-2.5022044651629796,-0.426171212142447,2.5382373977901507
21.5,-2.6830404932273066,-0.08893175133626069,2.684513949431659
21.51,-2.810573402305309,0.2899649138572419,2.825491550334964
21.52,-2.8755123010368084,0.700232384975259,2.9595432732741282
21.53,-2.8709529597375427,1.1294191063982482,3.08511886560683
21.54,-2.7929060596367474,1.5635533686915868,3.200784809183909
21.55,-2.64062918359206,1.987920280149765,3.3052608861432997
21.56,-2.4167302717553603,2.3879055320555977,3.3974516974403723
21.57,-2.127033265307507,2.749833824641612,3.476471857338677
21.58,-1.7802204799053798,3.0617312902441927,3.541663938141917
21.59,-1.3872877505974972,3.3139507417349003,3.592608637411423
21.6,-0.9608648979502669,3.499614524833684,3.6291270540640856
21.61,-0.5144637786908263,3.6148497578812995,3.6512753596023586
21.62,-0.06171839743449517,3.658811999776053,3.6593325088446282
21.63,0.38432332689994864,3.6335131711141346,3.6537819289414823
21.64,0.8118071905231421,3.543485629851422,3.6352883411840393
21.65,1.2105452350023052,3.39532520553387,3.604670999872305
21.66,1.572334755988123,3.1971611432579197,3.5628746765563504
21.67,1.8911209835837184,2.958100553414854,3.51093968314238
21.68,2.163014105567094,2.6876900205960146,3.4499721256400933
21.69,2.386181527398872,2.395428823769518,3.3811154271106196
21.7,2.5606427216977834,2.090358240048993,3.3055239705566426
21.71,2.687996760439136,1.7807410456883477,3.224339506927042
21.72,2.771112120337632,1.4738357405872584,3.1386707654219674
21.73,2.813805350631563,1.1757620139221399,3.0495765057832305
21.74,2.8205305486615315,0.8914479811021874,2.9580520750899715
21.75,2.7960961347521205,0.6246458685038921,2.865019381402983
21.76,2.7454198670890486,0.37800095551712326,2.771320076963162
21.77,2.6733279295967427,0.1531583834466252,2.6777116554218434
21.78,2.5843996121190123,-0.0491065002404149,2.584866109392663
21.79,2.482855757293179,-0.2287467006106804,2.49337076355767
21.8,2.37248680216381,-0.38630113646985154,2.4037308906113766
21.81,2.2566148193191182,-0.522758840314789,2.3163737280279104
21.82,2.13808332114629,-0.6394350844511971,2.231653538386068
21.83,2.019268560203442,-0.7378626437950582,2.1498573904643803
21.84,1.9021064638212484,-0.8196996861192711,2.0712113786706094
21.85,1.7881300221780554,-0.8866544453733592,1.9958870413214351
21.86,1.678512772483626,-0.9404258689221199,1.9240077812546894
21.87,1.5741148839811983,-0.9826587941181605,1.8556551332693525
21.88,1.4755291755240962,-1.0149118485354025,1.79087476059058
21.89,1.3831251423653197,-1.0386361220931732,1.7296820960973813
21.9,1.2970897061569473,-1.05516267130728,1.6720675730180974
21.91,1.2174639231831335,-1.0656970356571103,1.6180014141096473
21.92,1.144175293334897,-1.0713191317752562,1.567437968146008
21.93,1.0770656164371102,-1.0729871101514814,1.520319598197129
21.94,1.0159145573743587,-1.0715439871416694,1.476580138111239
21.95,0.9604592226210705,-1.067726085616375,1.4361479423177606
21.96,0.9104101335894873,-1.0621725200347953,1.3989485600476865
21.97,0.8654640206799759,-1.055435140306406,1.3649070688091378
21.98,0.8253138681734977,-1.0479885012446608,1.3339501039171338
21.99,0.7896566241805212,-1.0402395508715596,1.3060076214592473
22.0,0.758198959731623,-1.0325368330060458,1.2810144316330985
22.01,0.7306614228838247,-1.025179080065987,1.258911538232754
22.02,0.7067812919032544,-1.0184231338066894,1.23964731841644
22.03,0.6863143893371657,-1.012491177875757,1.2231785749789292
22.04,0.6690360781952104,-1.007577299470413,1.2094714913278932
22.05,0.6547416237854246,-1.0038534206597847,1.1985025173471788
22.06,0.6432460706599079,-1.001474655361814,1.1902592124203346
22.07,0.6343837538299177,-1.0005841574595087,1.1847410701424563
22.08,0.628007536828944,-1.001317530693543,1.1819603477224485
22.09,0.6239878460446291,-1.003806873039654,1.1819429217915152
22.1,0.6222115505988772,-1.0081845282709148,1.184729191310616
22.11,0.6225807194534438,-1.0145866160669528,1.1903750475112278
22.12,0.6250112718365919,-1.0231564099274146,1.1989529303097557
22.13,0.6294315230140942,-1.034047629657141,1.2105529903987657
22.14,0.6357806143365937,-1.0474277125686111,1.225284376225752
22.15,0.6440068038840533,-1.063481124907717,1.243276665301789
22.16,0.6540655813880574,-1.082412772379251,1.2646814597226583
22.17,0.6659175579597983,-1.1044515659283858,1.2896741664004925
22.18,0.6795260669940377,-1.1298541959529498,1.318455983276223
22.19,0.6948543969669524,-1.1589091645661318,1.3512561136585752
22.2,0.7118625592227942,-1.1919411210004227,1.3883342317882141
22.21,0.7305034737589142,-1.2293155391745398,1.4299832236882468
22.22,0.7507184330048831,-1.2714437681207424,1.4765322282789426
22.23,0.7724316772071372,-1.318788474459669,1.5283500045214422
22.24,0.7955438848781321,-1.3718694802516431,1.5858486509162546
22.25,0.8199243475586676,-1.4312699778890372,1.6494877039026363
22.26,0.8454015597223711,-1.497643074420601,1.719778641436452
22.27,0.8717519121175196,-1.571718578616882,1.7972898170996305
22.28,0.8986861306284696,-1.6543098925302353,1.88265184829999
22.29,0.925833053790764,-1.746320802104624,1.9765634792120563
22.3,0.9527202920559142,-1.8487518748292893,2.07979793479557
22.31,0.9787512633623217,-1.962706062218878,2.193209776150944
22.32,1.003178056418806,-2.089392966252963,2.3177422592487646
22.33,1.0250695408816282,-2.2301310565829566,2.4544351882213324
22.34,1.0432741300027384,-2.3863469138934277,2.604433240415591
22.35,1.056376616709958,-2.55957031899948,2.768994722680901
22.36,1.06264856212696,-2.7514237024915364,2.9495006962573735
22.37,1.0599918338244458,-2.963604112958651,3.147464380437044
22.38,1.0458750917580646,-3.197855452654393,3.3645407121375976
22.39,1.0172633300500828,-3.455928271878755,3.602535898923904
22.4,0.9705410349851677,-3.739523917616764,3.8634167560616484
22.41,0.9014301513970719,-4.0502193175385734,4.1493195632549655
22.42,0.8049049028897668,-4.38936817904328,4.462558113223143
22.43,0.6751066302409074,-4.757973942689003,4.805630551915406
22.44,0.5052632401031483,-5.156529518696528,5.181224528910919
22.45,0.2876196296520097,-5.584818748037184,5.5922200868518015
22.46,0.013387594891756215,-6.041674789067293,6.041689621666137
22.47,-0.3272737611664373,-6.5246913923093395,6.532894142692319
22.48,-0.7452332706683501,-7.029884478555076,7.069274956425208
22.49,-1.252301683345933,-7.551303797816194,7.654439793546249
22.5,-1.8610643686555721,-8.080597958484164,8.292142301657503
22.51,-2.5846098342050006,-8.60654102034424,8.986253742797231
22.52,-3.436128904117127,-9.114535359380515,9.7407256743585
22.53,-4.428358323843395,-9.586113786092508,10.559542365285813
22.54,-5.572843355903043,-9.998473955656449,11.446661719094044
22.55,-6.878997449602443,-10.324089770848925,12.405943555739091
22.56,-8.352944265093038,-10.530457282715865,13.441064261391444
22.57,-9.996139208175046,-10.580045692875752,14.555417064878396
22.58,-11.803785110835378,-10.430536137645037,15.751997557817802
22.59,-13.763080447833255,-10.035440134432173,17.03327455615338
22.6,-15.851368704908962,-9.345193491750374,18.401047014157122
22.61,-18.034293642193287,-8.308817240410317,19.856288452462433
22.62,-20.264105592899664,-6.876221554291418,21.398981245467954
22.63,-22.478305612923993,-5.001198554744273,23.027944116051405
22.64,-24.598852698533282,-2.6451027406642154,24.740657278916572
22.65,-26.53218825962351,0.2188478168725102,26.533090815264124
22.66,-28.170344033344325,3.6007997910866956,28.399542990908643
22.67,-29.393386299523446,7.489270453443669,30.332496271784773
22.68,-30.073402457601954,11.846284164043523,32.32249965383506
22.69,-30.08014920304108,16.603094059445304,34.35808650702191
22.7,-29.28835153644212,21.65702667084415,36.42573732876064
22.71,-27.58647076405695,26.87003460695895,38.50989650720111
22.72,-24.88655658958509,32.06953564683351,40.59305132027089
22.73,-21.134580466100218,37.052039036264404,42.65587987866299
22.74,-16.320439644054026,41.58990023917762,44.67747253460021
22.75,-10.486655227294566,45.44130172855842,46.63562844695063
22.76,-3.7346973909416787,48.36323986934925,48.507225598482954
22.77,3.772111050347003,50.126931188325834,50.268658746134285
22.78,11.810011434863016,50.534674179599875,51.896335752439334
22.79,20.101153840328745,49.43686530819566,53.36721875096399
22.8,28.325055351000884,46.7476253378358,54.659392928973624
22.81,36.134839691285144,42.45739658793546,55.752642668667384
22.82,43.177366274826774,36.64096227671866,56.629012661306994
22.83,49.11582694431592,29.459632481916415,57.27333063820869
22.84,53.65296648839927,21.15682515090952,57.67366871867485
22.85,56.5528400431743,12.046901396654206,57.82172213112965
22.86,57.65900905286969,2.4978204708576506,57.71308718188228
22.87,56.90731944045685,-7.091129022627615,57.34742467377023
22.88,54.33188580969298,-16.31468435202587,56.728500254667004
22.89,50.06357138174468,-24.78782733559057,55.864099057570925
22.9,44.321021971160846,-32.17051198150721,54.76581807770629
22.91,37.39508286570156,-38.18869182513301,53.448745596577545
22.92,29.62809782560473,-42.649841311581,51.93104220662864
22.93,21.390072766209503,-45.45177124464376,50.23344226926085
22.94,13.053925476660357,-46.58426150912268,48.378697695375514
22.95,4.972016926921292,-46.12377673251479,46.39098762036075
22.96,-2.5441118544845804,-44.222196638662496,44.295317818892116
22.97,-9.239338528177752,-41.09100435379459,42.11693264284373
22.98,-14.925019098755628,-36.98268278731974,39.88076003846637
22.99,-19.483253104789757,-32.17115443288179,37.61090704954654
23.0,-22.86567459946965,-26.932978483140893,35.33021942844626
23.01,-25.087557921509784,-21.530731712940465,33.059914860140346
23.02,-26.218348818156187,-16.199603037818836,30.8192951466029
23.03,-26.36989075857614,-11.137788404415103,28.625538757563373
23.04,-25.683621353897006,-6.500840884165219,26.493571636372252
23.05,-24.317890729747063,-2.3997570782923363,24.436011204342094
23.06,-22.436339534786896,1.0977040604371828,22.463176220751635
23.07,-20.198009883021538,3.9631562084241,20.583153557387806
23.08,-17.749586375947803,6.201941544185449,18.80191201539687
23.09,-15.219907993075035,7.846466905543617,17.123452987568264
23.1,-12.716677274471444,8.94920358294248,15.549987963725533
23.11,-10.325133114325133,9.575912995960206,14.082133486611074
23.12,-8.10835090693168,9.799517031055254,12.719115082106999
23.13,-6.108784891456346,9.694885502152593,11.458972805183448
23.14,-4.350663692953146,9.334678872135251,10.298762266169122
23.15,-2.8428801223744418,8.786271729038054,9.234746249176805
23.16,-1.5820686149962107,8.109696384736116,8.262573240532157
23.17,-0.5556275239650178,7.356487167870276,7.3774403011090195
23.18,0.2554900373593636,6.569272368654919,6.574238709749053
23.19,0.8743306031046492,5.781948352764603,5.847681656653571
23.2,1.3258995847285089,5.020274206981849,5.192413968672998
23.21,1.6355412071381954,4.302740420221962,4.603104405079134
23.22,1.8277224901915303,3.6415869897483804,4.074521481727222
23.23,1.9251826165735457,3.0438711846871636,3.6015940770894486
23.24,1.9483962165561788,2.5125101038551123,3.179458261821416
23.25,1.915293729699782,2.0472461295138293,2.8034918915232585
23.26,1.8411822284366646,1.645503195092636,2.4693385274949797
23.27,1.7388141709453997,1.30311789459272,2.172922218646655
23.28,1.6185579844255746,1.0149417938771632,1.910454603989944
23.29,1.4886319493537352,0.7753201220374856,1.678435692027825
23.3,1.3553706468873836,0.5784577862746605,1.4736495516050299
23.31,1.223500612034826,0.4186869201990626,1.2931560171902576
23.32,1.09640841132814,0.29065151069185674,1.1342793770048694
23.33,0.976389934266156,0.18942458132544598,0.9945948802133404
23.34,0.8648741945688996,0.11057240014729648,0.8719137733202388
23.35,0.76261842107059,0.0501786027102715,0.7642674586335303
23.36,0.6698737811632516,0.004839269084508388,0.6698912607395503
23.37,0.5865228566069044,-0.02836192072493416,0.5872081912486667
23.38,0.5121911272663746,-0.05189115983153663,0.5148130178220649
23.39,0.4463353536813525,-0.06780898130736943,0.4514568704669375
23.4,0.38831201162986656,-0.07781752263144036,0.39603255573819734
23.41,0.3374289301008314,-0.08330759431875426,0.34756069705904596
23.42,0.29298310760476304,-0.08540353187783392,0.3051767759823023
23.43,0.2542874004898762,-0.0850045716277799,0.26811911391305365
23.44,0.22068844340320848,-0.08282206737386215,0.23571780564015887
23.45,0.19157781380659955,-0.07941228559127592,0.20738459404147283
23.46,0.16639811486355835,-0.07520481048571953,0.18260365864445036
23.47,0.144645339815103,-0.07052678383564329,0.16092327851627364
23.48,0.12586860470976163,-0.06562332144375714,0.14194832147261519
23.49,0.1096680984235821,-0.0606745082784157,0.12533350616124975
23.5,0.09569189914736052,-0.055809394285193825,0.11077738060140636
23.51,0.08363214254704938,-0.05111740532761794,0.09801695972859988
23.52,0.07322089496592625,-0.04665755871860436,0.08682296496429512
23.53,0.06422598111150958,-0.04246583774511053,0.07699561042767335
23.54,0.05644693533688322,-0.038561039808241375,0.06836088282065302
23.55,0.0497111847739248,-0.03494937199472202,0.060767264990723026
23.56,0.0438705274781532,-0.03162802849082808,0.0540828565021119
23.57,0.03879793614290942,-0.02858794772385521,0.04819284805872294
23.58,0.03438469506665057,-0.025815914260362456,0.04299731019406829
23.59,0.030537862616879168,-0.023296141612772065,0.03840926017576642
23.6,0.027178041565077624,-0.021011447195177016,0.034352974493467074
23.61,0.024237433885932393,-0.018944109509890523,0.030762517557860386
23.62,0.02165815376103874,-0.017076479908934412,0.02758046030103626
23.63,0.019390771711255188,-0.015391406574248543,0.02475676521462034
23.64,0.017393063329539212,-0.013872516299311364,0.022247816981897824
23.65,0.01562893749951358,-0.012504389848258503,0.02001558025241667
23.66,0.014067520901782905,-0.011272658760559544,0.018026868276384524
23.67,0.01268237777413787,-0.010164045140943774,0.016252708070752055
23.68,0.011450846126470425,-0.009166360946256141,0.014667789540661964
23.69,0.010353473799703411,-0.008268479313722328,0.01324998754273373
23.7,0.009373539827080161,-0.007460287365962058,0.011979947265017115
23.71,0.008496648463647416,-0.006732627507850321,0.010840724527182898
23.72,0.007710384975894969,-0.006077232359475296,0.009817473688661486
23.73,0.0070040238229030875,-0.005486657033698111,0.00889717680599992
23.74,0.0063682812177948515,-0.004954211373789222,0.00806840851748975
23.75,0.005795105244195315,-0.004473893941752398,0.007321131865589422
23.76,0.005277497730767019,-0.004040328931810406,0.0066465209076234195
23.77,0.0048093629730415815,-0.0036487067288856695,0.006036806523310062
23.78,0.004385379151375685,-0.003294728501369122,0.005485142313473237
23.79,0.0040008889420721895,-0.002974554981805768,0.004985487906572539
23.8,0.0036518063696602235,-0.0026847594252789966,0.00453250735610163
23.81,0.0033345374149690876,-0.002422284625447136,0.004121480629398408
23.82,0.0030459122875560575,-0.002184403798427429,0.0037482264630180973
23.83,0.0027831276025958407,-0.0019686851043008453,0.0034090350969485338
23.84,0.002543696980531797,-0.0017729595566365415,0.0031006096042932303
23.85,0.0023254088206161572,-0.0015952920657077508,0.0028200147088108477
23.86,0.0021262901938004495,-0.0014339553661554662,0.0025646321335384553
23.87,0.0019445759623353213,-0.001287406591038316,0.002332121652903475
23.88,0.0017786823681110453,-0.0011542662687747496,0.0021203871311296666
23.89,0.0016271844437637066,-0.0010332995354097674,0.0019275469239177147
23.9,0.0014887966938188348,-0.0009233993705733818,0.0017519081006437556
23.91,0.0013623565710109801,-0.0008235716804941486,0.001591944012674049
23.92,0.0012468103383020516,-0.0007329220650162914,0.0014462747916923052
23.93,0.0011412009624395297,-0.0006506441174988984,0.0013136504117568072
23.94,0.0010446577321807512,-0.0005760091168029636,0.0011929359915960121
23.95,0.0009563873351792597,-0.0005083569794663569,0.0010830990506243848
23.96,0.0008756661632871818,-0.00044708834793021535,0.0009831984643911232
23.97,0.0008018336476512157,-0.00039165769764671726,0.0008923748935461942
23.98,0.000734286453188228,-0.000341567352409335,0.0008098424856524078
23.99,0.0006724733873242574,-0.00029636230360378745,0.0007348816718742578
24.0,0.000615890900589553,-0.0002556257355174308,0.0006668329011737785
24.01,0.0005640790769944075,-0.00021897516553078526,0.0006050911734789209
24.02,0.0005166180301758262,-0.00018605911501203522,0.0005491012505738924
24.03,0.00047312463718985633,-0.00015655423405096046,0.000498353439353353
24.04,0.00043324955558706206,-0.00013016281071831794,0.0004523798566586265
24.05,0.0003966744811233241,-0.00010661060320790084,0.0004107510982222821
24.06,0.0003631096132252725,-8.564494085355732e-05,0.00037307324630749965
24.07,0.0003322913032746989,-6.703304745092769e-05,0.0003389851614489287
24.08,0.000303979867059728,-5.056054739680637e-05,0.0003081560132963733
24.09,0.0002779575475459226,-3.60301217506515e-05,0.00028028301395395083
24.1,0.00025402661765102003,-2.3260287316335438e-05,0.0002550893244360806
24.11,0.00023200761516769367,-1.2084277164277108e-05,0.00023232211098038802
24.12,0.000211737703579112,-2.349005629494045e-06,0.00021175073304336705
24.13,0.00019306915344398235,6.08589527515215e-06,0.000193165048942287
24.14,0.0001758679394676158,1.3348977872507893e-05,0.00017637382839533105
24.15,0.0001600124484775781,1.95578265215695e-05,0.0001612032637573985
24.16,0.0001453922934116886,2.4819856256012573e-05,0.00014749557365588867
24.17,0.00013190722820713357,2.9233066101748793e-05,0.00013510769410732325
24.18,0.0001194661582260177,3.2886749724914885e-05,0.00012391005313836762
24.19,0.00010798624062222464,3.5862165316452656e-05,0.00011378542553818383
24.2,9.739206888061106e-05,3.823316614627387e-05,0.00010462786471305946
24.21,8.761493566255451e-05,4.00667929535329e-05,9.634170877005888e-05
24.22,7.859216807999564e-05,4.142382922389263e-05,8.88406579843064e-05
24.23,7.026652959078707e-05,4.2359320392451345e-05,8.204692075174605e-05
24.24,6.258568285511826e-05,4.29230580636168e-05,7.589042503487553e-05
24.25,5.550170810378879e-05,4.3160030427910856e-05,7.030809220122791e-05
24.26,4.897067183215641e-05,4.311084015706271e-05,6.524317005434796e-05
24.27,4.295224093428466e-05,4.281209115824233e-05,6.064462177817988e-05
24.28,3.7409337718470147e-05,4.2296745654616566e-05,5.646656746700546e-05
24.29,3.2307831585454544e-05,4.159445312669934e-05,5.266777489759067e-05
24.3,2.761626349493991e-05,4.07318526945065e-05,4.9211196219447124e-05
24.31,2.330559968625398e-05,3.973285054310106e-05,4.6063547290849503e-05
24.32,1.9349011448505877e-05,3.861887399528101e-05,4.319492646941077e-05
24.33,1.5721678049941007e-05,3.7409103816898634e-05,4.05784697726454e-05
24.34,1.2400610231832916e-05,3.6120686304988805e-05,3.819003945095167e-05
24.35,9.364491947184807e-06,3.4768926659906886e-05,3.60079431585709e-05
24.36,6.593538277623646e-06,3.3367465082627054e-05,3.401268106249232e-05
24.37,4.069367693013545e-06,3.192843697018584e-05,3.218671839097724e-05
24.38,1.7748870276670935e-06,3.0462618508481987e-05,3.0514281088603256e-05
24.39,-3.0581226437728204e-07,2.8979558884479194e-05,2.8981172410377756e-05
24.4,-2.1875478437196585e-06,2.7487700261167113e-05,2.7574608450825355e-05
24.41,-3.8841313278123195e-06,2.5994486580003037e-05,2.628307076293885e-05
24.42,-5.408445225718905e-06,2.450646217824492e-05,2.5096174374859416e-05
24.43,-6.772512831942636e-06,2.3029361133526355e-05,2.4004549657871152e-05
24.44,-7.987561841683719e-06,2.156818817594744e-05,2.299973663692262e-05
24.45,-9.064082358239653e-06,2.0127291939419452e-05,2.207409046397089e-05
24.46,-1.0011879882763767e-05,1.8710431259219052e-05,2.1220696894608607e-05
24.47,-1.0840123806028534e-05,1.7320835162029516e-05,2.043329671982044e-05
24.48,-1.155739186009559e-05,1.5961257138092765e-05,1.970621820736087e-05
24.49,-1.2171710933656933e-05,1.4634024232498325e-05,1.9034316701417256e-05
24.5,-1.269059460760425e-05,1.3341081444037817e-05,1.8412920615453817e-05
24.51,-1.3121077725988801e-05,1.2084031875260311e-05,1.7837783131705205e-05
24.52,-1.346974828141549e-05,1.0864173036180822e-05,1.730503899229279e-05
24.53,-1.3742776862297366e-05,9.6825296663993e-06,1.68111658318987e-05
24.54,-1.3945943881766013e-05,8.539883405877576e-06,1.6352949560839174e-05
24.55,-1.4084664783831102e-05,7.436799613117532e-06,1.5927453360740288e-05
24.56,-1.4164013401232952e-05,6.373651600757622e-06,1.5531989903362247e-05
24.57,-1.4188743620898203e-05,5.350642532452745e-06,1.516409644685999e-05
24.58,-1.4163309496696891e-05,4.3678252010877215e-06,1.482151250333384e-05
24.59,-1.409188393502223e-05,3.425119886753294e-06,1.4502159807310444e-05
24.6,-1.3978376066325244e-05,2.5223304732684174e-06,1.420412434710401e-05
24.61,-1.3826447404892602e-05,1.6591589842017666e-06,1.39256402500969e-05
24.62,-1.3639526889758976e-05,8.352186832236152e-07,1.3665075339172632e-05
24.63,-1.3420824891430394e-05,5.004586901627281e-08,1.3420918200907238e-05
24.64,-1.3173346261996485e-05,-6.9688951818599e-07,1.3191766626915981e-05
24.65,-1.289990250010361e-05,-1.4061743731857186e-06,1.297631730808027e-05
24.66,-1.2603123096942458e-05,-2.078443890890865e-06,1.2773356677250736e-05
24.67,-1.228546612492363e-05,-2.714373934639428e-06,1.2581752809672266e-05
24.68,-1.1949228126795967e-05,-3.3146742308805684e-06,1.2400448301697627e-05
24.69,-1.1596553359655844e-05,-3.880082320614843e-06,1.2228454057569711e-05
24.7,-1.1229442445413513e-05,-4.411358204286556e-06,1.2064843921136358e-05
24.71,-1.0849760476732645e-05,-4.909279622210002e-06,1.1908750094427047e-05
24.72,-1.0459244625199701e-05,-5.374637917111001e-06,1.1759359288235738e-05
24.73,-1.005951129633189e-05,-5.808234429050139e-06,1.1615909551293533e-05
24.74,-9.652062873940743e-06,-6.210877375939376e-06,1.1477687724514063e-05
24.75,-9.238294094220318e-06,-6.583379175132076e-06,1.1344027465361176e-05
24.76,-8.819498087649301e-06,-6.926554163280729e-06,1.1214307784919731e-05
24.77,-8.396872124244969e-06,-7.241216672888924e-06,1.1087952036992527e-05
24.78,-7.971523094911632e-06,-7.528179424882844e-06,1.0964427294936061e-05
24.79,-7.54447275844702e-06,-7.788252197238603e-06,1.0843244048288368e-05
24.8,-7.1166627802462935e-06,-8.022240730318435e-06,1.0723956147939199e-05
24.81,-6.688959584883879e-06,-8.230945830314115e-06,1.060616092607383e-05
24.82,-6.262159040538508e-06,-8.415162633150831e-06,1.0489499415671665e-05
24.83,-5.8369909888606085e-06,-8.575679992535541e-06,1.0373656594394009e-05
24.84,-5.414123629319165e-06,-8.71327995766098e-06,1.0258361579420402e-05
24.85,-4.994167762588024e-06,-8.828737308438359e-06,1.0143387703439365e-05
24.86,-4.577680893207014e-06,-8.922819119139064e-06,1.002855240764619e-05
24.87,-4.165171187791642e-06,-8.99628432490783e-06,9.91371689520091e-06
24.88,-3.7571012816406897e-06,-9.049883269782948e-06,9.79878549807084e-06
24.89,-3.3538919238354534e-06,-9.084357219483438e-06,9.683704721228832e-06
24.9,-2.9559254490114598e-06,-9.100437827184656e-06,9.56846194048798e-06
24.91,-2.5635490629380267e-06,-9.098846545629023e-06,9.453083743360981e-06
24.92,-2.177077929011443e-06,-9.080293983982856e-06,9.337633915748894e-06
24.93,-1.7967980436213494e-06,-9.04547921270406e-06,9.222211090461048e-06
24.94,-1.422968890141399e-06,-8.995089024055442e-06,9.106946085982552e-06
24.95,-1.0558258638362183e-06,-8.929797159655653e-06,8.991998975052193e-06
24.96,-6.955824631264168e-07,-8.850263519431526e-06,8.877555932033857e-06
24.97,-3.4243224625193843e-07,-8.757133368418044e-06,8.763825915405547e-06
24.98,3.449443850127267e-09,-8.651036558997265e-06,8.651037246698809e-06
24.99,3.4190397981918985e-07,-8.53258678636913e-06,8.539434149774639e-06
25.0,6.727881651064066e-07,-8.402380894373637e-06,8.429273314422921e-06
25.01,9.95973150752327e-07,-8.26099824729961e-06,8.320820546010275e-06
25.02,1.3113435376592727e-06,-8.109000181214667e-06,8.214347558552672e-06
25.03,1.6187966462756239e-06,-7.946929545735943e-06,8.110128962407693e-06
25.04,1.91824193428827e-06,-7.775310344258551e-06,8.008439490187588e-06
25.05,2.2096005423396755e-06,-7.5946474776063945e-06,7.9095514958701e-06
25.06,2.4928049478544245e-06,-7.405426593077381e-06,7.81373275288483e-06
25.07,2.7677987077811106e-06,-7.208114038022539e-06,7.721244567550778e-06
25.08,3.0345362723144904e-06,-7.003156914589834e-06,7.632340215055913e-06
25.09,3.2929828533266324e-06,-6.790983230132667e-06,7.547263696482741e-06
25.1,3.543114333229358e-06,-6.572002136120922e-06,7.466248807501213e-06
25.11,3.7849172021688597e-06,-6.346604247202202e-06,7.389518502438355e-06
25.12,4.018388513709431e-06,-6.115162031340897e-06,7.3172845316186256e-06
25.13,4.24353585137831e-06,-5.878030261724724e-06,7.249747325230354e-06
25.14,4.4603773005867015e-06,-5.635546521279266e-06,7.187096093492276e-06
25.15,4.668941422364183e-06,-5.388031751164331e-06,7.12950911052248e-06
25.16,4.86926722705677e-06,-5.135790835448404e-06,7.0771541479584106e-06
25.17,5.061404147586596e-06,-4.8791132152275e-06,7.0301890239320324e-06
25.18,5.245412013018126e-06,-4.618273526705569e-06,6.98876223331316e-06
25.19,5.42136102404677e-06,-4.353532259111468e-06,6.953013626060117e-06
25.2,5.5893317325812335e-06,-4.085136429772672e-06,6.923075101910663e-06
25.21,5.749415027888073e-06,-3.8133202751234597e-06,6.899071291382114e-06
25.22,5.901712131759845e-06,-3.5383059578751184e-06,6.881120194975226e-06
25.23,6.046334604933954e-06,-3.260304291984053e-06,6.86933375453191e-06
25.24,6.183404366478383e-06,-2.979515488381828e-06,6.863818332742434e-06
25.25,6.31305372714033e-06,-2.6961299256844686e-06,6.864675078831608e-06
25.26,6.435425436686002e-06,-2.410328951215502e-06,6.872000160376369e-06
25.27,6.550672744095432e-06,-2.122285718687216e-06,6.885884843066901e-06
25.28,6.6589594680685496e-06,-1.8321660697010333e-06,6.906415401953717e-06
25.29,6.760460073708253e-06,-1.5401294669180465e-06,6.9336728494408115e-06
25.3,6.855359749412735e-06,-1.2463299871543934e-06,6.967732466932732e-06
25.31,6.943854475993419e-06,-9.509173828710734e-07,7.00866312878713e-06
25.32,7.026151077792126e-06,-6.540382204037706e-07,7.056526409056255e-06
25.33,7.102467243157611e-06,-3.558371028098294e-07,7.111375463569826e-06
25.34,7.173031499054141e-06,-5.6457984314790646e-08,7.173253682285032e-06
25.35,7.238083121858535e-06,2.4395441803016083e-07,7.242193109618786e-06
25.36,7.297871963619449e-06,5.452531118407308e-07,7.318212633789401e-06
25.37,7.35265817027214e-06,8.472872149950897e-07,7.401315950124261e-06
25.38,7.402711765643926e-06,1.1499002416320188e-06,7.491489307935264e-06
25.39,7.448312072660781e-06,1.4529282949888087e-06,7.588699055972863e-06
25.4,7.4897469411852406e-06,1.7561981785141382e-06,7.692889007727204e-06
25.41,7.527311750532087e-06,2.0595254425770866e-06,7.803977654909116e-06
25.42,7.561308154213411e-06,2.362712390853656e-06,7.921855265331954e-06
25.43,7.592042535090155e-06,2.665546078045041e-06,8.046380909999193e-06
25.44,7.619824141148119e-06,2.967796338854367e-06,8.177379473336251e-06
25.45,7.644962875902585e-06,3.2692138969058496e-06,8.31463870998921e-06
25.46,7.667766723205499e-06,3.569528611215052e-06,8.45790642108202e-06
25.47,7.688538794289403e-06,3.8684479265714665e-06,8.606887831956928e-06
25.48,7.707573995390334e-06,4.1656556021959995e-06,8.761243261690901e-06
25.49,7.725155327364496e-06,4.460810799749211e-06,8.92058618158399e-06
25.5,7.741549844303623e-06,4.753547616457799e-06,9.084481764733146e-06
25.51,7.757004316040955e-06,5.0434751510595196e-06,9.252446031100796e-06
25.52,7.771740659238672e-06,5.330178188683634e-06,9.423945691565836e-06
25.53,7.785951222758356e-06,5.613218584901569e-06,9.598398789644902e-06
25.54,7.799794034377401e-06,5.892137418428098e-06,9.775176230449752e-06
25.55,7.813388136506138e-06,6.166457965809504e-06,9.953604272613532e-06
25.56,7.826809156966822e-06,6.435689529726368e-06,1.0132968040145459e-05
25.57,7.840085275731381e-06,6.699332125431282e-06,1.0312516087627482e-05
25.58,7.853193758128048e-06,6.956881997823508e-06,1.049146602407605e-05
25.59,7.866058227986334e-06,7.207837905817988e-06,1.0669011168923675e-05
25.6,7.878546849138143e-06,7.451708072352823e-06,1.0844328178805396e-05
25.61,7.890471569696645e-06,7.688017659613824e-06,1.101658554756078e-05
25.62,7.90158856003869e-06,7.9163165919571e-06,1.1184952845507647e-05
25.63,7.91159994258281e-06,8.136187516143927e-06,1.1348610529458336e-05
25.64,7.920156870034915e-06,8.347253662344552e-06,1.150676012392219e-05
25.65,7.926863960294814e-06,8.549186352230741e-06,1.1658634548273187e-05
25.66,7.931285042875333e-06,8.741711894463804e-06,1.1803508346129463e-05
25.67,7.932950116253129e-06,8.924617614230618e-06,1.1940707563088375e-05
25.68,7.93136336128241e-06,9.097756782929656e-06,1.206961901842952e-05
25.69,7.926012005910963e-06,9.261052246322252e-06,1.2189698725848607e-05
25.7,7.91637579437437e-06,9.414498593243562e-06,1.2300479237815958e-05
25.71,7.90193678250671e-06,9.55816276023942e-06,1.240157571705951e-05
25.72,7.882189162220566e-06,9.692183027306643e-06,1.2492690575846273e-05
25.73,7.856648813806594e-06,9.81676642295699e-06,1.2573616567494985e-05
25.74,7.824862295065626e-06,9.932184619288057e-06,1.2644238262875387e-05
25.75,7.786415000625112e-06,1.003876845601072e-05,1.2704531895168574e-05
25.76,7.740938261655272e-06,1.0136901283066814e-05,1.275456360654492e-05
25.77,7.688115203064727e-06,1.0227011351846494e-05,1.2794486178287585e-05
25.78,7.627685229152854e-06,1.0309563513005878e-05,1.282453436908096e-05
25.79,7.559447066184044e-06,1.0385050493615914e-05,1.284501902300618e-05
25.8,7.483260348060273e-06,1.0453984027561539e-05,1.2856320137790711e-05
25.81,7.3990457858747896e-06,1.051688610172772e-05,1.2858879104268193e-05
25.82,7.306784010988921e-06,1.0574280557990042e-05,1.2853190339457732e-05
25.83,7.206513222062537e-06,1.0626685259669875e-05,1.2839792538349174e-05
25.84,7.098325797899726e-06,1.0674604993308182e-05,1.2819259763975796e-05
25.85,6.9823640592312015e-06,1.0718525235118275e-05,1.2792192582646294e-05
25.86,6.858815373747173e-06,1.0758906868796493e-05,1.2759209432507443e-05
25.87,6.727906800395508e-06,1.0796181899908659e-05,1.2720938390335968e-05
25.88,6.589899462359118e-06,1.0830750173685471e-05,1.2678009475023626e-05
25.89,6.445082824586704e-06,1.0862977069322624e-05,1.2631047598058195e-05
25.9,6.293769033054655e-06,1.089319211571457e-05,1.2580666242743417e-05
25.91,6.136287450612339e-06,1.0921688451510807e-05,1.2527461926041006e-05
25.92,5.972979500059839e-06,1.0948723036519145e-05,1.24720094707525e-05
25.93,5.804193900358512e-06,1.0974517511541247e-05,1.241485809198335e-05
25.94,5.630282357863424e-06,1.0999259599129339e-05,1.2356528280965776e-05
25.95,5.451595752073261e-06,1.1023104937790273e-05,1.229750945165563e-05
25.96,5.268480835346483e-06,1.1046179245990852e-05,1.223825830120333e-05
25.97,5.081277448731484e-06,1.1068580719037275e-05,1.2179197824357352e-05
25.98,4.8903162416849375e-06,1.1090382570717582e-05,1.2120716913968572e-05
25.99,4.695916872028073e-06,1.1111635641704468e-05,1.206317047475476e-05
26.0,4.498386653905938e-06,1.113237100748595e-05,1.2006879975095644e-05
26.01,4.298019615435929e-06,1.1152602529423975e-05,1.1952134361442982e-05
26.02,4.0950959239780085e-06,1.1172329303073522e-05,1.1899191261715921e-05
26.03,3.889881635058626e-06,1.1191537967743747e-05,1.1848278407355904e-05
26.04,3.682628720680581e-06,1.121020485029591e-05,1.1799595208310304e-05
26.05,3.4735753336743126e-06,1.1228297924182513e-05,1.1753314420745834e-05
26.06,3.2629462665734333e-06,1.1245778571721706e-05,1.1709583853525308e-05
26.07,3.0509535660166065e-06,1.1262603143565628e-05,1.1668528066189147e-05
26.08,2.83779726659093e-06,1.1278724314307552e-05,1.1630250018139047e-05
26.09,2.6236662112052605e-06,1.129409223725488e-05,1.1594832635766723e-05
26.1,2.4087389283465725e-06,1.1308655504684677e-05,1.15623402712672e-05
26.11,2.1931845398183003e-06,1.1322361922457994e-05,1.1532820033661527e-05
26.12,1.9771636757031372e-06,1.133515910983607e-05,1.150630297905542e-05
26.13,1.760829376306042e-06,1.1346994936801325e-05,1.1482805153282765e-05
26.14,1.5443279636178014e-06,1.1357817812176703e-05,1.1462328485687815e-05
26.15,1.3277998674651635e-06,1.1367576836553056e-05,1.1444861537955717e-05
26.16,1.111380393901132e-06,1.1376221834410082e-05,1.143038011641155e-05
26.17,8.952004255758028e-07,1.1383703280003912e-05,1.1418847760134248e-05
26.18,6.793870458402522e-07,1.138997213161776e-05,1.1410216120524835e-05
26.19,4.640640801414592e-07,1.139497958868007e-05,1.1404425250617102e-05
26.2,2.4935254995282247e-07,1.1398676786029385e-05,1.1401403824377642e-05
26.21,3.537103602141259e-08,1.1401014439396723e-05,1.1401069307636095e-05
26.22,-1.7776405085055374e-07,1.1401942455815009e-05,1.140332810294835e-05
26.23,-3.8993829191980457e-07,1.1401409522366283e-05,1.1408075690852067e-05
26.24,-6.01039174626169e-07,1.1399362686264052e-05,1.1415196789474305e-05
26.25,-8.109560965896324e-07,1.1395746938854006e-05,1.1424565553446501e-05
26.26,-1.0195804561027487e-06,1.1390504815629187e-05,1.1436045831551148e-05
26.27,-1.2268058244830339e-06,1.1383576023785132e-05,1.1449491500511331e-05
26.28,-1.432528194464704e-06,1.1374897108205232e-05,1.1464746889931415e-05
26.29,-1.6366462975644999e-06,1.1364401165973421e-05,1.1481647310578288e-05
26.3,-1.8390619822102535e-06,1.1352017618615872e-05,1.1500019695103841e-05
26.31,-2.0396806432765545e-06,1.1337672050188992e-05,1.1519683356941447e-05
26.32,-2.2384116926501733e-06,1.1321286118095244e-05,1.1540450869596435e-05
26.33,-2.435169059540077e-06,1.130277754209703e-05,1.1562129064954876e-05
26.34,-2.6298717084991335e-06,1.1282060175391476e-05,1.1584520145621852e-05
26.35,-2.822444162607888e-06,1.125904415990345e-05,1.1607422902853816e-05
26.36,-3.012817018989143e-06,1.1233636166072582e-05,1.1630634028358236e-05
26.37,-3.200927443864243e-06,1.1205739715498153e-05,1.1653949505312605e-05
26.38,-3.386719634668624e-06,1.1175255582852498e-05,1.1677166061417723e-05
26.39,-3.5701452374483748e-06,1.11420822715662e-05,1.1700082664785968e-05
26.4,-3.7511637087331314e-06,1.1106116556010405e-05,1.1722502042030316e-05
26.41,-3.929742612397219e-06,1.1067254081282007e-05,1.1744232197097593e-05
26.42,-4.105857843616075e-06,1.10253900103502e-05,1.1765087909247158e-05
26.43,-4.279493773796264e-06,1.0980419707263564e-05,1.1784892189053875e-05
26.44,-4.4506433123393364e-06,1.093223944441661e-05,1.1803477672437444e-05
26.45,-4.619307883113632e-06,1.0880747121538488e-05,1.1820687934374371e-05
26.46,-4.785497315530946e-06,1.0825842984135317e-05,1.183637870609528e-05
26.47,-4.9492296520629095e-06,1.0767430329505629e-05,1.185041898202829e-05
26.48,-5.110530875803405e-06,1.0705416189232713e-05,1.1862692005494612e-05
26.49,-5.269434563213243e-06,1.0639711978069599e-05,1.1873096124948372e-05
26.5,-5.4259814684713725e-06,1.0570234100398411e-05,1.1881545515353638e-05
26.51,-5.580219046787339e-06,1.0496904506827778e-05,1.18879707618916e-05
26.52,-5.732200924701872e-06,1.0419651194971969e-05,1.1892319305586855e-05
26.53,-5.881986325705186e-06,1.0338408649898381e-05,1.189455575244727e-05
26.54,-6.029639459592176e-06,1.0253118221118231e-05,1.1894662049377346e-05
26.55,-6.175228883767105e-06,1.0163728434244904e-05,1.1892637531346437e-05
26.56,-6.318826844365118e-06,1.00701952365325e-05,1.1888498845142355e-05
26.57,-6.460508604572385e-06,9.972482176400184e-06,1.1882279755517169e-05
26.58,-6.600351766982428e-06,9.87056051775459e-06,1.1874030839717565e-05
26.59,-6.73843559625794e-06,9.764409290440683e-06,1.186381907634133e-05
26.6,-6.874840347873349e-06,9.654015278525103e-06,1.1851727334306314e-05
26.61,-7.009646608240151e-06,9.539372948345261e-06,1.1837853767471282e-05
26.62,-7.142934651188312e-06,9.420484318461237e-06,1.1822311120314876e-05
26.63,-7.274783815493754e-06,9.29735877374998e-06,1.1805225949976373e-05
26.64,-7.40527190798653e-06,9.170012826043504e-06,1.178673777009639e-05
26.65,-7.534474636669819e-06,9.038469823899936e-06,1.1766998122213267e-05
26.66,-7.662465078214346e-06,8.902759614331187e-06,1.1746169580991957e-05
26.67,-7.789313184144357e-06,8.762918159646193e-06,1.1724424700314387e-05
26.68,-7.91508532995241e-06,8.618987112983935e-06,1.1701944908185605e-05
26.69,-8.0398439112222e-06,8.471013356576645e-06,1.1678919359432044e-05
26.7,-8.163646990632335e-06,8.31904850732184e-06,1.1655543756291857e-05
26.71,-8.286547999342302e-06,8.163148394789772e-06,1.1632019148056916e-05
26.72,-8.408595495823298e-06,8.003372517355405e-06,1.1608550721943702e-05
26.73,-8.529832984579131e-06,7.839783482618408e-06,1.1585346598145028e-05
26.74,-8.650298796525947e-06,7.672446438748e-06,1.1562616642639119e-05
26.75,-8.770026031978699e-06,7.501428503663448e-06,1.1540571311558127e-05
26.76,-8.889042566323068e-06,7.326798199197584e-06,1.151942054088088e-05
26.77,-9.007371117510107e-06,7.148624897423762e-06,1.1499372694743927e-05
26.78,-9.125029373619512e-06,6.966978286214247e-06,1.1480633584868027e-05
26.79,-9.242030177763406e-06,6.781927860866339e-06,1.1463405572371787e-05
26.8,-9.358381766808917e-06,6.5935424482009004e-06,1.1447886761737676e-05
26.81,-9.474088059555078e-06,6.401889769032781e-06,1.1434270294822084e-05
26.82,-9.589148989370462e-06,6.2070360442585084e-06,1.1422743750739962e-05
26.83,-9.70356087571181e-06,6.009045649085074e-06,1.1413488655158562e-05
26.84,-9.817316828529316e-06,5.807980819148082e-06,1.1406680100156966e-05
26.85,-9.930407179263291e-06,5.603901411457972e-06,1.1402486473366438e-05
26.86,-1.0042819931979402e-05,5.396864722302984e-06,1.1401069292702383e-05
26.87,-1.0154541228123843e-05,5.18692536344575e-06,1.1402583140658247e-05
26.88,-1.0265555818494236e-05,4.974135197203281e-06,1.1407175690006595e-05
26.89,-1.0375847536110783e-05,4.7585433303244895e-06,1.1414987810733392e-05
26.9,-1.0485399763982141e-05,4.540196165937026e-06,1.142615374637091e-05
26.91,-1.0594195891994341e-05,4.319137512325956e-06,1.144080134642373e-05
26.92,-1.0702219757501396e-05,4.095408746823074e-06,1.1459052340460279e-05
26.93,-1.0809456064550287e-05,3.869049032736852e-06,1.1481022638648743e-05
26.94,-1.0915890777003703e-05,3.640095586921384e-06,1.150682264299746e-05
26.95,-1.1021511481158282e-05,3.4085839954005313e-06,1.153655755340407e-05
26.96,-1.1126307713766375e-05,3.174548574252088e-06,1.1570327652737544e-05
26.97,-1.1230271251618424e-05,2.938022772879332e-06,1.1608228555593001e-05
26.98,-1.1333396359063932e-05,2.6990396166930344e-06,1.1650351406035874e-05
26.99,-1.1435679989983075e-05,2.457632186179517e-06,1.1696783010548021e-05
27.0,-1.1537121940832989e-05,2.2138341292785073e-06,1.1747605893526063e-05
27.01,-1.1637724951383165e-05,1.9676802039145835e-06,1.1802898263940243e-05
27.02,-1.1737494749749776e-05,1.7192068474381783e-06,1.18627338832447e-05
27.03,-1.183644003819699e-05,1.4684527695667075e-06,1.192718182615998e-05
27.04,-1.193457241608042e-05,1.2154595651941751e-06,1.1996306127691542e-05
27.05,-1.20319062360458e-05,9.602723431054339e-07,1.2070165311458288e-05
27.06,-1.2128458389465428e-05,7.029403662208947e-07,1.2148811796363343e-05
27.07,-1.222424801686338e-05,4.435176983891657e-07,1.2232291180583166e-05
27.08,-1.231929613888238e-05,1.8206385208735634e-07,1.2320641403909102e-05
27.09,-1.2413625203341126e-05,-8.135556953123808e-08,1.2413891791767792e-05
27.1,-1.2507258543824519e-05,-3.466682437787027e-07,1.2512061986471935e-05
27.11,-1.2600219745523616e-05,-6.137945215156492e-07,1.2615160773851669e-05
27.12,-1.2692531914331752e-05,-8.826468522446051e-07,1.2723184816000565e-05
27.13,-1.2784216845866684e-05,-1.1531292527188835e-06,1.2836117303749509e-05
27.14,-1.287529409197825e-05,-1.425136832142427e-06,1.295392654546331e-05
27.15,-1.2965779923594695e-05,-1.6985553885731767e-06,1.307656451194817e-05
27.16,-1.3055686190420362e-05,-1.973261092749057e-06,1.3203965360560825e-05
27.17,-1.3145019080102299e-05,-2.2491202769667404e-06,1.333604396500388e-05
27.18,-1.3233777782047408e-05,-2.5259893479468846e-06,1.3472694480709964e-05
27.19,-1.3321953064087248e-05,-2.803714843585003e-06,1.3613788979041892e-05
27.2,-1.3409525773714634e-05,-3.0821336540194902e-06,1.3759176186718323e-05
27.21,-1.3496465279453101e-05,-3.3610734275124407e-06,1.3908680369632962e-05
27.22,-1.358272787222774e-05,-3.640353180930037e-06,1.4062100402603439e-05
27.23,-1.3668255151079701e-05,-3.919784133213501e-06,1.4219209068229114e-05
27.24,-1.375297242219018e-05,-4.199170777821119e-06,1.4379752628846938e-05
27.25,-1.3836787144715874e-05,-4.47831220678071e-06,1.454345071534179e-05
27.26,-1.3919587461236691e-05,-4.757003694538241e-06,1.4709996575148079e-05
27.27,-1.400124085437479e-05,-5.035038544229542e-06,1.4879057718958242e-05
27.28,-1.4081592974163345e-05,-5.3122101923942086e-06,1.5050277001377195e-05
27.29,-1.4160466682668907e-05,-5.5883145605425295e-06,1.5223274164861769e-05
27.3,-1.4237661363061553e-05,-5.863152633545249e-06,1.53976478688618e-05
27.31,-1.4312952539326625e-05,-6.136533235789478e-06,1.5572978216993864e-05
27.32,-1.43860918501579e-05,-6.408275966703057e-06,1.5748829784673006e-05
27.33,-1.445680741586239e-05,-6.6782142479767175e-06,1.5924755137873014e-05
27.34,-1.4524804630429585e-05,-6.946198426056638e-06,1.6100298821025045e-05
27.35,-1.458976740223492e-05,-7.212098865632293e-06,1.6275001778770144e-05
27.36,-1.4651359856259951e-05,-7.475808963477328e-06,1.6448406162787738e-05
27.37,-1.4709228498521822e-05,-7.7372480074811e-06,1.662006046171303e-05
27.38,-1.4763004829945936e-05,-7.99636380352174e-06,1.6789524879736166e-05
27.39,-1.4812308382670298e-05,-8.253134993306049e-06,1.695637687836224e-05
27.4,-1.4856750137314349e-05,-8.507572989624047e-06,1.7120216786488733e-05
27.41,-1.489593626571168e-05,-8.759723461815373e-06,1.728067337691512e-05
27.42,-1.4929472130710018e-05,-9.009667313491768e-06,1.7437409303031486e-05
27.43,-1.4956966463410477e-05,-9.25752110653642e-06,1.759012628793645e-05
27.44,-1.4978035629518783e-05,-9.503436899688477e-06,1.7738569959990986e-05
27.45,-1.4992307890512701e-05,-9.747601486123746e-06,1.7882534233609376e-05
27.46,-1.4999427562774407e-05,-9.990235031706881e-06,1.802186514208948e-05
27.47,-1.499905897874234e-05,-1.0231589133197381e-05,1.815646404006997e-05
27.48,-1.4990890158615239e-05,-1.0471944333025543e-05,1.828629010657036e-05
27.49,-1.4974636109058933e-05,-1.0711607143291906e-05,1.8411362094938926e-05
27.5,-1.4950041676353267e-05,-1.0950906645909694e-05,1.8531759292957826e-05
27.51,-1.4916883895036372e-05,-1.1190190747467617e-05,1.8647621674162777e-05
27.52,-1.48749737886581e-05,-1.142982217604949e-05,1.8759149239487865e-05
27.53,-1.4824157596146335e-05,-1.1670174312545511e-05,1.8866600566095107e-05
27.54,-1.4764317414532022e-05,-1.1911626950780688e-05,1.8970290596920713e-05
27.55,-1.4695371265880466e-05,-1.2154562079090482e-05,1.9070587719746072e-05
27.56,-1.461727261225508e-05,-1.2399359771026709e-05,1.916791019783685e-05
27.57,-1.4530009356885121e-05,-1.2646394265035462e-05,1.9262722025142006e-05
27.58,-1.4433602381877924e-05,-1.2896030302674215e-05,1.9355528287433635e-05
27.59,-1.4328103682409227e-05,-1.314861978290765e-05,1.94468701165339e-05
27.6,-1.421359416408479e-05,-1.3404498776715309e-05,1.9537319327795905e-05
27.61,-1.409018117405829e-05,-1.3663984932485344e-05,1.9627472831543372e-05
27.62,-1.3957995837576362e-05,-1.3927375288958005e-05,1.9717946907355163e-05
27.63,-1.3817190270059462e-05,-1.4194944499374743e-05,1.980937142615472e-05
27.64,-1.3667934730948538e-05,-1.4466943458582075e-05,1.9902384099481147e-05
27.65,-1.3510414779754857e-05,-1.4743598314385288e-05,1.9997624828388074e-05
27.66,-1.3344828487401263e-05,-1.5025109835763032e-05,2.009573021651364e-05
27.67,-1.317138374758964e-05,-1.531165310390178e-05,2.0197328303528006e-05
27.68,-1.2990295723922957e-05,-1.5603377487234223e-05,2.0303033566541204e-05
27.69,-1.2801784459384307e-05,-1.5900406858991932e-05,2.041344222873769e-05
27.7,-1.2606072665802946e-05,-1.6202840014901992e-05,2.0529127906562748e-05
27.71,-1.2403383702543249e-05,-1.6510751249456414e-05,2.0650637619549232e-05
27.72,-1.2193939746118662e-05,-1.682419105146928e-05,2.0778488180527266e-05
27.73,-1.1977960145827376e-05,-1.7143186883096927e-05,2.0913162978464435e-05
27.74,-1.1755659955197424e-05,-1.7467744010859012e-05,2.105510916170071e-05
27.75,-1.1527248624919892e-05,-1.779784636220832e-05,2.120473522573412e-05
27.76,-1.1292928840141047e-05,-1.8133457386532414e-05,2.13624090068905e-05
27.77,-1.1052895483475244e-05,-1.8474520904884365e-05,2.1528456081048563e-05
27.78,-1.08073347047833e-05,-1.882096193800089e-05,2.1703158564893077e-05
27.79,-1.0556423079543525e-05,-1.917268750698405e-05,2.1886754315676443e-05
27.8,-1.0300326839395512e-05,-1.9529587405320977e-05,2.207943652407016e-05
27.81,-1.0039201160971256e-05,-1.9891534944343942e-05,2.2281353692998608e-05
27.82,-9.773189502269477e-06,-2.0258387676915386e-05,2.2492609993406e-05
27.83,-9.502422979362236e-06,-2.0629988105700718e-05,2.271326598532374e-05
27.84,-9.227019779876286e-06,-2.1006164383043647e-05,2.29433396894541e-05
27.85,-8.947084613344112e-06,-2.138673100899973e-05,2.3182807990613424e-05
27.86,-8.662708201773539e-06,-2.177148953273187e-05,2.343160834989626e-05
27.87,-8.37396681663341e-06,-2.2160229260098086e-05,2.3689640797322888e-05
27.88,-8.08092187042258e-06,-2.2552727967274962e-05,2.395677017132694e-05
27.89,-7.78361957216465e-06,-2.2948752616547898e-05,2.423282856580508e-05
27.9,-7.482090656270344e-06,-2.334806006643486e-05,2.4517617940054824e-05
27.91,-7.176350193096217e-06,-2.3750397764192445e-05,2.4810912841959477e-05
27.92,-6.866397487370622e-06,-2.4155504404795877e-05,2.5112463190708366e-05
27.93,-6.552216067233231e-06,-2.4563110537055907e-05,2.5421997062531025e-05
27.94,-6.23377376226101e-06,-2.497293909476168e-05,2.573922342165222e-05
27.95,-5.911022863542072e-06,-2.5384705829024093e-05,2.6063834739335787e-05
27.96,-5.5839003529224346e-06,-2.5798119617542287e-05,2.6395509446729523e-05
27.97,-5.2523281822298174e-06,-2.62128826273887e-05,2.673391417228502e-05
27.98,-4.916213576928427e-06,-2.6628690310404006e-05,2.7078705722049928e-05
27.99,-4.575449332579027e-06,-2.7045231214272222e-05,2.742953277087385e-05
28.0,-4.229914067118733e-06,-2.7462186597926874e-05,2.778603724453279e-05
28.01,-3.8794723875749615e-06,-2.787922984686152e-05,2.8147855386513743e-05
28.02,-3.5239749268568356e-06,-2.8296025692093355e-05,2.851461851844985e-05
28.03,-3.1632582048920132e-06,-2.871222924564055e-05,2.8885953519401656e-05
28.04,-2.797144268892267e-06,-2.9127484875051796e-05,2.9261483065753316e-05
28.05,-2.425440070181505e-06,-2.9541424949475443e-05,2.964082568990837e-05
28.06,-2.0479365396981017e-06,-2.995366849947285e-05,3.002359573147331e-05
28.07,-1.6644073312476582e-06,-3.0363819841803072e-05,3.0409403268557985e-05
28.08,-1.2746072105359255e-06,-3.0771467228403496e-05,3.079785412865417e-05
28.09,-8.782700790151523e-07,-3.117618158510391e-05,3.118855008747706e-05
28.1,-4.751066340513674e-07,-3.157751540998326e-05,3.1581089369770795e-05
28.11,-6.480168092876468e-08,-3.197500190322641e-05,3.197506756785955e-05
28.12,3.52988873095962e-07,-3.236815439951341e-05,3.237007909127299e-05
28.13,7.786412973470254e-07,-3.275646617011189e-05,3.276571925387292e-05
28.14,1.212567528652719e-06,-3.313941065479241e-05,3.316158709348079e-05
28.15,1.6552188005502403e-06,-3.351644217332152e-05,3.355728900306609e-05
28.16,2.1070893243370238e-06,-3.388699715272759e-05,3.395244323240527e-05
28.17,2.5687199256492455e-06,-3.425049588993384e-05,3.43466852951315e-05
28.18,3.04070153345014e-06,-3.4606344850233574e-05,3.473967428904327e-05
28.19,3.5236784152461867e-06,-3.4953939480794106e-05,3.513110010803944e-05
28.2,4.018351053655704e-06,-3.529266749590821e-05,3.552069149336977e-05
28.21,4.525478565499823e-06,-3.5621912567800294e-05,3.590822484104174e-05
28.22,5.045880575606753e-06,-3.5941058334479324e-05,3.6293533652508013e-05
28.23,5.580438473489774e-06,-3.624949261575052e-05,3.6676518488751844e-05
28.24,6.1300960017248995e-06,-3.6546611710736534e-05,3.7057157264497616e-05
28.25,6.695859149594232e-06,-3.683182463690773e-05,3.743551570147162e-05
28.26,7.278795353499277e-06,-3.710455716187641e-05,3.781175774778365e-05
28.27,7.880032035776488e-06,-3.73642554765639e-05,3.818615576623025e-05
28.28,8.500754544352912e-06,-3.761038936175569e-05,3.855910029767554e-05
28.29,9.14220358592686e-06,-3.784245471006189e-05,3.893110921730357e-05
28.3,9.805672273401481e-06,-3.8059975281445626e-05,3.930283612104356e-05
28.31,1.0492502932785465e-05,-3.82625035923333e-05,3.9675077806449606e-05
28.32,1.1204083834458689e-05,-3.844962086487445e-05,4.0048780745762624e-05
28.33,1.1941846027546635e-05,-3.862093599295542e-05,4.0425046487513044e-05
28.34,1.2707260463673388e-05,-3.877608351359639e-05,4.080513596528062e-05
28.35,1.3501835597035939e-05,-3.891472060485069e-05,4.119047273633769e-05
28.36,1.4327115642102107e-05,-3.9036523162612424e-05,4.1582645217053514e-05
28.37,1.5184679658541421e-05,-3.914118103743177e-05,4.1983408024331825e-05
28.38,1.6076141616412336e-05,-3.922839253711785e-05,4.2394682571251176e-05
28.39,1.7003151574225894e-05,-3.929785832078555e-05,4.281855709919047e-05
28.4,1.7967398079732883e-05,-3.934927482428893e-05,4.325728635678627e-05
28.41,1.8970611879693383e-05,-3.938232736551072e-05,4.371329115742966e-05
28.42,2.0014571001844554e-05,-3.939668308087836e-05,4.418915806126028e-05
28.43,2.110110725116538e-05,-3.939198384227786e-05,4.4687639434808645e-05
28.44,2.223211414466412e-05,-3.936783929686124e-05,4.5211654141878805e-05
28.45,2.3409556294839904e-05,-3.9323820162336527e-05,4.576428911368626e-05
28.46,2.463548024285521e-05,-3.9259451898133034e-05,4.6348802035629036e-05
28.47,2.5912026737978427e-05,-3.917420885965905e-05,4.6968625373220136e-05
28.48,2.7241444460911335e-05,-3.906750902992194e-05,4.762737194219254e-05
28.49,2.8626105194078336e-05,-3.893870941118019e-05,4.8328842208258736e-05
28.5,3.006852045243453e-05,-3.878710215009761e-05,4.907703348207368e-05
28.51,3.1571359602491834e-05,-3.861191146393565e-05,4.987615115512281e-05
28.52,3.313746951513572e-05,-3.841229143352164e-05,5.073062210381763e-05
28.53,3.4769895818158e-05,-3.818732473154734e-05,5.164511037221441e-05
28.54,3.6471905837095536e-05,-3.793602236277824e-05,5.262453522929371e-05
28.55,3.824701333687253e-05,-3.765732450638764e-05,5.3674091684632056e-05
28.56,4.009900520152357e-05,-3.735010257027362e-05,5.47992735368068e-05
28.57,4.203197021417874e-05,-3.701316259305259e-05,5.600589902166875e-05
28.58,4.4050330123913774e-05,-3.664525016205096e-05,5.7300139122563056e-05
28.59,4.615887320956148e-05,-3.624505705519242e-05,5.868854860115836e-05
28.6,4.836279057243909e-05,-3.581122986178754e-05,6.017809980522306e-05
28.61,5.0667715409462114e-05,-3.534238089254409e-05,6.17762193078203e-05
28.62,5.3079765534715234e-05,-3.483710175296776e-05,6.349082743016483e-05
28.63,5.560558943002857e-05,-3.4293980028003376e-05,6.533038069705396e-05
28.64,5.8252416112760165e-05,-3.371161960971938e-05,6.730391726849616e-05
28.65,6.102810910984503e-05,-3.308866529538291e-05,6.942110538267904e-05
28.66,6.394122482019954e-05,-3.2423832391434423e-05,7.16922948332325e-05
28.67,6.700107552985625e-05,-3.171594218077303e-05,7.412857148611216e-05
28.68,7.021779731385384e-05,-3.096396424767823e-05,7.674181481787458e-05
28.69,7.36024230121214e-05,-3.016706680753881e-05,7.95447584258433e-05
28.7,7.716696039955396e-05,-2.9324676358630316e-05,8.255105342056358e-05
28.71,8.092447557899569e-05,-2.8436548160827917e-05,8.577533456092464e-05
28.72,8.48891815034512e-05,-2.750284925180758e-05,8.923328893016067e-05
28.73,8.90765313748458e-05,-2.6524255934841366e-05,9.294172687588098e-05
28.74,9.350331646278114e-05,-2.550206791221471e-05,9.691865484692928e-05
28.75,9.818776762977597e-05,-2.4438341492610233e-05,0.00010118334965313371
28.76,0.00010314965952885645,-2.3336044565954373e-05,0.00010575643354852325
28.77,0.00010841041604445391,-2.2199236308875688e-05,0.00011065994939285349
28.78,0.0001139932150657816,-2.1033274851065125e-05,0.0001159174349784966
28.79,0.00011992309009989896,-1.9845056385611285e-05,0.00012155399541790707
28.8,0.0001262270255355768,-1.8643289430540824e-05,0.00012759637226955188
28.81,0.00013293404154453433,-1.7438808125418385e-05,0.0001340730078360262
28.82,0.00014007526363930424,-1.6244928550927828e-05,0.00014101410279559041
28.83,0.0001476839707843196,-1.5077852061673159e-05,0.00014845166502743397
28.84,0.00015579561466819066,-1.3957119483794837e-05,0.00015641954716123004
28.85,0.0001644478012836727,-1.2906119705942197e-05,0.00016495347002381736
28.86,0.00017368022432749034,-1.1952655629176763e-05,0.00017409102877241278
28.87,0.00018353453813206772,-1.11295695758876e-05,0.00018387167809724242
28.88,0.00019405415589549658,-1.0475429017526583e-05,0.00019433669245259613
28.89,0.0002052839569186337,-1.0035271784266975e-05,0.00020552909684021762
28.9,0.0002172698844444742,-9.861407677030236e-06,0.00021749356323323173
28.91,0.000230058413602793,-1.0014270520806713e-05,0.00023027626730407467
28.92,0.00024369586700207082,-1.0563311079288189e-05,0.00024392469972278082
28.93,0.00025822755382489234,-1.1587916805250276e-05,0.00025848742594229425
28.94,0.00027369670705775493,-1.317833904576857e-05,0.000274013788109766
28.95,0.00029014319295221934,-1.5436601999529818e-05,0.0002905535425662552
28.96,0.00030760196725237727,-1.847736041195369e-05,0.00030815642635733856
28.97,0.0003261012544618892,-2.2428664720509802e-05,0.0003268716463120698
28.98,0.0003456604298412452,-2.743258323049167e-05,0.0003467472846046992
28.99,0.0003662875893360075,-3.364562110371131e-05,0.0003678296153398176
29.0,0.00038797680068096554,-4.123886579434066e-05,0.00039016232765176254
29.01,0.00041070503994189287,-5.039777852722951e-05,0.0004137856521366485
29.02,0.00043442883215234166,-6.132154210860748e-05,0.00043873538919470033
29.03,0.0004590806328017476,-7.422186760310448e-05,0.0004650418401005932
29.04,0.0004845650089187901,-8.932115721292926e-05,0.0004927286443817976
29.05,0.0005107547043454897,-0.00010684991925472004,0.0005218115303975073
29.06,0.0005374867031926637,-0.00012704333481719767,0.0005522969898798954
29.07,0.0005645584377111891,-0.000150136885975774,0.0005841808916092696
29.08,0.0005917243207393891,-0.00017636097385324487,0.0006174470542912617
29.09,0.0006186928167933114,-0.00020593448275985633,0.0006520658039962006
29.1,0.0006451242974613321,-0.00023905728528701465,0.0006879925470699334
29.11,0.0006706299531605903,-0.0002759017332651248,0.000725166395039701
29.12,0.0006947720510855273,-0.00031660324094568267,0.0007635088834760866
29.13,0.0007170658344902694,-0.00036125013871869113,0.0008029228317326018
29.14,0.0007369833472815547,-0.00040987305605356435,0.0008432913946252582
29.15,0.0007539594363857771,-0.000462434177727721,0.0008844773600527444
29.16,0.0007674001291862857,-0.0005188168029106056,0.0009263227478894762
29.17,0.0007766935022878118,-0.0005788157159823311,0.0009686487648080937
29.18,0.0007812230503558381,-0.0006421289435556882,0.0010112561666359443
29.19,0.0007803834313764289,-0.0007083515156483284,0.001053926074109628
29.2,0.0007735983115866862,-0.0007769718617292639,0.0010964212792575717
29.21,0.0007603398666430041,-0.000847371446455831,0.0011384880680425898
29.22,0.0007401493253424139,-0.0009188281789319015,0.0011798585704245
29.23,0.0007126577810157888,-0.0009905240095353298,0.0012202536319586572
29.24,0.0006776063580627961,-0.0010615569597304238,0.0012593861819311925
29.25,0.0006348647222363658,-0.001130957617256662,0.0012969650525635316
29.26,0.0005844468777491161,-0.0011977098810683432,0.0013326991829064184
29.27,0.0005265232141831547,-0.0012607754717375572,0.0013663021207656893
29.28,0.00046142785952335195,-0.0013191214523022307,0.0013974967175160908
29.29,0.00038966056469173684,-0.0013717497533212986,0.0014260198951672892
29.3,0.0003118825852247924,-0.001417727486858764,0.0014516273536832264
29.31,0.000228906325459142,-0.0014562166887117983,0.0014740980802911184
29.32,0.0001416788511446778,-0.0014865020642493966,0.0014932385220986608
29.33,5.125973359272312e-05,-0.0015080153425417301,0.00150888628916471
29.34,-4.12059654270234e-05,-0.0015203549700694109,0.0015209132672843423
29.35,-0.00013451845228714516,-0.0015233000943694615,0.001529228037773222
29.36,-0.00022745634716404302,-0.001516818085799273,0.0015337775246993875
29.37,-0.0003188107066354147,-0.0015010652006309008,0.0015345478171795298
29.38,-0.00040741836000871104,-0.0014763803735664345,0.0015315641441103118
29.39,-0.000492193048185636,-0.0014432725121237527,0.0015248900094545427
29.4,-0.0005721530058193699,-0.0014024020189559914,0.0015146255262737324
29.41,-0.0006464438653012944,-0.001354557564133832,0.0015009050154949374
29.42,-0.0007143560632847102,-0.0013006293468502586,0.0014838939594997208
29.43,-0.0007753362707921173,-0.0012415802119240416,0.0014637854198779189
29.44,-0.0008289927183100269,-0.001178416016736759,0.0014407960423018858
29.45,-0.0008750946205998985,-0.001112156583357475,0.0014151617790585825
29.46,-0.0009135661988310926,-0.0010438084306184522,0.001387133461306751
29.47,-0.0009444760323268329,-0.00097434027949844,0.0013569723489787605
29.48,-0.0009680226377235711,-0.000904662083370841,0.0013249457770920933
29.49,-0.0009845172657401945,-0.000835608074454586,0.0012913230039901906
29.5,-0.0009943649276289177,-0.0007679240598456712,0.0012563713507511706
29.51,-0.0009980446226775927,-0.0007022589625046164,0.001220352702817394
29.52,-0.0009960896466506793,-0.0006391603979806579,0.001183520425895332
29.53,-0.0009890687327239011,-0.0005790739152208061,0.0011461167293697519
29.54,-0.000977568625771993,-0.0005223454135354306,0.0011083704927212935
29.55,-0.0009621785314527813,-0.0004692261774697186,0.0010704955544099538
29.56,-0.0009434767252020349,-0.0004198799433414067,0.0010326894488752844
29.57,-0.0009220194623193595,-0.0003743914195049017,0.000995132565990369
29.58,-0.0008983322053500268,-0.0003327757195205523,0.0009579876986013254
29.59,-0.000872903082810048,-0.0002949882253697293,0.0009213999376416669
29.6,-0.0008461784154028796,-0.0002609344689331511,0.0008854968705597745
29.61,-0.000818560091707222,-0.00023047969721041032,0.000850389037183534
29.62,-0.0007904045428645677,-0.00020345786442275857,0.0008161705973486278
29.63,-0.0007620230520953514,-0.00017967986774128448,0.0007829201662980971
29.64,-0.0007336831364397959,-0.00015894090976526065,0.0007507017766684352
29.65,-0.0007056107513585962,-0.00014102692811665508,0.0007195659294928178
29.66,-0.000677993090293396,-0.0001257200797160519,0.0006895507007678257
29.67,-0.0006509817779099787,-0.00011280330441618845,0.0006606828745003522
29.68,-0.0006246962849215901,-0.0001020640202357852,0.0006329790775543274
29.69,-0.0005992274220480306,-9.329702143418231e-05,0.0006064468958967627
29.7,-0.0005746407992363466,-8.630666229110467e-05,0.0005810859558643781
29.71,-0.0005509801626734892,-8.09084150013353e-05,0.0005568889577624367
29.72,-0.0005282705456712066,-7.692989084107931e-05,0.000533842652406657
29.73,-0.0005065211898583244,-7.421141089622435e-05,0.0005119287541081287
29.74,-0.0004857282101892739,-7.260620722385132e-05,0.0004911247860789642
29.75,-0.00046587699117257907,-7.198032823541313e-05,0.00047140485631449867
29.76,-0.00044694431267533724,-7.221231408158689e-05,0.00045274036371616724
29.77,-0.00042890021197911803,-7.319269945784361e-05,0.00043510063558866303
29.78,-0.00041170959480069384,-7.482339296639221e-05,0.00041845349871396064
29.79,-0.00039533361210558865,-7.701697427851006e-05,0.00040276578701209056
29.8,-0.0003797308220791731,-7.96959430402035e-05,0.0003880037893809698
29.81,-0.00036485815789803554,-8.279194688011082e-05,0.00037413364170166106
29.82,-0.0003506717222485753,-8.624501006533486e-05,0.0003611216672341216
29.83,-0.000337127429113701,-9.000277931785412e-05,0.0003489346697388378
29.84,-0.0003241815124039063,-9.401979902571271e-05,0.00033754018367198804
29.85,-0.0003117909197100094,-9.825682450726119e-05,0.0003269066857313632
29.86,-0.00029991360794521914,-0.00010268017905459243,0.0003170037719040607
29.87,-0.00028850875602424157,-0.00010726115811809363,0.0003078023039931476
29.88,-0.0002775369080825532,-0.00011197548212988502,0.0002992745293977484
29.89,-0.0002669600591269175,-0.00011680279802625495,0.00029139417769716915
29.9,-0.000256741693471038,-0.00012172622845293755,0.0002841365373544085
29.91,-0.0002468467848751901,-0.00012673196686076833,0.0002774785156144837
29.92,-0.00023724176599282528,-0.00013180891616843677,0.00027139868443471215
29.93,-0.00022789447353659738,-0.00013694836833630554,0.00026587731505056856
29.94,-0.00021877407451346867,-0.00014214372201938773,0.0002608964035565644
29.95,-0.00020985097794036422,-0.00014739023541306183,0.00025643968966921834
29.96,-0.00020109673562982854,-0.00015268481144411849,0.0002524926706395637
29.97,-0.00019248393492356374,-0.00015802581256710142,0.00024904261209911726
29.98,-0.00018398608563821827,-0.00016341290258278153,0.00024607855745473526
29.99,-0.00017557750296406184,-0.00016884691308682054,0.0002435913372968002
30.0,-0.00016723318761213048,-0.00017432973237029625,0.00024157358015149992
30.01,-0.0001589287041291105,-0.00017986421481907728,0.0002400197257906973
30.02,-0.00015064005798343975,-0.00018545410909298328,0.0002389260422154233
30.03,-0.00014234357176045248,-0.00019110400359857228,0.00023829064734673538
30.04,-0.00013401576058314898,-0.00019681928800303336,0.0002381135363953526
30.05,-0.0001256332066895111,-0.00020260612976586914,0.0002383966158354468
30.06,-0.00011717243294233431,-0.00020847146489086103,0.00023914374488028602
30.07,-0.00010860977491682647,-0.00021442300232326272,0.0002403607853473724
30.08,-9.992125110121573e-05,-0.00022046924163693197,0.00024205566080882324
30.09,-9.108243065068665e-05,-0.00022661950387533865,0.00024423842594878837
30.1,-8.206829805346674e-05,-0.00023288397563051745,0.00024692134709430874
30.11,-7.285311399561761e-05,-0.00023927376666961286,0.00025011899495064907
30.12,-6.341027164657007e-05,-0.0002458009816499894,0.00025384835065524896
30.13,-5.371214752848482e-05,-0.0002524788067079822,0.00025812892636976653
30.14,-4.3729946078477306e-05,-0.00025932161196485555,0.0002629829017561363
30.15,-3.343353696218264e-05,-0.0002663450712724771,0.0002684352778323716
30.16,-2.2791284150632273e-05,-0.0002735663008262176,0.0002745140498790097
30.17,-1.1769865730551062e-05,-0.0002810040186087229,0.0002812504012682767
30.18,-3.3408338108572415e-07,-0.00028867872700381067,0.00028867892031848494
30.19,1.1553339578413246e-05,-0.00029661292134129495,0.0002968378425370178
30.2,2.3931972682942513e-05,-0.0003048313276119206,0.00030576932091062235
30.21,3.684390647474775e-05,-0.0003133611731345666,0.0003155197272320572
30.22,5.033399541183899e-05,-0.0003222324945800336,0.00032613998782331244
30.23,6.445011658137431e-05,-0.000331478488467706,0.0003376859574281819
30.24,7.924344517964619e-05,-0.0003411359100698205,0.0003502188355058937
30.25,9.476874758014385e-05,-0.0003512455275996258,0.00036380562966596393
30.26,0.00011108469260048554,-0.0003618526396434323,0.00037851967154569927
30.27,0.00012825418127734533,-0.00037300766504342627,0.00039444119104914876
30.28,0.00014634469503697488,-0.00038476681587289874,0.00041165795554371875
30.29,0.00016542866157400642,-0.0003971928657934164,0.0004302659813503201
30.3,0.0001855838369791582,-0.0004103560279731799,0.00045037032566747987
30.31,0.00020689370163263113,-0.00042433495890668556,0.0004720859679397289
30.32,0.00022944786603878143,-0.00043921790694215906,0.0004955387906192629
30.33,0.00025334248103219703,-0.0004551040271210973,0.0005208666702692634
30.34,0.0002786806445375878,-0.0004721048871015464,0.0005482206910223741
30.35,0.00030557279418459693,-0.0004903461924945403,0.0005777664935245681
30.36,0.0003341370714127669,-0.0005099697639144993,0.0006096857736566523
30.37,0.0003644996380609737,-0.000531135802440497,0.0006441779465184224
30.38,0.0003967949205925324,-0.0005540254849947271,0.0006814619923603053
30.39,0.00043116574978657686,-0.0005788439363400273,0.000721778502330624
30.4,0.00046776335459814257,-0.0006058236299044386,0.0007653919430301693
30.41,0.0005067471575644083,-0.0006352282753433941,0.0008125931598871296
30.42,0.0005482843051480573,-0.0006673572564545835,0.0008637021402163345
30.43,0.0005925488492258748,-0.0007025506884791574,0.0009190710574277957
30.44,0.0006397204749285261,-0.0007411951685485629,0.0009790876181029516
30.45,0.0006899826445136816,-0.0007837302964743642,0.001044178733427323
30.46,0.0007435199961256367,-0.0008306560444348904,0.0011148145356044141
30.47,0.0008005147993132891,-0.0008825410522950503,0.0011915127581799744
30.48,0.0008611422251537045,-0.0009400319188559982,0.0012748434964381956
30.49,0.0009255641368900051,-0.0010038635463665562,0.0013654343599091752
30.5,0.0009939210463414108,-0.001074870573681829,0.0014639760232078628
30.51,0.0010663218113829333,-0.0011539998993740476,0.0015712281734955914
30.52,0.0011428305702989759,-0.0012423242459434745,0.001688025842358139
30.53,0.0012234503201387576,-0.0013410566451374623,0.001815286096271046
30.54,0.0013081024496209071,-0.0014515656263080498,0.0019540150424659734
30.55,0.0013966014352567572,-0.001575390757612224,0.0021053150852381342
30.56,0.0014886238066713377,-0.0017142580153935592,0.002270392340792606
30.57,0.001583670390663786,-0.001870094230933086,0.002450564085845216
30.58,0.001681020763864088,-0.002045039575728538,0.0026472660755651593
30.59,0.0017796787958405589,-0.0022414566861153743,0.002862059519313988
30.6,0.0018783081687162664,-0.0024619345855588586,0.0030966374473349514
30.61,0.0019751568430737814,-0.0027092850305370335,0.0033528301375753055
30.62,0.0020679696384706065,-0.002986528279962836,0.0036326091989992574
30.63,0.0021538884544492687,-0.0032968645719188673,0.003938089826271569
30.64,0.0022293402280568527,-0.0036436267994263034,0.004271530651409416
30.65,0.0022899135689002383,-0.004030209039240887,0.0046353305225207385
30.66,0.002330226201732525,-0.004459964756439912,0.005032021440726075
30.67,0.002343786950971217,-0.004936067764011461,0.005464256787748545
30.68,0.0023228580879248195,-0.005461328478320451,0.005934793883931582
30.69,0.0022583264799444598,-0.006037957839204163,0.006446469836897195
30.7,0.0021395951486005444,-0.006667271667058188,0.007002169583941242
30.71,0.0019545105240542228,-0.007349329468034122,0.00760478500802971
30.72,0.0016893447559723927,-0.008082504075808085,0.008257164031311581
30.73,0.001328856674888726,-0.00886298236618194,0.008962048676817614
30.74,0.0008564590123144404,-0.009684202928704479,0.009722001255096764
30.75,0.0002545227264010279,-0.010536244306840524,0.010539318095194013
30.76,-0.0004951490104704849,-0.011405187383894995,0.011415930614905097
30.77,-0.0014106453729523598,-0.012272487643701372,0.012353294027628208
30.78,-0.002509043553673774,-0.013114407000141383,0.013352264621388733
30.79,-0.003805257218307404,-0.013901569857915188,0.014412967321546828
30.8,-0.00531063440584533,-0.014598722684748303,0.015534656153862335
30.81,-0.007031323219705475,-0.015164788675100549,0.01671557123703606
30.82,-0.008966452298581935,-0.01555331649124755,0.01795279701605458
30.83,-0.011106208031120076,-0.01571342151107275,0.019242127543885577
30.84,-0.013429929942245447,-0.015591306203442167,0.020577945655072448
30.85,-0.015904386307847285,-0.01513242012840845,0.021953123758861777
30.86,-0.018482428931387494,-0.01428427740835069,0.023358954605943033
30.87,-0.021102252770624216,-0.012999889732247244,0.024785120638114812
30.88,-0.023687495397961257,-0.011241697830358275,0.026219710302318705
30.89,-0.02614839569852513,-0.008985798746366123,0.027649288900744674
30.9,-0.0283841845402338,-0.006226178401134896,0.029059030085273083
30.91,-0.03028679892729576,-0.002978580360472565,0.03043291195771835
30.92,-0.03174589625784852,0.0007164138393777786,0.03175397893183361
30.93,-0.032655003281959444,0.004791535625439313,0.03300466713958249
30.94,-0.03291847798293306,0.009152622627450454,0.03416718738312193
30.95,-0.03245881045269283,0.013680375628425015,0.03522395567420909
30.96,-0.03122366347208376,0.018234252523004372,0.036158057548638156
30.97,-0.029191978427388958,0.022658474712531018,0.03695372891608572
30.98,-0.026378467739516517,0.026789892337945827,0.037596833533735816
30.99,-0.022835893989310966,0.03046722176333612,0.03807531557672701
31.0,-0.01865469996348327,0.033540964274830866,0.03837960545931997
31.01,-0.013959791042257115,0.035883171859730514,0.038502958180618246
31.02,-0.008904556540005994,0.03739617142091533,0.03844170605106709
31.03,-0.0036625141995698034,0.03801940894012609,0.03819541158854805
31.04,0.0015827687173522499,0.03773373081089915,0.03776691141359099
31.05,0.006648622496887589,0.03656266508155428,0.03716224776533342
31.06,0.011364131012473279,0.034570570077095214,0.036390490366632985
31.07,0.015579947570356226,0.03185784108293865,0.03546345731539471
31.08,0.019176244023059875,0.028553663487406556,0.03439534900802715
31.09,0.022068183300284563,0.024807033309577283,0.03320231341032482
31.1,0.02420858397583178,0.020776904669469364,0.03190196397965362
31.11,0.0255877457012469,0.016622355158152954,0.0305128730386939
31.12,0.026230685591918625,0.012493587626112851,0.029054063371470908
31.13,0.026192263328484514,0.008524428922486744,0.02754451935908854
31.14,0.02555082333872994,0.004826771426659886,0.026002736311630872
31.15,0.024401046111050907,0.0014871654292086245,0.02444632308400316
31.16,0.02284668109087064,-0.0014344579800784109,0.022891668933578364
31.17,0.020993745338769507,-0.0039041464108446285,0.021353681241097926
31.18,0.018944636802774247,-0.0059117203004127915,0.019845596501474605
31.19,0.016793452837212574,-0.007467432848803925,0.018378863173414153
31.2,0.014622646134287029,-0.008597947551024108,0.016963091760016535
31.21,0.012501009667951014,-0.009342056634458477,0.015606065003056804
31.22,0.010482871595993792,-0.009746499640565053,0.01431379936081361
31.23,0.008608305908844621,-0.009862156663260756,0.013090647985143736
31.24,0.006904124868579633,-0.00974079932147541,0.0119394351466975
31.25,0.005385410622341413,-0.009432495729430066,0.01086161236911648
31.26,0.004057358910086922,-0.008983691421063242,0.009857427294895308
31.27,0.002917239650725219,-0.00843593073134094,0.008926097382604891
31.28,0.0019563198187589103,-0.007825143778282485,0.008065981799140262
31.29,0.0011616370112431588,-0.007181401802723168,0.007274746208497277
31.3,0.0005175526494610026,-0.006529035559939033,0.00654951647741362
31.31,7.0487483360895525e-06,-0.005887014328130524,0.005887018547997551
31.32,-0.00038723996474182614,-0.005269493400864442,0.005283702820186537
31.33,-0.0006822464513571608,-0.004686452488673034,0.004735852314945971
31.34,-0.0008939187988116977,-0.00414436367253046,0.004239674641886935
31.35,-0.001036861816684126,-0.003646843505970899,0.0037913783752007166
31.36,-0.0011241372255792184,-0.0031952582848975043,0.0033872348618215246
31.37,-0.001167187589255319,-0.0027892636913681755,0.0030236267640858824
31.38,-0.0011758521027509007,-0.0024272697086127224,0.0026970847976829733
31.39,-0.0011584465803827953,-0.002106828951488452,0.002404314187129153
31.4,-0.0011218847383031344,-0.0018249516089605638,0.0021422123473375005
31.41,-0.0010718226019099774,-0.001578353404896752,0.0019078792311659153
31.42,-0.0010128122423803808,-0.0013636447344570531,0.0016986216765742814
31.43,-0.0009484548643205957,-0.0011774697944652033,0.0015119529577772345
31.44,-0.0008815464472114214,-0.001016604423191872,0.0013455886042339827
31.45,-0.0008142116851604082,-0.000878020767750488,0.0011974394084265424
31.46,-0.0007480239204667839,-0.0007589260169921441,0.001065602404679183
31.47,-0.0006841102019245875,-0.0006567814309109373,0.0009483504712745802
31.48,-0.0006232416046413169,-0.0005693068734577046,0.0008441210896086357
31.49,-0.0005659096102734998,-0.0004944750852925197,0.0007515046885914611
31.5,-0.0005123897438296884,-0.00043049905784015534,0.000669232910415436
31.51,-0.00046279386402239467,-0.000375815109872499,0.0005961670549311302
31.52,-0.00041711256531603864,-0.0003290636276029529,0.0005312868934537548
31.53,-0.0003752491166183831,-0.0002890689041517452,0.00047367998782972423
31.54,-0.00033704626886768145,-0.0002548190937642167,0.00042253160580534336
31.55,-0.0003023071375076093,-0.00022544696710425898,0.00037711528789556304
31.56,-0.00027081122458188323,-0.00020021190224744705,0.0003367840927969735
31.57,-0.0002423265016404871,-0.00017848335805903292,0.0003009625267393699
31.58,-0.00021661833707543825,-0.00015972594003678238,0.0002691391459412064
31.59,-0.000193455924806783,-0.00014348607254430668,0.00024085980955119456
31.6,-0.00017261675794728146,-0.00012938022642649361,0.00021572155227144344
31.61,-0.00015388959206248895,-0.0001170846096607514,0.00019336704053320405
31.62,-0.00013707625770248676,-0.00010632620479834923,0.00017347957301232635
31.63,-0.0001219926101374303,-9.68750256182663e-05,0.0001557785849103875
31.64,-0.00010846884443434728,-8.853746287125628e-05,0.0001400156153598652
31.65,-9.634935476440491e-05,-8.115059235551817e-05,0.00012597069819274894
31.66,-8.549227669607077e-05,-7.45773256858274e-05,0.00011344913785978058
31.67,-7.576881884819617e-05,-6.870229342336202e-05,0.00010227863428537017
31.68,-6.706246439272762e-05,-6.342836059891289e-05,9.230672271666666e-05
31.69,-5.926810239551752e-05,-5.867368530951542e-05,8.339849704500433e-05
31.7,-5.2291132894244584e-05,-5.4369241475844536e-05,7.543458754458886e-05
31.71,-4.6046577103567455e-05,-5.045673668630734e-05,6.830936641476142e-05
31.72,-4.045821451006237e-05,-4.688686513230259e-05,6.192935687763078e-05
31.73,-3.5457761290556924e-05,-4.361784386420767e-05,5.621182383716539e-05
31.74,-3.098409897738501e-05,-4.0614187944224834e-05,5.1083526227240906e-05
31.75,-2.6982558211793893e-05,-3.7845686558556827e-05,4.647961315180425e-05
31.76,-2.34042594562106e-05,-3.5286547825081706e-05,4.2342647745569736e-05
31.77,-2.020551042291655e-05,-3.29146849568177e-05,3.862174435803166e-05
31.78,-1.7347258519527608e-05,-3.071112068681922e-05,3.527180619111671e-05
31.79,-1.4794595650540562e-05,-2.8659490500067678e-05,3.2252851907799765e-05
31.8,-1.2516312123451435e-05,-2.6745628323605783e-05,2.9529420983082638e-05
31.81,-1.0484496090526961e-05,-2.4957220965147294e-05,2.7070048699170507e-05
31.82,-8.674174837159048e-06,-2.3283519824591216e-05,2.4846802702314345e-05
31.83,-7.062994247255438e-06,-2.1715100288539474e-05,2.2834873949248997e-05
31.84,-5.630932891296598e-06,-2.024366080492892e-05,2.1012215685436445e-05
31.85,-4.36004736027964e-06,-1.8861854967406714e-05,1.935922482423733e-05
31.86,-3.2342456844143935e-06,-1.7563151055396518e-05,1.7858460743911527e-05
31.87,-2.239085910945416e-06,-1.634171440943818e-05,1.6494397095869667e-05
31.88,-1.3615971580655323e-06,-1.5192308800774203e-05,1.5253202729883763e-05
31.89,-5.901207023003993e-07,-1.411021360394607e-05,1.4122548296687403e-05
31.9,8.583111092786472e-08,-1.30911541222416e-05,1.3091435491644388e-05
31.91,6.757001239020036e-07,-1.2131242865816894e-05,1.2150046260277138e-05
31.92,1.1879935752068448e-06,-1.12269299563104e-05,1.1289609602578494e-05
31.93,1.6303828555530457e-06,-1.0374961142249881e-05,1.050228389251006e-05
31.94,2.009791232514355e-06,-9.572342167253669e-06,9.781052876110742e-06
31.95,2.332471808306215e-06,-8.816308446698733e-06,9.119633729699602e-06
31.96,2.6040768324734978e-06,-8.10429918572735e-06,8.512395752149109e-06
31.97,2.8297193635696583e-06,-7.433935218297487e-06,7.9542884349516e-06
31.98,3.014028159551375e-06,-6.802999968669255e-06,7.440777803447872e-06
31.99,3.1611965746858095e-06,-6.2094230375470366e-06,6.967790054459532e-06
32.0,3.27502615011178e-06,-5.651265998653811e-06,6.53166163173328e-06
32.01,3.3589655047777856e-06,-5.126710060753159e-06,6.129094982892233e-06
32.02,3.4161450622942376e-06,-4.634045307523058e-06,5.757119331646146e-06
32.03,3.4494080862980517e-06,-4.171661275286908e-06,5.413055878295252e-06
32.04,3.4613384413692282e-06,-3.7380386680695496e-06,5.094486911327138e-06
32.05,3.454285447532642e-06,-3.331742042221343e-06,4.799228374326547e-06
32.06,3.4303861531976707e-06,-2.9514133200415307e-06,4.525305486458221e-06
32.07,3.3915853133534997e-06,-2.5957660144491917e-06,4.270931062370897e-06
32.08,3.339653326352167e-06,-2.263580065538098e-06,4.034486219249801e-06
32.09,3.276202353136972e-06,-1.953697205505559e-06,3.8145031956337987e-06
32.1,3.2027008168395874e-06,-1.665016781468651e-06,3.6096500390975833e-06
32.11,3.1204864578377337e-06,-1.3964919765558796e-06,3.4187169485252257e-06
32.12,3.030778099274386e-06,-1.1471263787394265e-06,3.2406040819330413e-06
32.13,2.9346862603461923e-06,-9.159708544519752e-07,3.0743106630381713e-06
32.14,2.8332227390946032e-06,-7.021206903928174e-07,2.9189252393989837e-06
32.15,2.7273092727010306e-06,-5.047129722465444e-07,2.773616962256138e-06
32.160000000000004,2.6177853711949084e-06,-3.22924173513746e-07,2.637627773489201e-06
32.17,2.5054154098089017e-06,-1.5596793141906555e-07,2.510265398586183e-06
32.18,2.3908950558026004e-06,-3.092990026977487e-09,2.390897056430625e-06
32.19,2.2748570972590266e-06,1.3641870661144674e-07,2.2789438072193236e-06
32.2,2.1578767340143545e-06,2.63253786199146e-07,2.1738754690985967e-06
32.21,2.0404763843793764e-06,3.7806909780450586e-07,2.0752060422822226e-06
32.22,1.923130055561428e-06,4.814932506891507e-07,1.9824895866215555e-06
32.230000000000004,1.8062673206022464e-06,5.741280523012514e-07,1.8953165049444502e-06
32.24,1.6902769401274686e-06,6.565498541807425e-07,1.8133101900533821e-06
32.25,1.5755101631935099e-06,7.293108135015062e-07,1.736123998168411e-06
32.26,1.4622837379583428e-06,7.92940077087563e-07,1.6634385158908198e-06
32.27,1.350882659731874e-06,8.47944893981888e-07,1.5949590915111953e-06
32.28,1.2415626811462393e-06,8.948116619839942e-07,1.5304136047610125e-06
32.29,1.134552606668618e-06,9.340069130051656e-07,1.4695504519546087e-06
32.3,1.0300563914457403e-06,9.659782415895374e-07,1.4121367259520713e-06
32.31,9.28255062463526e-07,9.911551805202298e-07,1.3579565725240457e-06
32.32,8.293084782238798e-07,1.009950027051366e-06,1.306809706573632e-06
32.33,7.333569415387297e-07,1.022758622974614e-06,1.2585100732898281e-06
32.34,6.405226786181168e-07,1.0299610914436954e-06,1.2128846407272274e-06
32.35,5.509111963445775e-07,1.031922533220589e-06,1.1697723115316977e-06
32.36,4.646125284837992e-07,1.0289936847880235e-06,1.1290229426179714e-06
32.37,3.8170238055310234e-07,1.0215115405698285e-06,1.0904964625514609e-06
32.38,3.0224318214907996e-07,1.009799941328244e-06,1.0540620772336546e-06
32.39,2.2628505470892354e-07,9.94170130648817e-07,1.0195975552436885e-06
32.4,1.5386670193824308e-07,9.749212812831957e-07,9.86988584870271e-07
32.410000000000004,8.501622947382498e-08,9.523409929945256e-07,9.561281954904087e-07
32.42,1.9751899750373208e-08,9.267057634351996e-07,9.269162365218147e-07
32.43,-4.19171724999094e-08,8.982814334831036e-07,8.992589077072556e-07
32.44,-9.999037916525217e-08,8.673236083682765e-07,8.730683349879198e-07
32.45,-1.5447502758167513e-07,8.340780558324913e-07,8.482621866897449e-07
32.46,-2.0538579515160668e-07,7.987810824863941e-07,8.247633251958972e-07
32.47,-2.5274422599236024e-07,7.616598894511644e-07,8.024994897015433e-07
32.480000000000004,-2.96578266172895e-07,7.22932908304303e-07,7.814030060573341e-07
32.49,-3.369218343886603e-07,6.828101182827971e-07,7.614105200988408e-07
32.5,-3.7381442518779244e-07,6.414933456372197e-07,7.424627512376046e-07
32.51,-4.073007420993412e-07,5.991765459733703e-07,7.245042634513977e-07
32.52,-4.3743035823302066e-07,5.560460703659491e-07,7.074832511609606e-07
32.53,-4.6425740211578454e-07,5.122809159788415e-07,6.913513378127058e-07
32.54,-4.878402667115243e-07,4.6805296188251543e-07,6.760633853065603e-07
32.55,-5.082413397316835e-07,4.235271907155524e-07,6.615773127062811e-07
32.56,-5.255267534949532e-07,3.788618967988834e-07,6.47853922952538e-07
32.57,-5.397661527289916e-07,3.3420888127668547e-07,6.348567365603604e-07
32.58,-5.510324788292874e-07,2.897136348217005e-07,6.225518315179474e-07
32.59,-5.594017692035873e-07,2.4551550841677457e-07,6.109076888215198e-07
32.6,-5.649529704304674e-07,2.0174787269226425e-07,5.998950432651219e-07
32.61,-5.677677640526214e-07,1.5853826627631483e-07,5.894867392666377e-07
32.62,-5.679304039093372e-07,1.16008533589673e-07,5.796575916437645e-07
32.63,-5.655275639864445e-07,7.427495249546237e-08,5.703842513574908e-07
32.64,-5.606481958302526e-07,3.344835219386014e-08,5.616450763179552e-07
32.65,-5.533833946329355e-07,-6.365778267989741e-09,5.534200073980235e-07
32.660000000000004,-5.43826273151271e-07,-4.506719051715428e-08,5.456904498254575e-07
32.67,-5.320718426694973e-07,-8.256078607145864e-08,5.384391601271693e-07
32.68,-5.182169002619139e-07,-1.1875653393118049e-07,5.316501387834052e-07
32.69,-5.023599216497897e-07,-1.535693962400964e-07,5.253085287157734e-07
32.7,-4.846009589830321e-07,-1.8691926172459074e-07,5.194005196868217e-07
32.71,-4.650415429088782e-07,-2.187308866331303e-07,5.139132586326074e-07
32.72,-4.4378458831829856e-07,-2.4893384290939205e-07,5.088347658862153e-07
32.730000000000004,-4.2093430318674566e-07,-2.774624733450861e-07,5.04153857184574e-07
32.74,-3.9659609994885793e-07,-3.0425585346785695e-07,4.99860071284053e-07
32.75,-3.7087650886701994e-07,-3.292577599287785e-07,4.959436029456433e-07
32.76,-3.438830928719372e-07,-3.524166451627578e-07,4.923952409913631e-07
32.77,-3.1572436336983843e-07,-3.7368561810070856e-07,4.892063110800988e-07
32.78,-2.8650969652536064e-07,-3.930224307185456e-07,4.863686228067846e-07
32.79,-2.563492495398609e-07,-4.1038947021183743e-07,4.838744206923966e-07
32.8,-2.2535387645810283e-07,-4.2575375658690376e-07,4.81716338608682e-07
32.81,-1.9363504304244971e-07,-4.3908694546099787e-07,4.798873571665758e-07
32.82,-1.6130474026235708e-07,-4.5036533586253084e-07,4.783807635949388e-07
32.83,-1.2847539595178135e-07,-4.5956988282111763e-07,4.77190113645686e-07
32.84,-9.525978419134336e-08,-4.6668621453246e-07,4.763091950811139e-07
32.85,-6.177093197426267e-08,-4.7170465387742683e-07,4.757319923303372e-07
32.86,-2.8122022715547373e-08,-4.7462024406847497e-07,4.7545265194468364e-07
32.87,5.573703835759906e-09,-4.754327781854153e-07,4.7546544853180557e-07
32.88,3.9203055724387015e-08,-4.741468323529764e-07,4.757647509100384e-07
32.89,7.265299740290105e-08,-4.707718022989794e-07,4.76344988292577e-07
32.9,1.0581076328335437e-07,-4.653219430161741e-07,4.772006163857645e-07
32.910000000000004,1.38563976683061e-07,-4.5781641123471835e-07,4.783260833678846e-07
32.92,1.7080077463001535e-07,-4.4827931039155445e-07,4.797157957992846e-07
32.93,2.0240993900086076e-07,-4.367397377618975e-07,4.813640846040169e-07
32.94,2.3328103447540346e-07,-4.232318333933248e-07,4.832651713535638e-07
32.95,2.6330455380274576e-07,-4.077948304562655e-07,4.854131351746853e-07
32.96,2.923720708861651e-07,-3.9047310659543633e-07,4.878018806939512e-07
32.97,3.2037640220976563e-07,-3.7131623583438804e-07,4.9042510752111e-07
32.980000000000004,3.4721177714262445e-07,-3.5037904055043266e-07,4.932762818579272e-07
32.99,3.7277401767444854e-07,-3.277216430004249e-07,4.963486109017008e-07
33.0,3.969607281540306e-07,-3.0340951583596337e-07,4.996350207865656e-07
33.01,4.196714956191462e-07,-2.775135310045546e-07,5.03128138873018e-07
33.02,4.4080810132740204e-07,-2.5011000638652626e-07,5.068202812541516e-07
33.03,4.602747441159357e-07,-2.2128074946837507e-07,5.107034463916176e-07
33.04,4.779782762387712e-07,-1.9111309730137954e-07,5.147693158263355e-07
33.05,4.938284523494844e-07,-1.5969995193976523e-07,5.190092629225901e-07
33.06,5.077381923160075e-07,-1.2713981049342807e-07,5.234143705981255e-07
33.07,5.196238585715001e-07,-9.353678887107588e-08,5.279754589647577e-07
33.08,5.294055487201769e-07,-5.900063822224875e-08,5.326831237483917e-07
33.09,5.370074041280902e-07,-2.3646753020668435e-08,5.375277862741706e-07
33.1,5.423579352375751e-07,1.240383034376005e-08,5.424997556887583e-07
33.11,5.453903643447048e-07,4.9024445674317605e-08,5.475893039438627e-07
33.12,5.460429865757966e-07,8.608282107188246e-08,5.527867538864416e-07
33.13,5.442595497872953e-07,1.234411164211661e-07,5.580825805899817e-07
33.14,5.399896540915975e-07,1.6095597574301597e-07,5.634675258196779e-07
33.15,5.331891716826656e-07,1.9847859600929312e-07,5.68932725261491e-07
33.160000000000004,5.238206875919664e-07,2.35854814136032e-07,5.744698478601489e-07
33.17,5.118539619540335e-07,2.72925214006738e-07,5.800712463212299e-07
33.18,4.972664142943765e-07,3.095252555281978e-07,5.85730117541332e-07
33.19,4.800436302739659e-07,3.4548542788817354e-07,5.914406714537667e-07
33.2,4.6017989123367205e-07,3.8063142937149873e-07,5.971983065290997e-07
33.21,4.376787267747671e-07,4.1478437630002823e-07,6.029997899616422e-07
33.22,4.1255349049311355e-07,4.47761043891915e-07,6.088434404222723e-07
33.230000000000004,3.8482795885178813e-07,4.793741420901995e-07,6.147293111758608e-07
33.24,3.5453695302641865e-07,5.094326296905412e-07,6.206593713581364e-07
33.25,3.2172698339674597e-07,5.377420704023964e-07,6.266376832957191e-07
33.26,2.8645691617686267e-07,5.64105034808131e-07,6.326705739335763e-07
33.27,2.487986614798452e-07,5.88321552539771e-07,6.387667987121505e-07
33.28,2.0883788189554734e-07,6.101896193729375e-07,6.449376966072839e-07
33.29,1.6667472041843038e-07,6.295057643427116e-07,6.511973355038113e-07
33.3,1.22424546295738e-07,6.460656824106137e-07,6.575626476043246e-07
33.31,7.621871706442547e-08,6.59664938664758e-07,6.64053555170459e-07
33.32,2.8205354705845595e-08,6.700997505027075e-07,6.706930875280238e-07
33.33,-2.144986653747285e-08,6.771678547414884e-07,6.775074909325098e-07
33.34,-7.256292358125533e-08,6.806694671103121e-07,6.845263335583922e-07
33.35,-1.2493064255556933e-07,6.804083421173239e-07,6.917826085355085e-07
33.36,-1.7832989548019584e-07,6.761929418377303e-07,6.993128385873819e-07
33.37,-2.3251680020532992e-07,6.678377227505361e-07,7.071571864206339e-07
33.38,-2.872259290308157e-07,6.551645503547753e-07,7.153595755626607e-07
33.39,-3.4216953229328796e-07,6.380042519269228e-07,7.239678268449778e-07
33.4,-3.970367842176285e-07,6.161983184364671e-07,7.330338161816313e-07
33.410000000000004,-4.514930594766715e-07,5.896007673247031e-07,7.42613659708387e-07
33.42,-5.051792502149805e-07,5.580801785635521e-07,7.527679327344492e-07
33.43,-5.577111347848725e-07,5.215219171567008e-07,7.635619293402671e-07
33.44,-6.086788111348566e-07,4.798305560163004e-07,7.750659698447962e-07
33.45,-6.576462097137069e-07,4.3293251394467224e-07,7.873557637950323e-07
33.46,-7.041507029259747e-07,3.807789242715884e-07,8.005128366244805e-07
33.47,-7.477028306337835e-07,3.233487505310977e-07,8.146250287143124e-07
33.480000000000004,-7.877861639752754e-07,2.6065216640699617e-07,8.297870763054459e-07
33.49,-8.238573329036424e-07,1.9273421801804607e-07,8.461012845836666e-07
33.5,-8.553462463868675e-07,1.196787874406466e-07,8.636783043305924e-07
33.51,-8.816565381946889e-07,4.161287716283941e-08,8.826380248364628e-07
33.52,-9.02166275696409e-07,-4.128876409402532e-08,9.031105973491514e-07
33.53,-9.162289741650917e-07,-1.2879865308390806e-07,9.252376052322157e-07
33.54,-9.231749648043407e-07,-2.206311996183274e-07,9.491733992725027e-07
33.55,-9.223131711684316e-07,-3.164369279531837e-07,9.750866192719582e-07
33.56,-9.129333559304368e-07,-4.157962696978364e-07,1.0031619262437373e-06
33.57,-8.943089081774499e-07,-5.182129059910027e-07,1.033601973286227e-06
33.58,-8.657002506985396e-07,-6.231066370357148e-07,1.0666296476178938e-06
33.59,-8.263589572247981e-07,-7.298057578190225e-07,1.1024906214256218e-06
33.6,-7.755326814428728e-07,-8.375389200731239e-07,1.1414562552385558e-06
33.61,-7.124710130142236e-07,-9.454264623620257e-07,1.1838269046274835e-06
33.62,-6.364323910122446e-07,-1.0524711927499985e-06,1.2299356893342704e-06
33.63,-5.466922223681234e-07,-1.1575486119875013e-06,1.2801527936586276e-06
33.64,-4.425523723762472e-07,-1.2593965697282121e-06,1.3348903783228912e-06
33.65,-3.2335221637123573e-07,-1.356604352212787e-06,1.394608197407023e-06
33.660000000000004,-1.884814667008069e-07,-1.4476012073951177e-06,1.4598200296411507e-06
33.67,-3.7395017516214264e-08,-1.530644322982562e-06,1.5311010517969688e-06
33.68,1.3036991785070329e-07,-1.6038062847306827e-06,1.6090963036506033e-06
33.69,3.1517406549201964e-07,-1.6649620570284299e-06,1.694530419586237e-06
33.7,5.172533923647773e-07,-1.711775545945502e-06,1.788218832137133e-06
33.71,7.366930499243427e-07,-1.7416858271490932e-06,1.891080688468594e-06
33.72,9.733975051522563e-07,-1.7518931482744785e-06,2.004153763065025e-06
33.730000000000004,1.2270563423802768e-06,-1.7393448484389995e-06,2.128611699950686e-06
33.74,1.4971051487116062e-06,-1.7007213778017207e-06,2.265783977172269e-06
33.75,1.7826808150706496e-06,-1.632422648812967e-06,2.4171790568301924e-06
33.76,2.0825704923998447e-06,-1.5305550097668197e-06,2.5845112678680354e-06
33.77,2.3951533364093855e-06,-1.3909192024988506e-06,2.7697320687736297e-06
33.78,2.7183340523787996e-06,-1.208999752017174e-06,2.975066456518196e-06
33.79,3.049467111258874e-06,-9.799563394338916e-07,3.2030554303424438e-06
33.8,3.3852703466507795e-06,-6.986178343211476e-07,3.4566055890634473e-06
33.81,3.7217264555854105e-06,-3.5947981277534145e-07,3.7390471441260724e-06
33.82,4.053970710064268e-06,4.329343185314038e-08,4.054201874512493e-06
33.83,4.376162935977026e-06,5.158611612948797e-07,4.406462842229759e-06
33.84,4.681341525122125e-06,1.0646912621159808e-06,4.800888038525671e-06
33.85,4.961256907333856e-06,1.6965363129179726e-06,5.243310553611832e-06
33.86,5.206181514259872e-06,2.4183984709476835e-06,5.740468371457447e-06
33.87,5.4046928034807974e-06,3.2374805452803793e-06,6.300157504464954e-06
33.88,5.543425368419701e-06,4.161120076533423e-06,6.931412922815132e-06
33.89,5.606787520041797e-06,5.19670258442864e-06,7.644722627139833e-06
